id,00,01,02,03,04,05,06,07,08,09,10,11,12,13,14,15,16,17,18,19,20,21,22,23,24,25,26,27,28,29,30,31,32,33,34,35,36,37,38,39,40,41,42,43,44,45,46,47,48,49,50,51,52,53,54,55,56,57,58,59,60,61,62,63
001519c8,0.9965002,-0.051571924,0.05325007,0.02671048,-0.004564546,-0.002286415,-0.0076445676,-0.0138574885,0.007615133,-0.0055246158,-0.0020816524,-0.0030965167,9.7673896e-05,0.0014956623,0.0046262075,0.0012389168,-0.005246652,-0.00088147155,0.000778355,0.00024256043,-0.00046679206,-0.0006549689,-0.0006786776,0.00081114925,5.499105e-07,-0.001259993,0.0036157593,0.0020615703,-0.00021985697,0.00087270245,-0.0018706354,-0.0032878146,0.0012423631,-0.001553475,-0.001721485,-0.0002587884,0.0016666771,-0.0008193427,-0.00057078595,0.0009416135,-0.0017948012,-0.0005354843,-0.0027740113,-0.002586894,0.0035273575,0.0051087197,-6.576839e-05,-0.0043392526,0.008028281,0.003303718,0.0030940084,-0.0028103082,-0.0020472284,-0.00019236069,-0.00010066879,0.0037649428,0.00034202964,-0.00091978087,-0.0006954356,0.00010923826,0.0017873546,-0.0002534093,-0.0019127687,-0.001325435
0022f953,0.9991758,0.024999818,-0.017389448,0.017095694,-0.0056429454,0.012512666,-0.0020952625,-0.003364099,0.001419656,0.0005291247,-0.0031151092,0.00380672,0.0007308167,0.0006280416,0.0027918727,-0.00055279484,0.0017718987,0.0008635725,0.0020236736,0.0020751182,-0.0007622229,-0.0024168617,0.00090248894,0.005047726,-0.0007174913,-0.002690238,-0.0015698329,0.0049789897,0.0003435454,0.0016555924,0.0037697575,0.000490783,-0.0008368313,0.00057370844,0.0013750847,0.0004853579,-0.0021585766,0.0023797269,0.0010138814,-0.0009974359,-0.00351865,-0.0021812043,-5.460181e-05,0.00047407785,0.00063687423,0.0018018085,0.0008353375,-0.00051635364,0.00013204265,4.9934366e-05,-0.0008881821,0.00030692585,0.0016718467,0.00090986176,0.000113919334,0.00047752238,-0.00080453453,8.755884e-06,-0.0007272785,-0.0006550848,0.00053752674,-0.00043150422,0.00062958564,-0.00023684211
0042269b,0.998002,-0.059992485,-0.0039954525,-0.015050992,-0.0022128168,0.0022770874,-0.0037120022,-0.0069245957,0.0027394278,-0.0030116122,-0.00201525,-0.00026514955,-0.00053201406,0.00013899824,0.00035570507,0.00017098342,-0.001167497,-0.0010574242,0.00042056988,5.564304e-05,0.00012019374,0.00037310077,0.0025311862,0.0005996609,-0.0013344849,-0.00084903213,-0.00091329665,-0.0004305398,0.00038673615,-0.0009909698,-0.0010340745,0.0013072407,0.0012532686,-0.0012125552,-0.0013430996,0.0015588717,-0.0017258446,0.000586041,0.00069455255,-0.00053876307,0.00067890924,-0.0010690965,-0.0015747328,8.584322e-05,5.2018782e-05,-0.0008956475,0.00013524911,0.0005479754,0.0006626254,-0.0012592623,0.0007087016,0.000542174,0.0010865004,0.0001389109,0.00041307334,-0.00025309564,2.8565435e-05,-0.00013019632,-0.0008263715,0.0010970492,-0.0005112326,0.00076784473,-0.00024269974,-0.00017248765
0059420b,0.9981963,-0.01856762,-0.030928198,0.036801267,0.0040845,-0.008200968,0.021884814,-0.0042828596,-0.00357165,0.0038802093,-0.00693566,-0.008329424,0.0011777191,0.0001246005,0.00052669406,-0.0028544362,-0.0015386853,0.0001777698,-0.0039665545,-0.00064876664,0.00038302623,-0.0012461516,-0.00071424287,-0.00017677981,0.0026658722,0.0020067787,-0.0003270935,0.003008908,0.0008685329,0.001844565,-0.0006269162,0.00019634454,0.00064588577,-0.00040662507,0.0010081038,-0.00021419284,0.0003923537,0.00012534343,0.0010129433,0.0012527034,0.0023911053,0.00054028345,0.0004729061,0.0018146315,-0.0022952664,-0.0029028011,0.004438867,0.001230282,0.00016328553,-0.00094906363,0.0027142449,-0.00051676633,-0.0012298085,-0.0014697171,-0.0024628039,0.0026036282,0.0013702267,2.0410607e-05,0.00016070827,-0.0001179477,-0.00070001406,-0.0007714055,0.000103799466,-0.0006075279
0075873a,0.98685026,-0.062119957,0.14043036,-0.045985784,-0.0026149638,0.0050935876,0.0020564233,-0.0022907336,-0.0022442057,-0.0115027055,-0.0075902613,0.0030731622,0.005354798,-0.008004111,-0.00023453402,0.00062051776,-0.0010445777,-0.00016781449,0.00067622494,-0.0016002512,0.0004624147,0.0004215988,-0.0017006153,-0.0023944501,0.0020666907,0.00032220213,-0.001660268,-0.00031581504,0.00016651326,0.0007697966,-0.0012547069,-0.0019438775,0.0018173637,0.0045919227,0.0010601127,-0.0013262444,-0.0009751772,0.0019319379,0.00034195,-0.0019473548,-0.0004413574,0.0005170982,-0.0004685868,-0.0017331307,-0.00042946084,-0.000882415,-0.0002799755,0.00061620545,0.0006878343,0.00062116986,-0.0010731794,0.00022941656,-8.590597e-05,-0.0008289528,0.0002664822,0.00020243735,-6.209723e-05,-0.0009850991,0.00029853443,-0.00030343825,0.0011366585,-0.0005529903,-0.000974421,-0.0006269964
0081af50,0.9951679,-0.060602367,0.012315491,0.07266291,0.002445605,-0.016007267,0.0030093808,-0.0073950435,0.0032397897,-0.0034364364,0.004550312,0.0032280828,-0.0023110483,0.003095035,0.0008519272,-0.00056355644,0.000103235994,0.001669449,-0.001058839,0.0016499885,-0.0017772091,-0.0013134606,-0.0041296175,0.0034394928,0.0015012253,-0.0026001784,-0.0028156156,0.001012602,-0.0031846918,-0.0001669891,0.0014202235,4.4431064e-05,0.0016267614,-0.0002114502,0.00071706984,0.0020365252,-0.0012039018,-0.0010125783,0.0011335756,0.0014649678,-4.810414e-05,-0.0010380091,-0.00042360983,0.0017163812,-0.00034203107,-0.00031491378,-0.0013020162,-0.0008925523,0.0011197606,0.00039982767,-0.00090822385,-0.00031674438,-0.00042990956,0.0007689247,0.0016794575,0.0015099613,-7.39645e-05,-0.0007144466,0.0006078013,-6.836218e-05,0.0011314997,-0.00015296601,0.0011487325,-0.00012534924
0093f095,0.9956789,-0.07633867,-0.046761267,0.0032317892,0.022693194,-0.0004944826,-0.004579157,-0.0006100472,-0.0036264258,-0.00033205512,0.0014446205,0.0005938538,0.00068713544,-0.00052282674,0.0011578721,0.0007207045,-7.8972895e-05,-0.00027973874,6.957777e-05,0.0012066253,-0.0014761349,-0.001957065,0.00067918096,0.0013568819,-0.00062116206,-0.0010194451,0.00022815823,0.002151565,0.0011083824,-0.0010832051,-0.0007098015,-0.0016053959,0.00064239313,-0.0006470735,-0.0015852322,-2.9175426e-05,-7.557793e-05,0.0010375956,0.00034228142,0.0008794101,-0.0003516025,0.00093578984,0.00091972493,0.0003245189,2.4886045e-05,0.0010987783,-2.7276372e-05,0.00044580022,0.00017157389,6.269582e-05,-0.0010582554,-0.00043989287,1.6318038e-05,0.00014684,0.0010225831,-8.7494176e-05,0.00032063326,-5.281288e-05,-0.00025099106,8.268666e-05,-0.00028831733,-0.0002656584,-0.000388045,-0.0005219911
009e23ab,0.9992515,-0.026747722,-0.022842256,-0.009924834,-0.00090583414,0.0034258591,0.0021733798,3.575534e-05,-0.0011910246,0.0033755447,-0.0016533288,0.0021637445,-0.0018058942,-0.0011148729,-0.003749454,0.00238098,0.0021427528,0.0013715172,-0.0011705934,0.0015347415,-0.00057156186,7.81572e-05,7.712341e-05,0.0011000548,-0.0009329553,0.000709834,-7.9760895e-05,-0.0024679638,-0.00043762257,-0.00042420998,-0.00046391546,0.0045874403,0.0006308196,-0.0008720927,-0.0007626532,-0.0011592252,-0.0002403344,-0.001072343,-0.0002682785,-0.00013566625,0.00023985478,-0.0013921411,-0.0017352146,-0.00056353334,-0.0013276344,0.0014608256,0.0011877891,0.0015972493,-0.0002593235,-0.0017845407,0.001222374,0.00027974584,-6.76062e-07,-0.00027078824,0.0003234585,-0.00033451885,-0.0016049317,-0.0006741204,-0.0010010421,0.00023259669,-0.0012467287,0.0010752603,0.0007152402,0.0005736482
00e048f1,0.9961705,-0.07522147,-0.040384814,-0.0049629975,-0.0010156325,0.0081693875,0.0045264224,0.002901411,-0.00970927,0.0072890087,-0.0038096064,-0.0042655086,-0.0014607587,0.0005339614,-0.0018275607,-0.00033732207,-6.19239e-05,0.00017155663,-0.001299769,-0.0014602969,0.0011350494,-0.000987136,0.0016476637,-0.00022197458,-0.0008003883,-0.0021665173,0.00011258967,0.0012616549,-0.00037428548,0.00034227048,-0.0011493032,0.0003136767,0.00061993714,0.00043894656,0.00047228273,-0.0018042043,-0.000769793,0.00034824706,-0.0015769782,0.0005073212,0.0007493071,-0.00044682092,-0.00016291987,9.343756e-05,0.00079220254,0.0015600283,0.00068181346,0.0004434057,-0.00031515508,-0.00020122361,-0.000700835,0.0010437741,-0.0009902978,0.0006249338,-0.0007802281,-0.00033210416,0.0002454812,8.0451966e-05,0.00022569112,-0.00073644164,-0.00046796736,0.00022760374,-0.00020877604,0.0005799359
00e1f05a,0.9940546,-0.05640263,0.09245229,0.0058603454,-0.0031298613,-0.0037244093,-0.0039953752,-3.5099314e-05,-0.002878952,-0.0014871772,0.004676524,0.0021772084,-0.00037736696,0.00045352572,0.0005835429,0.00088912994,0.00081904884,0.00042140394,0.00074908463,-0.00033335458,0.00012540739,0.00026280413,-0.0005779996,-0.0007807171,-0.00065013795,-0.0009757012,0.00042725558,-0.0005630437,0.00065345946,-0.0003825752,-0.0006361684,-0.00030549552,0.0006088809,-0.0005198653,0.00053983735,-0.00024991747,-0.00073467754,-0.00065287505,0.00069691334,-0.0005874277,0.0002540021,-5.2565658e-05,0.000372082,-9.805156e-05,-5.087405e-05,8.955142e-05,6.65163e-05,-0.00058602367,1.5805077e-05,-0.000187103,-0.00029429243,-0.00058425916,8.913362e-05,-0.00038683106,0.00020410144,-0.00022025162,-0.00010315856,0.00025912287,0.00024281173,0.00021452486,-7.36795e-05,-0.00033370333,2.4262197e-05,0.00042662246
00e713bd,0.99707395,-0.073274784,0.009863814,-0.015890667,-0.0028006933,0.0013498445,-0.006216527,0.0042448915,-0.004028622,0.0011797195,-0.0023396004,-0.004129652,-0.0015634162,0.0010495203,-0.0017920788,-0.00041315763,0.0007098876,0.00047922562,-0.0004341736,0.0007396148,-0.00058316684,-7.2359784e-05,-0.001128555,-0.0007700663,-0.00045394458,-3.6826743e-05,-0.00049284694,-0.0005527653,-0.0002666568,0.00031436575,2.7864311e-05,-0.00037147678,0.00016780707,0.00020881354,-0.00037876787,-0.00057527795,-0.000871412,8.494805e-05,-0.00017635914,0.00025714465,0.0005413735,0.00017493086,0.0006333897,-3.362503e-05,-0.0009503836,0.0003675041,-0.00011372486,-0.0003736345,-2.6283124e-07,0.00021086918,0.00017540704,0.00033861247,-0.00023277942,0.00024960234,-8.030217e-05,-0.0002646155,-0.0007749006,0.00036307855,0.00034867448,0.0004991087,-0.00015232307,-0.00033184097,7.967859e-05,-0.0002499136
00f0737e,0.98575,0.15338737,-0.035768334,0.05633611,-0.003774854,0.0035559617,0.0015042209,-0.0075105852,0.0019228045,-0.0007151788,0.0034393035,-0.006779894,0.00021432483,0.00081243634,0.0015394085,-0.0023225278,0.0018173497,-0.0006091468,0.0028933408,0.0013467559,-0.0008864374,0.003943802,0.0041505666,-0.0008637349,-0.0043055885,0.0008935752,-0.0036575333,-0.0019975628,0.0011410038,-0.0013498333,0.0028595128,0.00022346737,-0.00073350273,-0.00049937895,0.0009364937,0.0028597875,-0.0015897214,0.0015300645,0.0023482211,-0.0009571221,-0.00018907059,-0.0008806148,-0.0009724161,-0.0019229553,0.0005093158,-0.0009182606,-0.0007892455,0.00046792143,1.8464838e-05,-0.000803569,0.00050962885,-0.0010169506,0.00053671806,-0.00055095396,-0.00094377564,0.00022899319,0.00071855576,-0.00096209307,-0.00043870846,0.0005785997,0.00031010143,0.00086941896,0.0012566284,-0.0012974071
00f8e84c,0.9928215,0.06992862,-0.087181434,-0.040617473,0.0021052992,-0.010674996,-0.0039512725,0.0009835041,0.0013346096,0.0003551945,-0.00035275347,0.0028118712,0.00042069564,-0.0021228506,-0.0008500375,0.001631986,-0.0010562297,-0.0008861828,-0.000681776,0.0008477068,-0.0005226191,0.00020533522,0.00021510765,-0.00012700149,9.59031e-05,0.0009854484,0.0005561512,0.00059647387,0.000580549,-0.00010931134,0.00012109509,-0.00041310964,0.00012229902,0.00067207596,0.0007050416,3.318613e-05,-0.00051325455,-0.00079835946,2.2017011e-05,-0.00033793127,-0.00012211558,0.0002318905,-0.00015834944,4.6306377e-07,0.00039031397,0.000112771755,3.049796e-05,-7.190852e-05,-0.00021424449,0.00028880648,-0.0001745242,0.000107776614,-0.00022170234,0.00020891524,-0.00012261805,7.45356e-05,-9.248415e-05,0.00010057831,0.0004435991,-7.370077e-05,0.00016694117,2.9726814e-05,-0.00031447652,-9.051696e-05
00fc9a6a,0.9909265,-0.0685079,0.10704486,0.0075051803,-0.0026917816,0.0108159045,0.0059914067,0.00050184166,0.0119606685,-0.008484567,-0.011754574,0.010493513,0.0006900026,-0.0037638699,-0.006166291,-0.01693933,0.0130165825,-0.0023214943,0.006030617,-0.0014089994,-0.001662918,-0.0005503476,0.000117454445,-0.00087170774,0.0035972495,0.0043764478,0.015620207,0.0014801974,0.0009225685,0.0010429012,0.008877248,-0.001405787,-0.00254984,-0.0027638583,0.0002729514,-0.0044574826,-8.772833e-06,0.0003836475,0.0035257004,0.0010410544,-0.0004217501,-0.0011487252,-0.00040911703,0.00016988267,-0.0012759161,-0.003107614,-0.0012655685,0.0015038352,0.0019055414,-0.00412974,0.0016743328,0.003191986,0.0039596455,-0.00056229817,0.0010125744,-0.0011315333,0.0020002539,-0.00442988,-0.0008516794,-0.00054336275,0.00047100603,-0.0013985637,-0.0042977706,-0.0030151156
0144e4d5,0.9954485,0.05569072,-0.054362465,-0.025954392,-0.0032960512,0.034363125,0.01617387,0.016320962,0.02103881,0.00088203425,0.0047099288,0.001957583,0.0007161902,-0.00025513466,-0.00010623588,-0.0032808322,0.00013885935,0.0037973546,0.0036686352,-0.0018048215,-0.00020489763,0.0013527303,-0.0027753648,-0.001321311,0.0008663244,-0.0040299394,-0.004151435,-0.00020521038,3.2284737e-05,-0.0014577878,-0.0002280368,0.0006691188,-0.0008325436,0.0015664571,0.000662304,-0.0022977954,0.0013507378,0.0009216208,0.00026257412,-0.0021205142,0.0006924427,0.00056223804,-0.000765876,-0.00011892981,-0.00016536171,-0.00057097606,0.0008378957,-0.0010376857,0.00025960122,0.00028727017,-0.00022498408,-0.0008004826,-0.0003652351,0.00041237482,0.0016352717,0.0008649975,-0.00086449564,1.607488e-05,0.0018397458,0.0011556776,5.2108284e-05,0.00076243107,0.00035519322,-0.0003862653
014e7ae9,0.99691254,-0.07338782,0.023343459,0.007309234,-0.003681659,-0.0018957981,-0.0022464225,-0.0004394792,-0.0009744536,-0.008373251,-0.0032255338,0.0027980201,0.00010570758,0.0008403542,0.0037864377,-0.00012061795,0.00026437864,-0.0009944486,-9.798857e-05,0.0002667709,0.0007266765,0.0021376952,0.0009663568,0.0003221667,-0.0012940123,-0.0005610734,-0.00016877102,-0.0011186117,0.00030715077,0.0018897759,-0.0010713277,-0.0021096705,0.0001945159,0.00019016695,-0.0006419112,0.0007196475,0.0002677561,-0.00016753383,-0.00045078355,0.0006347001,-0.0017273435,0.0014757955,-0.0002207304,0.0003054144,0.000486637,0.0011686293,0.00056801457,5.798025e-05,-0.0010051213,0.00032386486,0.00035157683,0.00036678347,0.001059303,-0.0005596088,-0.0002737898,-0.0011461818,-0.00140736,-7.449282e-05,0.00010266927,-0.00011150465,-0.00088105275,-0.00026734365,-0.00015370501,6.52335e-05
015aa732,0.9960651,-0.07562872,-0.04415583,0.008099949,-0.00016048139,-0.0075722593,-0.0009639351,-0.0006116294,-0.0019886312,-0.0032117378,-0.004037532,-0.00093384355,-0.00047469718,0.0004005545,0.0009449234,-0.00058712915,0.0008955445,0.0003654152,0.00010369161,-0.00051359204,0.0001574934,0.00014631666,-0.0010461056,-0.0012212825,0.0006734732,0.00033511044,-0.00068478944,0.0003927651,-0.00078736903,0.0011475459,-0.00020518736,-4.275924e-05,-0.0003724866,0.0006768355,-0.0004100927,0.00023576953,-0.000830881,-0.0012409164,-0.001149949,-0.0008142159,0.00039368813,0.000394336,0.00017076847,-0.00069897575,-0.0005838355,0.0005957823,0.00039383266,0.00023994016,-0.00069379056,1.662e-05,0.00072534365,0.00026518042,-7.345856e-05,0.0005407291,-0.00026256594,-0.00053137925,-9.520732e-05,-0.00023087657,0.0002456715,-0.00015335367,0.0009215198,-0.000282233,0.000992032,-0.0005344594
0178a105,0.9749091,-0.060259517,0.21275216,-0.015465449,-0.006303613,0.009643131,-0.0012525102,-0.0009251732,-0.0010965103,0.0072218003,-0.0047753938,0.0075229225,-0.0014721311,0.0014505846,0.0024200755,0.0047583305,0.00096415245,0.0010429455,0.0034384024,0.00011626192,-0.0013680235,-0.0017397711,0.00061843713,-0.0022046778,0.00069976767,0.00041853133,-0.002141218,-0.0020697974,-0.0007714985,0.00058975175,0.00013852793,0.0005468533,0.0012943515,-0.0018151123,-0.0026461943,-0.0007168042,-0.0025430566,0.00085223775,-0.00020346291,0.0009891355,-0.00047062847,0.0005562831,0.00076309865,0.00012838787,3.4771623e-05,-3.699098e-05,-0.0004439856,-0.00025749908,0.0011899456,-0.0014945038,0.00042265246,-0.00061097374,0.00024719007,-0.0010674419,0.0025684321,-0.0008515786,-0.00012774837,-0.00028449105,0.0007200816,-0.00068648154,0.00013010469,0.0011680782,0.0018842237,0.0010019368
0182aa1c,0.9972034,-0.0734106,0.006247007,-0.0062062875,-0.0023141797,0.0018585251,-0.004374159,0.000134026,-0.002657742,0.0017929025,-0.0017674919,-0.0028258,-1.9779087e-05,6.819942e-05,0.00044492114,-0.0023512293,-0.0016739839,-1.1831292e-05,0.0025704808,-0.00085120444,-0.0002248248,0.0022777242,-0.0017337884,0.0022340037,0.0017797747,-0.0018621396,-0.0009850545,8.645494e-05,-0.0003538752,-0.0008805429,-0.00034773612,-7.5407115e-05,0.0002601383,-0.00041211932,-0.001377085,0.0006947853,0.00025772396,0.0008660201,-0.00020043572,0.001032967,0.00067989406,-0.00041244423,0.00018721542,0.00011636154,0.000112959,-0.00077800086,-0.0011394332,-0.0005708874,0.00035439615,0.0013985153,-9.37749e-05,-0.00039880868,0.002297209,-0.0005074451,0.00015643454,-0.00083764794,-0.0004944028,-0.0007552928,-0.0007467498,0.00026128357,0.0003211584,-0.00048406608,-0.0012098106,-0.00036916908
0190ff4c,0.9954462,-0.07467191,-0.057449397,-0.010437128,2.1539476e-05,-0.0039968826,-0.00045116246,0.00229657,0.0022631262,-0.0030799876,-0.0024679236,-0.00036399928,0.00070941285,-0.0018671531,9.708362e-05,-0.00016159579,-0.0023683545,0.00061672874,-0.0032334046,0.0012106125,7.910274e-05,0.000823645,-0.0024380398,-0.0006247807,-0.0008548629,0.00096299365,-0.0007426855,-0.0018788354,-0.00041486783,0.00020791333,0.0008102723,-0.0017207116,0.000383965,8.643345e-06,2.7947532e-05,-0.00035705435,0.0009788021,7.540579e-05,0.0009198988,0.00027439167,-0.00092985836,0.0010447749,0.0010658231,0.0008322367,-0.00020786533,0.000997789,0.00072256936,-0.00027214666,-0.00074576144,0.000116479045,0.0008697725,-0.00030228886,0.00019599553,-4.1804906e-05,-0.0002818102,0.000681257,6.6885514e-05,-0.0005650237,0.00039468057,-0.0002446718,-0.0004957444,-0.0002891127,0.00084102503,0.0003837772
01963e20,0.99001557,-0.062087946,0.11880329,0.039681286,-0.006484048,-0.006841552,-0.013142447,-0.0004624831,0.0007863437,-0.0035144116,-1.4239347e-05,-0.00032367237,-0.0013868969,0.0027518934,0.0019461631,-6.733749e-06,0.0005471436,0.00053391967,-0.0010579259,0.00028547875,0.0006992327,-0.000707523,0.0004968552,-0.00034778842,0.0003963186,-0.00057311624,-0.00036613547,-0.0019240902,-0.0018070779,0.0011579273,-0.00057515624,0.0017391932,0.0013548529,0.00062480615,-0.0011528018,-0.0007009096,1.8374783e-05,1.5449672e-05,0.00055823964,0.0007559621,7.367159e-05,-0.00095395854,0.0005637535,0.00035698336,-0.0007856316,-0.000455801,-0.0014179962,0.00018335845,0.0008518991,-0.00031752462,-0.00083586166,0.00031664866,5.2721494e-05,-0.00094283896,0.00047079535,0.0003152434,0.0006287995,-0.00026065216,0.00011791346,-7.85235e-05,0.00020477305,-4.6837253e-05,-0.00017990902,-0.000100264544
019737b6,0.98227006,0.18327442,-0.034411527,-0.014549014,0.00034924925,-0.0111512635,-0.0022673411,-0.00046223382,7.12643e-05,0.0008395154,0.0012381625,0.000957869,-0.00070834835,0.0004312998,0.0006779245,0.0003200386,-0.001741976,-0.00046589953,-0.00035057517,9.59252e-05,-4.4569897e-05,0.0007516489,-0.0023932206,-0.0011338225,-0.00013208088,-0.000500114,0.0006574484,-0.00012332601,0.00014608426,-0.00014142945,-0.00014874204,0.0012350492,6.963184e-05,-0.00028089265,-7.834507e-05,2.7203667e-05,-3.8320297e-05,-0.000665047,0.0011821563,-0.00038199447,-6.9575767e-06,0.00013686482,-4.9414295e-05,0.00028506597,-0.0004512998,0.00045707007,-0.00064976385,0.00021516522,0.00031756732,-0.00091423094,7.6576034e-05,0.0007920486,9.4297655e-05,-0.00035159916,0.00044173806,-3.648884e-05,-8.434449e-05,-0.00021139634,-0.0003488184,8.075852e-06,-0.00010282208,0.00049514143,-4.1716507e-05,-0.0006271059
01992d32,0.9966482,-0.074561164,-0.031986054,-0.0045353826,-0.00018267341,-0.0067158123,0.0002502366,-0.0003735471,-0.0036378808,-0.0040165777,4.6183075e-05,-0.0003816845,-0.00063595036,0.00069556513,0.0009437524,-0.0004615322,-0.0012526308,-0.00017533083,-0.0005816098,5.429789e-05,-0.00021041062,-0.00023962813,-0.0009439711,-0.0001813194,-0.0011955716,0.00024093284,0.00015933563,0.0005422376,-0.00029247478,0.00033687276,-0.0003904833,-0.00058504567,-0.00021449942,-2.3002503e-05,0.00086923095,0.00055801106,0.0007575343,-2.3934797e-05,0.0001321834,-9.673295e-05,-0.00032201258,0.0002601222,1.8155588e-05,7.0774666e-05,0.00042480024,0.00036329235,-0.00010422617,3.3526136e-05,-0.00051866326,-0.00039184146,0.00018106765,0.00017423416,-7.19329e-05,7.531921e-05,-0.00030677335,-7.93567e-05,-0.00037487678,0.00019124534,1.8255767e-05,-0.00019840822,-0.00019990266,0.000125002,2.2986838e-05,-0.00013270322
01c359fc,0.9988052,-0.030771345,-0.03615065,0.0011263563,-0.0018410382,-0.0028777074,-0.0050144284,0.0023669866,-0.00038332332,0.0016832746,-0.0036399062,-0.005846422,-0.00038858538,-0.00051517226,-0.0014368034,-0.0008718772,0.0007178953,0.00035289684,0.0009458843,-0.00033914906,-7.169564e-05,0.0014490706,3.0130781e-05,-0.00036336156,-0.0012575258,-0.00077311066,-0.0008669981,0.0015776099,0.0005311611,0.00024086447,-0.00014311624,-0.00034069514,-0.0016060083,-0.000894464,-0.00041497513,-0.0006637085,1.1639939e-05,-0.00017069993,-0.000532177,-0.0002013907,-0.00023626206,0.0005150074,0.00016533367,-0.0006909897,-0.0012558221,-0.00013232656,-0.00026741182,0.0007001732,0.0005875077,0.00073297764,0.00049542653,0.00089541345,-8.615971e-05,0.0007106108,-4.173766e-05,-0.00018000463,-0.000758095,-0.0012003551,-0.0013626938,0.0001312126,-0.0008833119,0.0004553437,0.00011078373,-0.00035299052
01d0ba4b,0.99486154,-0.07620933,-0.059269518,0.0003197984,0.0043082736,-0.029091977,-0.005739854,-0.00082145416,0.0042947843,-0.00070980325,0.0005807314,0.0005220304,-0.00032876458,-0.00024675965,0.00024082305,0.00016053868,-0.00038269244,2.4120272e-06,0.0005287876,-0.00063521595,0.00051213725,0.00052468525,0.00057097286,-0.00014052051,0.0007416653,0.00026253806,-0.00064301625,-0.00037066042,-0.00042407017,0.00036338533,0.00035571505,-0.00054141745,0.00020260239,-0.000117649026,0.00049465086,0.0007383878,0.0002370836,-0.0008474542,-0.00010303298,0.0003203461,0.0001886225,-0.0010470569,-0.00067002367,0.0003057445,0.00041157173,-0.0004937646,-0.00018478498,-0.00021900219,0.0001576696,0.00058104517,-0.00012849159,0.00017447365,0.00015019653,-0.00031215753,0.0002588634,0.00014436193,-2.4860485e-05,-0.00016828676,5.1992916e-05,-0.00022597144,8.21715e-05,0.0002828704,8.4761574e-05,4.519883e-05
01d602a7,0.9970428,-0.07374141,-0.0104681095,-0.016696196,-0.0014942327,-0.00114381,-0.0050004106,0.0032609566,-0.0033989619,0.00018086878,-0.0002226927,0.0001337507,-0.00039417917,-0.00087292405,-0.0020591528,-0.0008130463,0.0013821105,-0.00018371841,-0.0010522142,0.000978261,0.00015427677,0.0012023564,0.0004067574,1.8388687e-06,-4.5412897e-05,0.0010933536,0.0007708016,-0.0009682649,-7.32375e-05,0.00068445393,0.00046392146,-0.0012279124,-0.000258366,0.00024157687,-0.0011026232,-0.0004626898,-0.0005404127,-0.0003796083,-0.00036424407,-0.00046563175,-0.0002528407,-0.00023681534,-0.0009053691,0.00010014219,-0.0008869672,-0.0004883138,-0.0007607868,-0.0001907268,2.4897834e-05,0.00062842557,-2.0419851e-05,0.00010657615,-0.00043598522,0.00044231978,-0.0006023642,-0.00028976487,-4.793577e-05,-0.00058155024,-0.0006526791,-0.00037772304,3.235619e-05,-0.000109192886,-0.00032212984,-0.00018922558
0249a095,0.8633692,0.5025928,-0.03944451,0.0073942714,-0.00035220213,-0.013713092,-0.004728607,0.010802381,-0.0034115796,-0.0035175805,-0.0030972916,0.00030020927,0.00064050243,-6.0303875e-05,0.0017301482,-0.0006590258,0.0001361942,0.0003160059,0.00082884915,-2.3929144e-05,-0.0002781709,0.00029825952,0.0009254869,0.001447819,-0.00025173303,0.0004137114,-0.0014015377,-0.00048489863,-0.00056728715,-0.00029675188,0.0001007572,0.0005128308,0.00040391437,7.7013094e-05,0.0011109549,-8.671956e-05,-0.0005242461,-1.6354183e-05,-0.00024096879,0.0003505733,-0.00017311936,1.831653e-05,-0.00014311381,0.00026240497,-4.555753e-05,-0.0002224973,0.00036008467,-0.0011199523,-0.00017698278,-6.925872e-05,-0.00053135806,-0.00036626752,-0.0009829331,0.00010036993,0.00037710473,0.0001423429,0.00020742162,-0.00047749974,-0.00016287222,-0.00037489773,0.0002480348,0.00035839868,-0.0004448417,0.00050554663
0262bf61,0.9934067,0.091320455,0.03721075,0.054483008,0.0036357485,-0.0059436886,0.01634488,-0.0020544007,-0.007951025,-0.0015207804,0.0029868423,-0.00023778385,0.0019059712,-0.0022550507,0.0015016302,-3.6596874e-05,-0.0027910683,-0.00032778014,-0.001019964,0.0009064461,-0.0012321572,-0.0015002727,-0.0029506108,-0.00082892936,-0.00065046083,-0.00066912005,0.0012016123,-0.00093522563,-0.00025294675,0.0001554348,0.00034731813,-0.0010549646,0.00028475808,0.00026424188,0.00012851937,0.0011410876,-0.0002766295,0.00021111174,-0.00014684272,0.00032914666,0.0009283657,0.00021489088,0.00069715735,0.0003862001,0.0017113322,3.7958136e-05,5.3841013e-05,-0.00014930496,-0.00026636492,-0.00064564473,-0.0007512101,-4.6670822e-05,0.00043071242,0.00035500544,-0.001562068,-0.00011960734,-0.00089758734,-6.79361e-05,0.0001263028,0.00049778656,-0.00012574444,-0.0006198197,0.0003250743,-5.1797335e-05
026be946,0.9956148,-0.049218614,-0.07431864,-0.026469592,-0.00053568144,0.0041545397,-0.0032510674,0.0037059186,-0.0052386657,-0.00016946673,0.0008714911,-0.0015400625,-0.0013222715,-5.6865956e-05,-0.0029476136,-0.00068294565,0.0016885949,0.00025613332,-0.000476953,-0.0002735684,0.0004022229,0.0012633174,-0.00042181392,0.0004815346,-0.000519439,0.0018201554,-0.0005072472,-0.00074773654,-0.0009270773,0.00027930664,-0.000368636,-6.568842e-06,0.00010379911,-0.00038032894,-0.00049047265,4.483346e-05,-0.00096268987,-0.00034244708,-0.0002978443,1.65407e-05,0.0003746696,-0.00014942518,-0.00019102622,0.00021956115,-0.00030395464,-0.00034831555,-0.00017170394,-0.0005185366,0.00041644208,1.2840675e-05,-0.0002455021,0.00028185884,6.0151895e-05,0.00034689656,-0.000350789,6.4854314e-05,-0.0004780724,-0.0006924747,3.4187502e-05,-2.4175715e-06,0.00010000711,0.00015081489,0.0005068962,-0.00026060932
0294b4f5,0.99813855,-0.05235528,0.0048372475,-0.011657254,0.0049500554,-0.022853905,0.009110146,-0.0036723707,0.0038364613,0.0028221032,-0.005425206,-0.0005710627,0.0002178532,-0.0006291644,0.0001194248,-0.004397417,0.00014624695,0.0009951924,-0.0039518005,0.000951647,0.000425922,-0.000114382485,-9.898119e-06,0.00078163185,-0.002364724,-0.0007944371,-0.0014922565,0.0024336795,-0.00020495369,-0.0008083825,0.0011258874,-0.0016338817,-0.0005544606,-0.00064480497,-0.0012129543,0.0014908154,0.000648609,0.00033989284,0.0012491507,0.00041892062,-0.00064335694,-0.0006637683,0.00030740505,-0.001397046,-0.0020771814,0.0004641898,-0.0007164596,0.0012937594,0.0006427551,0.00048329355,0.0010089839,-7.7773584e-05,0.0005063781,0.0014731154,0.0014108305,-0.0005900148,0.00023372457,7.194116e-05,-0.0011539414,0.00021676155,-0.00022838471,0.00093672564,-0.00070966815,5.5408327e-06
02a41d1a,0.99683917,-0.0503455,0.0558111,0.015223608,-0.005154291,0.016208014,0.0018968825,-3.6928206e-05,-0.0067118797,0.0049709403,-0.00083783164,-0.00049396174,-0.00031876273,-0.0005118016,1.2061409e-05,0.0018609533,-0.0026295984,-0.0008387632,0.00044581346,0.00096814136,-0.0014632151,-0.0009837636,-0.00097235467,-0.00090494595,-0.0010741953,-0.0017388535,0.0017420527,0.00013321971,0.0012064485,-0.000804559,-0.0001869422,0.00054946914,0.0007330241,-0.0014003178,-0.0014875366,0.00028775618,-0.0007989444,-0.0010213444,-0.0008398713,0.0014709589,-0.0011226882,8.293273e-05,0.0004233059,0.0011340089,-0.00020440362,-0.0008070132,-0.00036248937,0.00022601712,0.00073539565,-0.00047850196,6.490985e-05,-0.0016781637,0.0004134978,0.00089317956,-2.804134e-05,-0.00044493485,-0.00047566625,-0.00039933453,-0.0021946193,-0.0003121229,-0.0004134738,0.0003515929,-7.1621966e-05,0.0008842535
02cf6a52,0.9965045,-0.07653763,-0.031023527,-0.0013661274,-0.0020751162,0.0015316523,-0.0071096006,0.0020422044,-0.003405531,-0.003365421,-0.003269582,-0.000815383,-0.0006614742,0.00033240087,0.000393226,-0.00092861924,-0.0008884444,-3.35628e-05,-0.0010668397,0.0005225132,0.0006954897,0.0025600488,8.60852e-06,0.0013949252,-9.102926e-05,0.0017792303,-0.00064306305,-0.0020434996,-0.0009915987,0.00045967818,-0.00021832906,-0.00028543285,0.00035271258,-0.00090269017,-0.0013249746,0.0005662546,0.0014704214,-0.0019122425,0.00018643946,0.00077977206,-0.0007216043,-0.0006351041,0.0005250619,-0.00018400102,-0.0004971058,0.0005596816,-0.00035420753,7.0741225e-06,0.00019371347,-0.0011237224,-0.00041424838,-0.000745257,0.00040015887,0.00086108164,-0.00016249121,-0.00099112,-0.0011792977,-0.00021581785,0.0003266837,0.0007745148,-0.00085083314,-0.00021176165,-0.00015962534,-0.00060876063
02d3c9fc,0.9758182,0.21112624,0.05349703,-0.006639215,-0.0019795634,0.003026598,0.0051500592,-0.00559197,0.002834755,-0.0008807033,-0.006138099,-0.0014505506,-0.0031940192,0.004176836,-0.0012492687,-0.0009257109,0.000514971,4.055183e-05,-0.0053823544,0.0007830408,0.0014314011,-0.0020735909,0.0025006519,-0.0013273895,0.0003192876,-0.0011979697,-0.00038927922,0.0014496997,0.0010040299,0.00029744417,-0.00069582136,0.00069689355,-0.0002639162,0.002617607,-3.4194956e-05,-0.002288815,0.00014588109,-0.00018803657,-0.0003658104,0.0021830178,0.00096424995,-0.0010206307,0.0022006473,-0.0013593854,-0.001930548,-0.00038677893,-0.0018296861,-0.00022915812,0.0015119336,4.412096e-05,0.00038036448,0.00047849695,0.0014502191,-0.0002725582,0.0010455941,-0.0018290371,-0.00032691102,-0.0005519769,0.0005355415,0.003243501,0.0012933172,0.0011352695,-0.00082546,0.00070110545
02e86b6a,0.9932112,0.07727577,0.03624355,0.07700442,-0.00092128065,-0.007909672,0.0035540692,-0.0066509433,-0.00074353686,-0.0020031605,0.009421425,0.005324144,0.0013192691,-0.0008907947,0.0013460905,8.1464044e-05,-0.0012194808,-0.0006758699,0.00070533215,-0.0015232423,0.000619358,-0.0011384962,0.0017362767,-0.0004723812,0.000105299485,0.002064348,-0.0012622713,0.002714698,6.844128e-05,0.0015687532,-0.0018773907,-0.0012629195,-0.00059919496,-0.0019402059,-0.0020498503,-0.0012876929,0.0003597938,0.00030442837,0.0002873835,0.00065416936,-0.00091612665,0.00060572504,5.615614e-05,-0.00033233262,-0.0011445711,-0.0008216909,-0.00030913283,0.001407654,-0.0001788978,0.00027961435,0.0010883486,0.00054283376,0.00027371905,-0.0006045692,-0.00043094243,-0.000454674,0.0002158018,-0.0013611409,-0.00012788802,-0.00011024168,0.00023285397,0.00066099316,0.00071097276,-0.00031611513
031c0c58,0.9977836,-0.062800825,0.008824195,-0.018110752,-0.0023942706,0.0024951913,-0.0021320507,0.0005535663,-0.00016893525,-0.0016767053,-0.00033823494,-9.680557e-05,-0.0020450277,0.0016566706,-0.0006278929,0.0029176858,0.0007242433,0.0001640427,-0.0005000157,0.00086527044,-0.00020239342,0.0010672089,0.00024375081,-0.0020880627,-5.4820834e-05,0.0031753923,-0.0009857726,-9.690625e-05,-0.00013107374,3.385944e-05,-0.00012214294,-0.00078757067,0.00034223092,-0.00020825541,-0.00075737113,-0.0023820866,-0.0010956005,-0.00040768913,0.0014971079,-0.0011888961,0.0006815603,-0.00046191603,-0.00013571263,-0.00019516729,-0.00073615863,9.032834e-05,0.0010172382,-0.00015638252,-0.00035375336,-0.0005643522,-4.0137265e-06,-5.5125956e-06,-1.6509633e-05,-0.0008975803,-0.00031683512,-0.00010220372,-0.0006641298,-0.00018914587,0.0002582599,0.0002540672,-0.00023141291,-0.0002756034,0.00010173087,0.00068653666
034d61db,0.99245626,-0.07422213,-0.08775147,-0.040837158,0.002446346,-0.010748809,-0.0028495502,0.0018346113,-0.0009151418,0.0007111724,0.0013455257,0.0020411352,-0.001374154,-0.00033566073,-0.0023144495,0.001058791,0.00043193955,-7.641198e-05,-0.0006071511,0.0004158963,-0.00022807231,-0.00019927173,9.5379626e-05,-0.0002811824,-0.00043853445,-0.00017639829,-6.409097e-06,0.0002635605,-0.00022586896,0.00037488146,-0.0003386325,-7.285471e-07,-0.000108436296,-0.0002817874,0.00042825015,-0.00011573153,5.5169316e-05,-0.00057072245,0.00019080998,-0.0005655143,0.00014652598,2.128858e-05,-2.630457e-05,5.076182e-05,0.00039099506,-0.00035003337,-0.0001901115,0.0002260039,-0.00025243685,-1.2057973e-05,0.0006479576,2.7915532e-05,-7.107787e-05,0.00013673962,-0.00046987995,-3.663744e-05,0.00019838932,-0.000116503026,-0.00019188707,-8.636363e-05,0.00021390757,0.00017404344,-0.00023034385,9.600349e-05
035f09fc,0.9995359,-0.0012261656,-0.019248027,-0.012863815,-0.0032753448,0.016121753,-0.00040462485,-0.0043874593,-0.002758133,0.0008147286,0.00039347075,-0.0036371192,-0.0017508727,0.002104747,-0.0010532009,-0.0016430992,-0.00017137727,-0.00027570917,-0.0017229359,-0.00018681062,0.00049009843,0.0004579043,0.0015322877,0.0023474263,-0.00011444288,0.0010514298,-0.0008783138,0.00096307864,-0.0012665105,-0.00095584185,0.0010720282,4.800607e-05,0.001111113,0.0003247187,0.0008132053,0.0018713861,-0.0018387758,0.001041005,0.0013944479,5.4571054e-05,0.0003459347,-9.470342e-05,-0.0006168645,0.00019731607,0.00020560306,0.00037780227,0.00037400165,7.677314e-05,0.0003923436,-0.0007458573,-0.0014216717,-0.00046727416,-0.00044763112,-0.00075170497,0.001525401,0.00097602385,0.0005737169,0.00040985463,-0.0003804889,0.0013574981,0.0004975879,0.00015581521,-0.0010069375,-0.00015800487
036cfd42,0.9928972,0.088552795,0.0777516,-0.011398248,-0.0007720973,-0.007179188,0.0044857897,0.0019113121,-0.004980805,-0.0029493584,0.0024357399,-0.0009653985,-0.0003680698,0.00072641816,-0.00031718356,-0.00051966426,0.00091232837,0.00015502067,-0.00033979223,0.00064896746,-0.00038291138,0.00043435855,-0.00084492087,0.0005176604,0.00094395754,0.0010914411,0.0006962683,-0.0002129973,0.00057034753,-0.00073516497,3.4298046e-07,-0.000501558,0.00048721087,0.00023049934,0.001316932,0.0014266863,0.0011532288,-9.716397e-05,2.5508969e-05,-0.00010738033,-8.0801925e-05,-0.00017498998,3.7272577e-05,-4.0927116e-06,-0.0007797995,0.00035931318,0.00022832473,1.9548592e-05,-0.00037710616,-0.0005442972,0.00047216783,-0.0006989652,8.8288805e-05,-0.0006216929,-0.00032647268,0.00021226723,-0.0002924945,0.00017801288,0.0003839433,-0.0005780537,-0.00027307263,-9.45463e-06,-6.178782e-05,0.00034165542
0395b217,0.9991805,-0.032746278,0.021106362,0.0040234355,-0.0016920188,-0.006719971,-0.0023625991,0.0022049628,-0.0030781352,-0.0025592325,0.0032196583,-0.00016947542,-3.1708347e-05,0.00055588776,0.0008225371,-0.00013693067,0.00038928093,-0.00033642066,0.00093909353,-0.00033200692,0.00047728306,0.00096088153,0.0018852667,0.0009933568,0.00050320994,-0.0011612772,0.00023266648,-0.00035299777,0.00068206363,-0.0002566505,-3.3212204e-05,-0.00057305547,0.0001625316,-0.0003341269,-0.0005474061,-3.200406e-05,-0.0006868448,-0.00025773677,-0.00026710608,-6.96553e-05,0.0005141674,5.7069163e-05,-6.922866e-05,0.00010334869,-0.00028083284,0.00071641774,-0.00013309957,-0.00015049643,-0.00015345772,0.00017674919,6.0271723e-06,9.974829e-05,0.00044480554,-0.0003354705,-0.0002565369,-0.0010311296,-0.00010609333,0.00052948185,-0.0006965873,-0.0001042031,-0.00059323764,-0.00046250425,-0.00029590272,-0.00037899893
03971ddf,0.50931823,0.85852957,-0.054251768,-0.017452074,0.000614022,-0.003284619,-0.0022854412,0.013787851,-0.005182358,-0.0026922019,-0.0023717077,0.0026323113,-1.0391421e-05,0.0006713471,0.00061077205,-0.00074161595,-0.0005503253,4.4050565e-05,-7.049994e-05,0.0005428583,-0.0005183794,-0.00022671268,0.00057455606,0.0020746114,-0.000271114,-0.00031895592,-0.00056153955,0.00032642,-0.00036494597,0.0002690292,0.0005743297,4.2849955e-05,-0.0003709292,2.268345e-06,4.8627808e-05,-1.2788012e-06,-0.0004516538,0.0006921729,0.0011091757,0.0001726035,0.0001325619,-0.00023945697,-0.00030627154,-0.00051918527,-6.407594e-05,-0.0007507696,-0.00046028168,0.00037766583,0.0004750156,3.1356587e-05,0.00025072644,-0.0003951203,0.00040990606,9.119794e-05,-0.00044655698,-0.0002678336,-0.0001462843,-0.00046518797,0.00042042608,-0.0007577802,0.00014914552,0.00014069103,-0.0002506301,9.5985706e-05
040c429b,0.97989213,-0.061424293,0.18432428,-0.03991609,-0.0033336354,0.011212131,0.010261962,0.0044205124,-0.01267142,-0.002299654,0.0016095556,-0.0038249784,0.00018007783,6.6587985e-05,-0.0012789561,-0.001108519,0.0013000765,0.00039773478,0.00057565107,-0.0012991498,0.0002324401,0.00032056196,-0.00079019996,-4.7176436e-05,-0.0007894839,-0.00053338433,-0.00019335723,0.0011585479,0.0003733164,-7.9862766e-05,-0.00044819765,-0.00035241706,-5.5901724e-05,0.00044616894,0.0007204971,-0.0002955607,-0.00022904287,-0.0004769395,-4.593555e-05,-0.00040117232,3.3465138e-05,0.00021672426,6.269284e-05,0.0001870608,0.0006717254,0.00015237606,0.00048707117,-0.0003938789,-0.00033368578,0.0012998952,0.00015913806,-0.00015401821,-0.00046817854,-0.00013472617,0.0018122566,0.00019625289,0.0010060745,-0.00025012332,-0.00052979466,-0.0005777191,0.00032823032,0.00019109405,-0.00014828103,0.0002990989
0417d421,0.99626064,-0.063251264,0.055442743,-0.013410416,-0.0027454332,-0.010256371,-0.0073972847,-0.0011535004,0.00069480384,0.00066484115,0.0031364958,-0.00016873285,0.001043942,-0.0005300517,0.0010238157,-4.077845e-05,0.0007213859,-0.00048116784,0.00057801174,0.0021104137,-0.0012330258,0.0007723225,0.00082273426,-0.0008343084,0.0012826708,0.0005604946,-2.0086489e-05,0.0012919818,-0.00027355307,0.00049249444,0.000685463,0.00074943306,-0.000789703,-0.00031621256,0.00022799679,-0.00028281417,0.0015446163,-0.0005851241,0.00012453346,-1.6118434e-05,-6.7464665e-05,0.00062931847,-0.00029955356,0.0009455453,-4.7133177e-05,0.00061813975,0.00026360343,1.4360412e-06,-0.00028178515,0.000406004,-7.209806e-05,-0.00042350905,0.00050423155,-0.00022622185,0.00011611541,-0.00032674134,-0.00034477303,0.0001552146,-2.5506528e-05,0.00029520039,-0.0001166315,-0.0002363658,0.00019786129,0.0001149661
0432f117,0.99767727,-0.049653113,-0.040837955,0.01944356,4.6467092e-05,-0.0011772206,0.002571354,-0.0055119838,-0.0008536237,0.0010026741,0.0043412913,0.0020004055,9.1739734e-05,-0.00040566744,-2.7023802e-06,-0.0008431073,-0.0035574134,-5.8959817e-05,-0.0011247318,-0.000747177,0.0004299633,-0.0014301285,0.0005408653,0.0007392402,0.00095639314,-0.000985735,0.0009892894,0.001321267,0.00035548038,0.00026170188,0.0008420388,0.00086479646,-0.00014291052,0.0001700529,0.0007335148,0.00038321147,-0.0008641064,5.5125965e-05,-0.00034247423,0.0013563838,-0.00075596134,0.00031865665,0.00013607349,0.00031852347,-0.0003889359,7.494601e-05,0.000580393,-0.000103831095,-0.0005321171,-0.00035291864,0.00090647966,0.0013192317,1.9769059e-05,-0.0009790169,-0.00055624865,0.0003429752,0.00038105933,-0.0016406832,0.00075908646,-0.00032857337,0.00030585533,0.0015441171,0.00046583114,-0.00022782077
0445b534,0.9909208,-0.029358784,-0.08142388,0.0034135075,-0.012804619,0.09588903,0.007959233,-0.018071039,-0.014115464,-0.0073203226,0.009171617,-0.008046854,-0.0017297188,0.0017599876,-0.0059038857,-0.0046641934,0.0017446451,-0.0016879725,0.0005906832,-0.0010195734,-0.00026233634,-0.001970015,0.0020426468,0.0026342259,-0.00033652253,-0.002663467,0.0008820657,0.0052753165,0.005414711,-0.0011730001,-0.0013737913,0.0036467754,-0.002336497,0.0069777556,-0.00339067,0.0024400032,0.004537849,-0.0018021532,-0.00040681666,-0.0020026057,0.002312608,-0.00037742636,-0.0013219127,0.00031459288,-0.00224309,0.0010972426,-0.004035822,-0.0007823044,-0.0010140053,-0.00238712,0.0006877745,0.00017426466,-0.00022489099,7.60241e-05,0.00040999553,0.0013904808,0.0019438904,-0.0006563625,0.0013902751,-9.653614e-05,-0.004416889,0.0021642202,0.0016631857,0.00043097066
044b274d,0.9953652,-0.057012465,0.058046922,0.04592607,-0.004144461,-0.0036433071,-0.014981236,-0.01005203,0.008245668,0.000658697,-0.0013133961,-0.0031968474,-0.0011108908,0.002207419,0.0014434184,-0.0028925997,-0.0035253374,-0.00025545733,0.00042645022,-0.00077417085,0.00048720228,-0.0010244384,0.0010136054,0.0026077274,0.0010320727,-0.0002360633,-0.0004814403,0.00052997423,0.0006840764,-0.0009170227,-0.00037977085,0.0016479861,7.573884e-05,0.00069021154,-0.0022903201,-0.000108588436,0.0006775552,0.00050514285,-0.00025986665,0.0005664236,-0.00075655564,-0.00013270676,0.00010053014,0.00035369463,-0.00072662625,-0.000631701,0.0011962639,-0.0002803938,-0.00035208315,0.00078899437,-0.000889244,-3.510242e-05,-6.848091e-05,0.00010941132,6.927142e-05,0.00071148516,0.0007691737,0.00020815175,0.00025763683,5.3098534e-05,-0.00019437318,5.3909727e-05,-0.000349772,-7.967628e-05
044c5c54,0.9940474,-0.078077696,-0.0696102,0.00039505673,0.015385453,-0.022038369,0.009431931,-0.0019560494,0.0012942662,-0.0016217063,-0.005967284,0.001103556,-0.0018007448,0.0015817581,0.0014270516,-0.0015906838,0.0005127387,-0.00028818642,-0.0005789523,0.00018370096,-3.953878e-05,-2.9955454e-05,0.0013631638,0.00044737532,-0.0025621832,0.0005359827,0.0011587538,-0.00058964244,-0.00035804033,0.0001632602,0.0015152874,-0.0012914363,-0.00044828118,-0.0008926803,-0.0001335144,0.0012316448,0.0007328377,-0.00013991528,-0.00018117731,0.0014322781,-0.0005157278,-0.00044200494,-0.0007198382,0.00091821415,0.00091933267,0.00054103264,7.809042e-05,7.1789545e-05,-0.0003890623,-0.0002484454,4.0007835e-06,0.00060943747,0.0008401626,-0.00037998744,-0.0004905581,-0.0009055949,0.0010676747,3.8924773e-06,-4.1902036e-05,0.0018318623,0.001092773,0.0007113678,0.00029552385,0.0004822827
048fd254,0.9975763,0.045599632,-0.04740573,-0.0025962302,-0.0036932402,0.015682146,-0.004763507,0.0057743522,-0.011491618,0.0008864219,-0.0007286121,-0.0059127486,0.00032782246,-0.0005572839,-0.0013048484,-0.0015516158,0.00018975,-0.00011081285,-0.00060931395,-0.0015836746,0.00072664814,-0.0017693193,0.0006668579,0.00055255264,-0.000345537,-0.00074150076,0.0014276226,-8.52296e-06,-0.0006154129,0.00094483874,4.4820143e-05,0.0005546393,-0.00014284436,0.00020130728,-0.00060427986,6.436992e-05,0.00042580266,0.00025786232,0.0006789278,0.00025939193,-9.246939e-05,0.0002716581,0.00015765631,-0.00012871914,0.0004623745,7.7805325e-06,0.00020265197,3.3144708e-05,0.00018353274,-0.00023506169,-0.00058108923,0.0008287857,0.0003296161,0.00054647966,-0.0005066764,-0.00025419903,-0.0003573473,-0.00025509117,-0.00032963356,0.00023461191,9.1692935e-05,0.00031187403,0.0003793504,-0.00040209884
04b88b3e,0.9954326,-0.07251374,-0.048144206,0.031555306,-0.0030543045,0.015541007,0.00939623,0.004143238,-0.011928356,-0.001091909,0.0010326859,-0.0024140256,-0.00038694416,7.271304e-05,0.00020990975,0.00023306301,3.5201106e-06,0.000503386,-0.00018436703,-0.00083209656,-8.662531e-05,0.0014956796,-0.0042582955,-0.0015051968,-0.00047187737,0.0004186164,-0.0005040096,0.00022828391,-0.0003424323,-0.00023916826,-9.814227e-06,-0.00054135086,0.0006811931,-4.4125452e-05,0.0007042164,0.0007791657,-0.000723887,0.0002769595,0.00048215888,0.00038640096,0.00012102427,4.1824416e-05,0.0005372088,0.00018657837,0.0005481578,0.0003489337,-0.00013684826,0.00016492614,-4.999574e-05,-6.2870015e-05,0.00014243707,0.00041373094,1.4608859e-05,-0.00029049042,-5.4119828e-05,0.0004976948,-0.00031460158,-0.00016889606,0.00032416076,-0.00022849512,-0.00041390324,-0.000154434,-6.3921725e-06,0.0005063384
04c5f885,0.99504334,-0.0775018,-0.059876766,-0.01034131,-0.0017265044,-0.002340753,-0.010443736,0.004144773,-0.0038359838,-0.0007879958,3.1651093e-06,-0.0036626915,-0.00042576223,-0.00094961654,-0.0027053354,-0.00096650753,0.0008167246,0.0003445151,-0.0011564071,-0.00069951103,0.0005608607,-0.0004459672,-0.00073423114,0.00023638572,-0.0005140974,-0.0006692644,0.0007378247,-0.00077918766,-0.00019144714,3.994672e-05,-6.1151935e-05,0.0006121335,6.17638e-05,9.730633e-05,0.00070433476,6.616537e-05,0.000280745,0.00061092485,0.0004153882,-0.00016781624,-0.00032499654,0.0004907866,0.00053994625,-0.00029954757,0.00082522025,-0.00012288777,-1.3162174e-05,0.00035701803,-0.00040893978,-4.3091502e-05,0.0008342333,0.00033444667,0.00013798132,-0.00064763176,0.00033373706,9.4388546e-05,-0.00033972162,0.0005500291,0.0004568491,-0.00033307576,9.0506896e-05,0.0006210001,0.00053129136,3.7851887e-06
04e37b6b,0.9959102,-0.058373276,-0.06617778,-0.009300101,0.001871687,-0.014729601,0.0013322139,-0.004141271,0.0011443077,0.004712295,4.021079e-05,0.0011714932,0.00029985706,-0.00073125,0.0014645839,0.0007151544,-0.0010861112,-0.0006510786,0.0005990502,0.00069155823,-0.000446731,0.00045977073,0.0010291734,0.00015534136,-2.0248066e-05,0.00017817742,0.00020360087,-0.0006619261,0.0005134051,0.0001540256,3.6955254e-05,-0.00046340763,1.854033e-05,0.00037326908,-0.0006496928,-9.822449e-05,-0.0003326095,-0.0011180062,-4.5976558e-05,-0.0001999974,0.00010790731,0.00011643901,0.0004886411,0.00014093699,-0.00047607708,-0.0003313208,0.0005453308,-0.00045622257,0.00021066377,0.00019419327,-0.0010252844,-0.00058404275,-4.4378292e-05,4.495665e-06,9.439381e-05,0.00034203823,0.001276817,0.00043518058,0.00021801374,0.00033034466,-0.00077398797,-0.0007102139,0.00038693123,-0.00065183075
04e63aec,0.9704197,0.14098477,0.19556504,0.0017591186,-0.0042430474,-0.001950834,-0.0008959026,-0.0041090506,-0.0023266135,0.0076755146,0.0021867822,0.0006753077,-0.0008949939,0.0019992585,0.0027295544,0.0032741732,0.00047414599,0.00028798237,0.00026059503,0.0007341694,-5.8899775e-05,0.0015045909,-0.0006402822,-0.0019509953,-4.686155e-05,-0.00013996687,0.00069918577,-9.9085766e-05,-0.00022708198,-0.00034264268,0.00111791,-5.8366808e-05,-0.0007023446,-0.0012917154,-0.0009608455,0.00046141798,-5.262472e-05,-0.00021470702,-0.0005863878,0.00033300067,0.0010431957,-0.00061636907,0.0001084974,0.000222271,0.0008104871,5.542308e-05,0.00073981757,-0.0002743737,0.0002866368,0.00025542904,-0.00048337414,0.00014714322,0.00031929224,0.0010065451,-3.2689044e-05,-0.0002927786,-0.0004359974,-3.2363547e-05,0.0009827396,3.8850587e-05,5.5137392e-05,-0.0002684725,-0.00025986406,0.00038674823
04f83ccb,0.9943662,0.09257925,0.044751838,-0.020390058,0.00092318095,-0.013032386,0.002380245,-0.0025324954,0.00048290734,0.0041420227,0.00039822192,-0.0017976649,-0.00021908128,-0.000427809,-0.001191435,-0.0014844751,-0.00041296228,-0.00034861456,-0.002265239,0.00039912487,0.0010274558,0.0021008698,-0.0007703714,-0.0010068442,0.0006592895,-0.0010891305,-0.00037492596,0.00053050555,-0.0011020466,0.00043269043,0.0003133767,0.00025732984,-0.00058058253,0.00032906575,-0.00039846892,-0.00012292412,-0.00010799858,0.0007366286,-0.0011416698,0.00022347631,0.00095151237,-8.731934e-05,-0.0005325987,-0.00028727835,-0.00062723726,0.0022353106,-0.000520815,0.0018500658,-0.00055517716,1.4111098e-05,0.0007110032,0.0010512514,-0.0003314071,-0.0005035077,-0.00023471077,-0.00025059984,-8.037563e-05,0.00062135485,-0.00042861392,-0.0001243529,0.0005218721,-0.0006052281,-7.6370314e-05,0.00030183358
052a7811,0.9980838,0.046411943,-0.035706926,0.012509615,-0.0021004993,0.0031975633,0.0058106743,-0.0082483785,0.0012217925,2.4891673e-05,0.0008083285,0.003799046,0.0010916949,-0.0013297927,0.003095838,0.0005616519,0.00026725727,-0.0010036665,0.0009830692,-0.0013911618,0.00054138864,0.0012772494,-0.0008091503,-0.0006430501,-0.0011095385,0.002417801,0.00054245343,8.005833e-05,0.0012043922,-0.00069196837,-0.0012604179,0.0022539126,0.0008119115,0.0011424448,-0.0005322448,0.0014953649,-0.0004827769,-0.00080452015,-0.0012603414,0.00017814379,-0.0004314514,0.00062933617,0.00063091295,-0.00027384167,-0.0006469684,0.0013676704,-0.00036461692,0.0011175381,-0.0010282939,0.0021449078,-0.000632913,0.000575629,7.39396e-05,0.00056834955,-0.0024079308,-0.00074585236,0.0020957347,0.001991327,0.0004886079,-0.0015629816,0.00018265318,-0.0005762626,0.00047409348,-0.0023557926
052b25e1,0.9958463,-0.07578314,-0.04115989,-0.027486145,0.0009788157,-0.0072537363,-0.0035025044,0.0011482689,-0.00026252965,-0.002843883,-0.001132797,0.0009311328,-0.00059653696,7.057348e-05,-0.0005085175,-0.00032508996,-0.00024347032,0.00026404572,-0.0011858259,0.0010480335,-3.66185e-05,-0.00057937106,-0.00088369224,-0.0008838704,0.0003697812,0.00028289916,0.00024357233,-0.0009709781,-0.0004975353,0.00087654317,1.3896723e-05,-0.00047350358,-2.1919894e-05,-0.0008513768,0.00011665547,-0.00021118781,-7.900056e-05,-0.000109795634,-0.00026426296,-0.00089846534,-0.0004207581,-0.0006401971,0.00042938904,-0.00033006145,0.00039696682,0.00020089444,0.0005473919,0.000563792,0.00033992538,9.131088e-05,-0.00039409066,-0.0002629173,-0.00010278532,0.000103674094,0.00089480774,-3.3023741e-06,0.00020372987,0.00013476741,-0.00039183497,-0.00023986539,0.00067768357,-0.00012147816,-7.482954e-05,0.00047942443
052cf3a6,0.99730706,0.021696817,-0.06420227,-0.021856239,-0.0031523276,0.008059454,-0.010663542,0.0049370863,-0.0013367921,0.0051731835,4.9767086e-06,0.0031442437,-0.0015195595,0.0010744267,0.00054830353,0.00021100685,6.3340216e-05,-0.0012006096,0.001880329,-0.00020947345,-0.00036731228,0.00086423487,-0.0003349901,-0.002000291,-0.0009726905,-0.00025603973,0.00074263784,0.00045424778,0.0009804172,-3.8424496e-05,0.0004654666,-0.0009848132,-0.0009914563,-9.510361e-05,-0.001986853,0.00018868604,-0.0008257375,7.187029e-05,-0.0010324878,0.00015405071,0.00042904913,0.00036060743,-9.855947e-05,0.00015048607,0.0006115372,-0.00017540804,0.00070787675,0.0001691407,-0.00019781067,-0.00011536108,4.8782073e-05,0.00045214058,0.00039914876,-0.00010285845,0.00027765345,-0.00066162326,-0.0010317406,0.00074974936,0.0012437934,0.00037867026,0.0013354733,0.0011556229,0.0006350507,-0.00060588197
053be4e5,0.9874445,-0.06756649,0.13791227,0.033595063,-0.0016565653,-0.009548671,-0.001323797,0.00012561212,-0.0016119448,-0.0012400573,-0.0072314567,-0.006163979,-0.00028875715,-0.0011409471,-0.0020280445,-0.0003912628,-0.0020001172,0.00037850498,-0.0010691996,0.0006828556,-0.0005369888,-0.0012626189,0.0002329799,0.0014375778,-0.0008037626,-0.0014220742,0.00066816487,-0.001416773,0.0005977207,-0.0009923643,0.00024816676,-0.00078788603,0.0002850814,-0.0015088565,0.001240233,0.001149698,0.00053951447,0.00026937012,-0.0012543187,0.000360045,-0.00056903024,5.349267e-05,-0.0008512711,0.0003426203,-0.0013497099,0.0011386129,0.0006659329,-0.00047903828,-0.00052231504,0.00014158558,0.00020184403,-0.0003800361,-0.0001301118,0.00021805329,0.00058067817,-0.00038604095,-0.00070118456,-0.00023856318,-0.00049979315,0.00012532287,-0.0006288908,-7.741463e-05,-0.0003328161,0.0007941699
05624ab0,0.9963735,-0.07237084,0.004910876,-0.013671783,0.039164074,-0.0039138207,-0.011969303,0.0011626503,0.00019564286,-0.0014419853,0.0027216587,-3.518711e-05,-0.0005593793,-0.001170854,-0.0033460276,-0.0019058853,-0.0019894268,-0.0005154794,-0.00033218856,0.00075304206,-0.00062888104,-9.9780766e-05,-0.0027573877,-0.0006858886,-0.00044308903,-0.00267767,0.00062052195,-0.0006139764,0.0001347627,-0.0005637164,-0.00065499765,0.00020435869,0.000751203,0.0008190715,5.634943e-05,0.00010282856,-9.285434e-05,0.0011119482,-0.002185998,0.0017176187,5.6670637e-05,-0.0013095429,-0.0017322171,0.00022809334,-0.0016405906,-1.7263308e-05,0.00039532105,-0.0004290171,-0.00013781173,-2.2714876e-05,0.0007297467,-0.00081719196,0.0011211444,0.00091555837,0.00014026697,-0.0010848332,0.0009298433,-0.00018191565,-0.000105303174,0.00081265485,0.001329559,0.000113002505,-0.00056280446,0.00056409015
056c41fc,0.99675816,-0.038465243,0.014987179,0.06008393,0.0013529926,0.0059918263,0.028838154,0.009370961,-0.0012752336,-0.0041292603,0.004675443,-0.008820176,0.0019740115,0.00027327196,0.0032468156,0.0017121899,-0.0009668361,-0.0002529268,0.0014134158,-0.0029810565,0.0010575198,-0.0020316292,0.0024234648,0.002346654,0.00017701015,7.5773656e-05,-0.0009199552,-0.0012103476,-0.0011071805,0.00061868166,-0.00092360476,-9.006012e-05,-0.0013379427,-0.00067903515,-0.0013770795,-0.0011225037,0.001808273,-1.4413592e-05,-0.00036674636,-0.0008147842,0.00025637384,-0.0003471111,-0.001019517,-0.000105209445,-0.0012983526,0.00040147468,0.0005029728,-0.00031112813,-0.0001921734,-0.0001599588,-0.0008651821,-0.00016647317,-0.00014483751,-7.7818426e-05,0.0021048477,-0.00010435215,0.0007189961,-0.00089400803,0.0002083154,0.0005158472,0.0009078759,-0.0010058797,-0.0006949674,0.00022820523
05b35fa0,0.99591607,-0.051269434,0.046553224,0.053988185,-0.0054584956,-0.0038260028,-0.009751959,-0.0030810945,0.0074299485,0.010792486,0.0016742495,-0.00052120874,0.0002465601,0.0012272393,0.003927091,9.436793e-05,0.0014057545,-0.0005127492,0.0014658173,0.00086644315,-0.00051566894,-1.8342835e-06,0.002955897,0.0018734835,-0.0018195186,-0.0025116452,-0.0018744699,-0.00143521,0.0007297173,-0.00069008983,0.0025654056,0.0011963487,-0.000275473,-6.139689e-05,-0.0016549038,0.0006285039,-0.001286625,-0.0013036735,0.0013416284,0.0013350728,0.00018166253,-0.0016602041,3.5956622e-05,-0.001204717,-0.00016111914,7.8729e-05,-0.00010810991,-0.00025767682,0.0003984266,0.0003750477,-0.00028490453,-0.00020530529,0.0010718036,-0.00016905893,0.0004438671,-0.0012890983,-0.002209527,0.0016437869,-0.0006508447,-0.0015788726,-0.00082226755,-0.0008491733,-0.00023839195,0.0014817746
05f425a4,0.9956765,-0.074379675,-0.038095497,-0.016400628,-0.0045355083,0.021621618,0.0010923403,0.02326354,0.015243507,-0.00061882,0.0054343967,-0.0017306737,0.00015887966,0.001330537,0.0012108802,0.0011238623,-0.00087329396,-0.0023051056,-0.0017949098,0.0009582304,5.5960238e-05,0.00087140687,-0.0005845951,0.0004372734,0.0016532755,0.004484619,-0.00076767674,-0.0019989803,0.00038043456,-0.0015915309,0.0014684247,-0.0024113895,0.0006813461,-0.0002458648,-0.0017290517,0.0010023698,-0.0013317013,-0.00010318865,-0.0006053883,0.00083069917,-0.00026781272,-0.0004516066,0.00031339322,0.00037621066,-3.364298e-05,0.0005514786,-9.485752e-05,0.00074406434,-0.00028767285,0.0007137946,0.0003067139,-0.0010106604,-4.1762596e-05,0.00015491004,0.00019474314,0.00014855804,-0.0006468374,0.0004886521,0.00019172077,0.00022047538,-0.00032783352,-0.00010111694,-0.00057420065,-0.00031246032
05f8ca37,0.9797908,-0.06906459,0.085658036,0.16558942,-0.0013510168,-0.010831437,0.008875351,0.004983256,-0.007851978,-0.0046375054,0.0010803955,-0.0021028118,0.00036319642,-0.0007599835,0.00015998296,-0.0019043717,-0.0027155995,0.0009676931,0.0030176064,-0.0030456064,0.00023972249,-0.0009566817,-0.0018928952,0.003101801,0.0018482087,0.00019051316,0.0009870314,-0.0017641664,0.0012240597,-0.0024753255,-7.800138e-05,-0.000113383154,0.0015344475,0.0013081394,-0.00057249825,-0.00038380412,0.0006211944,0.00274636,-0.002282435,0.0025230362,-0.0010809691,-0.0014860546,-0.0017474125,0.0015639047,0.0027345829,-0.0021689136,0.0002283123,0.00032186919,0.00041247217,0.00016672582,-0.00086302584,-0.00052258547,0.00013282562,0.0015385079,-0.0014519673,0.0009404642,0.00084720046,-0.00047594027,-0.0005471978,5.483848e-05,0.0005923179,-0.0010781917,-0.0027533732,3.7648104e-05
06336d82,0.9952952,0.069156624,-0.06331163,-0.02162839,0.0010497834,-0.00882368,-0.002572149,0.0047800317,-0.0032768701,-0.0010163155,-0.00072315644,-4.8187365e-05,-0.00069302315,-0.00024829744,-0.0009376163,0.00017378673,8.4586674e-05,-0.00020678576,0.00039241757,-9.237624e-05,-0.00045039464,-4.435129e-05,-0.0010009471,0.0010517195,-0.00019547607,0.00042650735,0.00024621352,0.00037735427,-0.00029650034,0.00012961589,-0.00067171094,-0.00018704092,1.7424569e-05,0.00020974249,4.699551e-05,0.00016912076,6.0688217e-05,0.000127629,0.00026410611,-0.00036438383,3.6929705e-05,-5.9635357e-05,-0.00041739305,-0.00030988303,6.873703e-05,-0.00013014795,-0.00054617634,-7.1930255e-05,-9.067348e-05,-0.00019614499,-3.808901e-05,-0.0003459081,0.00039891488,-0.00022009976,0.00023632574,2.9078281e-05,3.434654e-05,-0.00011254497,0.00034336574,0.00010874688,-0.0002156972,-1.626985e-05,0.0001190944,-0.00018343888
064a82e9,0.9966195,-0.07435085,0.008825528,0.026096957,-0.005616674,0.014426431,0.0022075358,0.004692708,-0.010209459,-0.00060840405,-0.0018348199,-0.0061040954,0.001994323,0.0012648928,0.0021956845,-0.0012473837,0.00018970385,-7.9906094e-05,0.0005377264,-0.0008518842,-0.000670997,-0.0013623801,0.0002368529,0.0013773241,-8.900412e-05,-0.00088965514,-0.00014842456,0.0018002654,-0.00027271674,-0.00012797964,-0.0011444872,-0.00030320397,-0.0011867222,0.00026211387,-0.00055415713,-0.00026907094,0.0005260428,0.00023035708,0.00072386104,0.0014135377,-0.000491516,6.343072e-05,0.0008733414,0.00092176336,-0.00050490047,-3.9587943e-05,-0.00039988424,-0.00034844456,0.00043805028,0.00030186615,4.0841423e-05,-6.208311e-05,-0.0006148291,0.0008112648,0.00040329396,0.00014608081,-3.5191246e-05,-0.00032965804,-0.00019616094,0.0001535316,5.4733922e-05,-9.033112e-05,0.0002439598,-0.00026461168
0657fcde,0.9958767,-0.075134516,-0.042203642,-0.016386284,-0.0034805853,0.018330751,-0.003853922,0.0076961555,-0.008317743,-0.0027776938,0.0022861518,-0.00081571983,-0.0010091604,0.00017389514,-0.0019345371,3.3785174e-05,0.00079840637,-6.339181e-05,-0.00038437502,-0.0011204402,0.001040213,0.001706887,-0.0005229578,-0.00033611915,-0.0006237998,5.2067568e-05,-0.00015227238,-0.0012079142,0.00024106324,0.00036901468,0.00059664564,-0.00044163567,-0.00064414664,0.0005343074,-0.00034234885,-0.00017522459,0.0005434788,-0.00070392684,7.644693e-05,-0.00010381457,-2.8982868e-07,0.0002214419,0.0007498696,5.8020914e-06,0.0011281286,-0.0007273414,0.0004510326,-7.713093e-05,-9.226041e-05,0.0009152085,0.00034500583,1.881289e-05,-0.0006308094,0.0013931781,-0.00016312263,-0.0004834295,-0.00037278482,-0.00049281534,-0.0004827622,-0.00013128779,0.0014566778,0.00016826374,-0.00059278955,0.0004639385
0666fb4e,0.9951421,-0.07586905,-0.057566084,-0.022717409,-0.0016914055,0.0047109607,-0.004471263,0.0039222366,-0.0052565737,0.0020021813,2.7755282e-06,-0.001432061,-0.0010625463,0.0008837245,-0.0001401457,0.00096577185,8.898369e-05,0.00021912262,-0.00012466607,-0.0004757517,-0.0003752178,-0.001914215,-0.0005856228,1.9770045e-05,-0.0005248564,-0.00066246645,8.129794e-05,0.0007266823,-0.0002661344,0.0002818405,0.00022788861,0.00019534265,-0.00021672033,-1.2625914e-05,-0.0005202284,-0.00011998955,0.00016147288,9.409377e-05,0.00037987152,0.0004597066,0.00028816576,-0.00016009474,0.0003473383,0.00010541838,0.00043867563,-0.00010815247,5.5190707e-05,0.00048187785,0.000115807576,1.8569166e-05,-0.00014184398,0.00029186322,-0.00028444175,0.0003091747,4.0778526e-05,0.00013391048,-6.870805e-05,-0.00017144879,-6.0081053e-05,0.00048288392,5.198943e-06,-8.60256e-05,7.4396165e-05,-0.0003811436
069d668b,0.9969751,0.00410651,0.075226985,-0.016317697,-0.0016635387,-0.0044709025,-0.0008860276,-0.0034911584,-0.00043708758,0.0014824494,-0.0035877451,-0.0024133548,-0.00076831767,-0.00013041197,-0.0012544522,0.00055644667,-0.00047258427,4.5728706e-05,-0.0015432051,0.0015111616,-0.00088293926,-0.0013045082,-0.00065390364,-0.002549687,-0.00011884779,0.000319977,0.00068103854,0.00019510038,-0.00036736066,0.00065264414,0.00051695126,0.0007396588,-0.0009496396,0.00097219145,-0.00020977782,-0.0004275255,-0.00044583683,-8.838741e-05,-0.001115959,-0.0011751361,0.0005634217,0.0011840541,0.0007412481,-0.0001358028,0.0006104253,-0.00010886152,-0.00067966984,0.0008858142,0.0007165232,-0.00014142781,-0.00048280685,0.000109848326,-0.00028145156,-0.00035442214,-0.00027546883,-0.00012935701,-0.0008946728,8.604639e-05,-8.579095e-05,-2.2813023e-05,0.0010218023,-6.332173e-06,-0.00015084427,-0.0004001614
06cba5d7,0.99969244,-0.0081594,-0.016491205,-0.008912189,-0.0018018618,0.0073671276,-0.0018852312,0.0060221907,-0.0061998595,-0.0022281816,-0.0020689848,-0.004308271,0.001279732,-0.00240132,-0.0015572198,-0.00057587435,0.0012510974,0.00058024423,-0.00017975738,7.256013e-05,-0.0003233622,0.0001331135,0.00040950952,0.0012050181,-0.00040061778,0.0010159005,-3.405737e-05,-0.0010447244,-0.00012471325,0.00078196696,0.00035333412,-0.00022885435,0.00030923873,0.0011460619,0.00071593234,0.0008780399,0.00037420387,-0.0005797078,0.0010382663,-5.301284e-05,0.00041953335,-0.0002539103,0.0006601585,-0.0005131379,0.0012231814,5.0336894e-06,0.00011989635,0.00030597128,-0.0007335925,0.0008433776,-3.8908685e-05,-0.0001163734,-0.0006458263,0.0002587419,-0.0004236818,-0.00017013322,1.5381202e-06,-0.0002817339,-0.00037744895,7.451309e-05,0.00092281244,9.5303156e-05,-0.0006768651,0.00047421738
06e59db8,0.99531794,-0.07525648,-0.057615556,-0.016910689,-0.00011705679,-0.0016129324,-0.0023362725,0.004319809,-0.0044165184,-0.0022747165,0.0036806786,0.00058140134,-0.00027623575,-8.114168e-05,-0.0004820492,0.0003359164,0.00088408694,0.0009775361,0.0004478638,-0.00094800355,0.00062190247,0.00046442632,0.000696745,0.0007442319,4.2747368e-05,0.00035742903,-5.778821e-05,-0.0005409051,-9.686948e-05,0.00022556829,0.00027031967,-0.00050757005,-0.0002452978,0.00023096961,-0.00014895054,6.2572675e-05,-0.000121112185,-0.00046138704,-0.00011024876,7.045178e-05,0.00026625895,-0.0002626761,0.00024214131,-0.00013856924,-0.00013413015,0.000117179414,-0.00017309353,-4.1091087e-05,-8.9113215e-05,0.00021010947,0.00015761737,0.00014239564,9.631771e-05,-0.00021546095,-0.00038489714,-0.00015222841,-0.00032531822,5.9933176e-05,9.211493e-05,2.3579218e-05,2.466343e-05,0.00035956086,-3.0667823e-05,-0.00023143146
06f33221,0.9094738,0.4144181,0.02395053,-0.013237955,-0.0047249603,0.0136192795,-0.0042035393,0.00010205574,-0.001850976,-0.0044205664,-0.0026946894,-0.0046771104,-0.0017950303,0.00066048594,-0.0031295724,0.0033935509,0.002796093,4.653729e-05,-0.0013864037,-0.0021850977,0.002057234,0.0006242116,0.0014058577,0.0010693498,0.00011776904,-0.0027018248,0.0012725799,-1.1403962e-05,3.4548535e-05,-0.00090209045,0.000119624594,-0.00020139548,-1.9221652e-05,-0.0011315838,0.0011246456,0.00045617606,-0.0002554729,0.00045456405,0.00035548877,-0.0010621358,0.00069032045,-9.6718235e-05,-0.00074563356,-0.00012514647,0.00047129515,-0.00019209746,0.00012065754,0.0001572162,0.00020710276,0.0008943208,-0.00016541575,0.000960801,0.0007852527,0.0005293871,-0.000448541,-0.00057435717,0.00049152866,0.00027354207,0.00013401189,0.00023444512,0.0018343474,-0.00031970083,-0.00069168693,-0.00048801617
073b3535,0.9976243,-0.0341996,-0.055425353,-0.021498151,-0.0006757374,0.0019396109,-0.00035737932,0.00017008779,-0.0046672993,0.0017142462,0.0015812961,-0.00047921445,7.879712e-05,-0.00023580082,0.00029604533,-0.00019445378,-0.00083294325,0.00012099136,-7.573144e-05,0.0002843917,-0.0005574737,-0.00053452305,0.00015344923,0.00083394285,-0.00041228475,0.00020696211,0.000310416,0.0006457815,0.0006735393,-0.0007080659,0.00015360574,-0.00072094955,0.00038037694,0.00013714057,-0.00020380926,0.0007694526,0.0002636129,0.00043969706,0.00035264183,0.000662351,6.0743332e-05,-0.00046098544,-0.00010778086,3.0867697e-05,0.00018930856,-3.5856192e-05,-0.00048472203,8.307356e-06,0.000114318704,-0.0001622908,-0.00042940542,-3.2174197e-05,-0.00028539353,0.00027477392,-1.8917302e-05,-7.7318684e-05,-0.0002632859,-1.815179e-05,0.0001997091,-0.00023621059,-9.780528e-05,9.942726e-05,3.0176088e-06,-0.000196619
075f92a5,0.9977097,-0.05488498,0.021700246,-0.0312455,-0.0004012976,-0.008148925,-0.004544037,0.0016136216,-0.0017092709,-0.000813239,0.0023587705,-0.0018736316,-0.00033485814,-0.00014309281,-0.0019027357,-0.00070001086,0.000926506,-0.00016394071,-0.0011168723,0.00012537341,0.00039342834,0.00013389467,0.0006395369,-0.00039529617,0.0002849458,-0.00030096876,-0.00016085393,0.000881235,-0.00074350415,0.00047788696,-0.00041335396,0.000119463555,0.00022047367,-0.00043395994,0.00017507169,-0.00035973202,-0.00046034882,-0.00042842486,-9.001027e-05,1.8272956e-05,0.00029459255,3.157821e-05,-2.3118817e-05,0.00024179992,0.0006772657,0.00027257594,0.00034400358,0.00024896263,-7.8711666e-05,0.00022048668,-9.571507e-05,0.00062543724,-0.00054382964,-3.4738177e-06,0.00013039853,5.382319e-05,-9.629569e-05,0.00037390075,4.256567e-05,4.465345e-05,-4.194899e-05,-0.00055999914,-0.00013191222,0.0001960632
077ee03e,0.9947433,-0.07175017,0.070162386,-0.007937991,-0.0023524028,-0.01325944,-0.0114908,0.0008041548,0.0014953752,-0.0040878593,6.646368e-05,-0.0010511791,0.00026233037,0.00048321986,0.0014214554,-0.0019298984,-0.00055312214,-0.00011564231,-7.8939775e-05,-0.0008343466,0.00096224324,0.00032321145,0.00014915975,-0.00026206384,-0.00036146093,-0.0008643224,-0.0005851055,-0.00040800933,-6.494755e-05,0.00056005386,-0.00034659592,-0.00061699166,3.9896e-05,0.0005416442,0.00020397967,-0.00011105045,0.000687795,-0.000487907,-0.00035827476,0.00042091054,-0.00016425061,-0.00017834152,0.00013594863,0.00027349827,-0.0002390923,0.00015609551,7.797142e-05,-0.0007978636,-0.00019826596,0.00026921585,0.0005911316,0.00030915998,0.0009095254,-0.000104517814,8.6770175e-05,-0.00039658204,0.00016092617,0.00037239195,0.0002091994,-3.073019e-05,-0.00038872735,-0.00040579983,0.00016641528,-0.00017581726
078a6196,0.9991381,-0.035798397,-0.0023572075,0.010489835,-0.0011100457,0.004177795,-0.0006600464,-0.010819324,0.0059144273,-0.0067554605,-0.0022563655,-0.00018264288,-0.000803603,0.0046028187,0.0032880518,-0.0031116654,-0.003607316,-0.0010045829,0.00025201982,0.002088525,0.001779618,0.000527698,-0.0009081527,-0.0005776002,-0.0020326506,0.0015374165,-3.1545213e-05,-0.0007505477,-0.0010555872,0.00016611343,-0.00015764474,-0.00031303533,0.0011425535,-0.0009053843,-0.00016052715,0.00012824984,0.0007680559,-0.001004795,8.968693e-05,0.0007137745,-0.000586606,-0.0006323066,-0.000815236,0.00097439514,-0.00055906404,0.00066516275,0.0008346761,0.0007318596,-0.00057941955,0.0007691169,0.00069366116,0.00021456284,0.0008123574,0.0009843305,-9.947946e-05,0.00013388722,-3.619637e-05,-1.25295965e-05,-0.00033246976,0.0002884345,-0.0013860945,0.00030852633,8.83487e-05,-0.00047233488
07bb2245,0.998818,0.010394255,-0.010590169,0.041295543,-0.00017301319,-0.009056588,-0.0010814307,0.00011859792,0.0007474407,0.0002477186,-0.00066687696,0.0020399175,-0.00031888028,-0.00018239504,0.0015976074,-0.00020309244,-0.0004667906,-0.00010982469,0.0021958782,-0.002448779,0.0012982467,-0.0008480035,-0.00025141658,0.0010603872,-0.00024926162,-0.00035877514,0.0020465439,-0.0034731994,0.0017609973,5.9928425e-05,-0.0016374583,-0.0023453755,0.0002865641,0.00095715665,-0.0008234496,-0.00034314615,0.0026285665,0.00017478585,-0.0008938472,-0.0017796425,3.294855e-05,0.0003991061,-0.002219218,-0.004557993,0.0022264526,0.0064213383,0.00027113457,-0.0040145256,0.008145435,0.0016727393,0.004659237,-0.0017544448,-0.0019548251,-0.0016255939,-0.0013636891,0.003471185,0.00037691172,-0.00048754102,-0.0004875048,0.0015884864,0.0007049621,0.0008303056,-0.0017576189,-0.0012848151
07bb7765,0.9750783,0.10028804,0.19288285,-0.042092647,-0.0052466677,0.004030557,-0.005654056,-0.000858284,0.00073668355,0.0058021145,0.0012958584,0.002397436,-0.00051316945,0.001417219,0.0011424731,-0.00013021335,0.001982785,0.0006272862,-0.00022033663,0.00039781097,9.180188e-05,-0.00076896534,0.0017992067,0.0011601435,-4.625743e-05,0.0020330248,-0.0014443396,-0.0012500285,0.0011113214,-0.0015390031,0.00016172348,-0.0021659513,-0.0004734431,0.0006431874,-6.401634e-05,-0.00071602495,-0.0014817608,-0.0011161229,-0.001503476,-0.0016454975,0.0015619273,-3.6917867e-05,0.00046529633,0.00011264499,0.00035787234,-0.00022583368,0.0012116864,0.00071738794,0.00050821697,0.0012338734,-0.0006338531,-0.00068429764,-1.6086433e-05,-0.00012646044,0.00011745873,0.0011527553,-0.0003647072,0.0005411386,0.0010535175,0.0009433717,-0.00074371696,0.00074210734,0.00055265514,-0.00011739626
07c36ae1,0.9553914,0.027259558,0.29308662,0.020085609,-0.001632876,-0.0033199573,0.0013354477,0.0017074469,-0.0039409823,0.0019491873,0.005121678,-7.909402e-05,-0.001191664,0.0006019931,-0.0029296267,-0.0015030288,-0.0034271355,0.00014044199,-0.0010521624,-0.0017350436,0.0014361131,0.00029558595,-0.0009921315,0.0016758756,0.0004478848,-0.0017666619,0.0014842729,0.0010914749,-0.0003323827,-0.001064132,0.0010451573,-0.00019023549,-0.0021862271,0.0008699327,-0.0011577427,-0.0012289787,-1.6520746e-05,0.00078399037,-0.0026904468,0.0003590948,-0.0015089744,0.0006106379,0.0012058588,-0.00046511975,9.039024e-05,-0.00342045,-0.0013097537,-0.00090284494,9.314328e-05,0.0006571037,0.0009976934,-0.00093108113,-0.0006536107,0.00044951536,-0.00062496006,0.0009511343,0.00066787616,0.0012500002,0.0004918518,0.0006880888,0.0003324,-0.0015009239,3.7991176e-05,0.000583752
07e41499,0.9970117,-0.054879405,-0.03503601,0.03766394,0.0019858095,-0.0032499563,0.0012523168,-0.005961132,0.0015700131,-0.0052770027,-0.000879728,0.006180437,0.0017470755,-0.0051663755,-0.0015636871,0.0050515877,0.0009939782,0.00042526674,-0.00021812401,-0.00087713083,0.0005339716,-0.001141112,0.003330864,0.00023320517,0.0011055919,0.0028240592,-0.0007971054,0.0014676562,-0.00075132755,0.0004560898,0.0007522131,0.0021876534,-0.0013409812,-5.8722293e-05,0.0007479354,0.0006578195,0.00430753,-0.0018723534,-0.0013590282,0.0006699452,0.001343309,-0.0027776114,-0.0015844754,0.0009948204,-0.00041918067,-0.0005149236,-0.0016981912,0.0015353238,0.00067617546,0.0009286113,0.0017791619,-0.00089347153,0.00063640147,0.0009217023,-1.8814499e-05,-0.0018876072,-0.00021917705,-0.0001752362,-0.00076013926,0.00084102346,0.0010442619,0.0004941821,0.0009878267,0.0007573905
07f3409c,0.9995583,-0.013574427,-0.024101825,0.0026538079,-0.00230861,-0.0030839818,-0.0072484063,0.0018569931,-0.0020339757,-0.0023058322,0.0013871084,0.00020709369,-0.00073502026,-3.2001395e-07,-0.0020208757,0.00026990857,0.0016020018,0.00043764798,-0.0007512293,0.000512646,-7.589318e-05,-0.0007981319,0.0013671723,0.00028690396,0.0011297389,-0.00035395383,-0.00025087933,0.00042421636,0.00015500071,-0.0005951483,0.00027062098,0.00077108236,-2.6085496e-05,0.00014438863,-0.0002490509,-0.00020788648,-7.067997e-05,-0.00044998634,-0.00073430646,-3.9233335e-05,1.6211852e-05,-0.000118219585,0.00020395094,-0.00042650182,-6.43725e-05,-9.588433e-05,0.0004215792,0.0003780405,0.00048257384,-0.00032012197,-0.00043511178,-0.00068906846,-0.00068322883,-4.0445153e-05,8.340385e-05,0.0002258804,-0.00046359104,0.0003310601,-0.00019376935,-7.349976e-05,-0.0007930301,9.1043985e-05,0.00034954117,0.0003533731
081d84f4,0.9961774,-0.07542463,-0.04149748,-0.013068849,-0.00077376934,-0.0014656528,0.000109577966,0.00077030173,0.00087433,-0.0014172392,-0.0017732959,0.0008315938,-0.00092102523,0.00066271477,0.0009648239,-0.0006924878,-0.00035284238,6.458575e-05,0.0006866827,-0.00079986604,0.0006055009,0.0020510014,-0.00091999926,0.00012944808,-0.0006711269,6.6414446e-05,-0.0006392828,-0.0006070282,-0.00071033847,6.004334e-05,-0.0003107034,-0.00043719652,9.603725e-05,-0.0013960223,-0.0018706314,4.361854e-06,-9.833982e-05,7.554403e-05,-0.00027720924,0.00072644517,-0.00012766098,0.0003098987,0.00031537586,0.0006521058,0.00018701293,0.00091059675,3.2518066e-05,-0.0007366735,-0.0012697174,0.0009404753,0.0008507848,-0.00037434467,0.0011826488,-0.00044323472,-0.00047061677,-0.0004377403,-0.00031579597,-0.000982129,-0.00047460647,0.00050306524,-0.00013367701,0.0002793968,-0.00034591812,-0.00030618755
08276ea7,0.99640685,-0.025941243,-0.07473565,-0.021401223,-0.0028812704,0.017559793,-0.005756354,-0.0020740365,-0.0036750212,0.0008950908,0.005036274,-0.00094714505,0.0021232127,-0.0022481077,0.00050372886,-0.0016255871,-0.0023396998,-0.0018410458,0.0004129094,0.0013168545,-0.0007653093,0.0016722574,0.00032573807,0.000987682,0.00085428456,0.0027373894,0.0006772939,-0.0012222129,0.0007101809,-0.00023808908,-0.00042936433,-0.0012090269,0.00015721287,0.0005749209,-0.00040068929,0.0016444802,0.0006874394,-0.00042507,7.156343e-05,-0.00015478523,0.0009493614,-0.00022437611,-0.0002623736,0.000118635224,-0.00044021884,6.201639e-05,-0.0006894321,-0.00021336206,3.8310493e-05,9.243333e-05,0.00020231197,-0.00012784053,0.00090420444,0.00056367,0.0005061648,-0.0006035117,-0.00029633494,-0.00047885682,0.00014497654,0.000557327,-0.0004154554,-0.0003992045,-0.00089380075,0.0007128563
08288a1f,0.9971206,-0.059629645,-0.045065444,0.006785943,-0.0013130476,-0.007296167,-0.003910356,0.00030119348,-0.0026868714,-0.001533929,0.0017396386,0.0008155154,0.0010699761,-1.09508255e-05,0.0011982272,0.0003385363,6.5571425e-05,3.4692443e-05,0.00017181988,-0.0010684201,0.00012917166,3.375615e-05,0.00067070173,0.00013872364,0.0004691608,-3.27484e-05,-0.00018880315,0.00015117876,0.00017089868,0.0011841049,7.187575e-05,0.00074380264,0.00019259125,0.00012717483,0.00010050842,-0.00022059589,0.00068430795,0.0006684573,-0.00082623836,0.0007612384,0.0002940669,0.00079022895,0.00062879646,-0.00018655867,-0.00030028934,-0.00061123876,0.00064827676,-8.341261e-05,0.00028927834,4.159096e-05,0.00020235234,-7.98104e-06,-0.00059630966,1.5062701e-05,-0.00013270549,0.00032405215,0.0010307188,0.00020932622,-0.0004632692,-0.00038920704,-0.00021278133,-0.00048295487,0.0007988837,-0.0003352848
08390d49,0.99617934,0.08572852,0.004114021,-0.011814277,-0.0016591571,-0.002794349,-0.0014563611,-0.0021978542,-0.0007986774,0.00410885,0.004565204,7.929929e-05,6.925328e-05,0.0006125583,0.0008240171,-0.0015381485,0.000702775,1.0684456e-05,-0.00020688782,-0.00077483116,0.0012461178,0.0008038486,0.0030600692,-0.00017520621,-0.0012163314,-0.0027315689,-0.0004643526,0.0012096737,0.0002469819,0.00064234366,-0.0010931438,-0.0004632202,0.00015539542,-4.1430132e-05,0.0012639966,-0.0018228478,-0.0020572636,-0.0014995643,-0.00011088422,-0.00084600196,0.001008815,0.0003851693,0.0007242102,-0.0001085402,-0.0005162778,0.0018920188,0.0003833719,0.00016449201,-0.0005976267,0.0002404278,0.00019405608,0.001335829,-0.00073109596,-0.00040281692,-0.00045673494,-0.000549063,-0.00018855116,0.00048242643,-0.0006001235,0.00014491723,-0.0006424451,-0.0009908674,-0.00022505088,0.00075687404
088efb89,0.99703467,-0.07456623,0.015087423,0.004181414,-0.0015349158,-0.0015487002,0.0026388268,0.0033135458,-0.0047011985,-0.0051275278,-0.0015276585,-0.0028877521,0.0009021086,-0.0013800345,0.0004174612,0.0007702527,0.00085088,0.00036754095,0.0010408766,-0.00056066515,-0.00024940565,0.0014125047,-0.0006145044,0.0024733685,8.039329e-05,0.001386203,-0.00016341323,-0.00070279266,0.0009123687,-0.0005190115,0.0008418072,-0.0011178907,-0.0005127038,0.0008148216,0.000952201,6.3306004e-05,-2.7877728e-05,-0.0006574181,0.0006503265,-0.0006773917,-0.0005666556,-3.7642985e-05,-0.0002844867,-0.00033635786,-9.442509e-06,-0.00048152416,-0.000887974,-6.322669e-05,-0.00010779795,0.0008947882,-0.0002501515,-0.00063187996,-0.00050209666,-7.5929594e-05,-0.0001438403,0.00014647581,-0.00026991023,-0.0001528402,-0.00020442496,5.5693432e-05,0.00089043716,-0.0002810034,-0.00029652467,9.908655e-06
08dbdc95,0.9979855,-0.059920177,0.014460952,-0.0027739066,0.0002725032,-0.012476534,0.0034209557,-0.0040410957,0.0022227583,-0.0016553507,0.0015788935,-0.00043431213,0.0007085534,-0.000548256,0.0010359352,-0.00086522603,-0.00020568026,-0.00030041588,-0.0009425233,0.001220165,-0.000103521146,0.0008294385,0.0009281663,0.0011377987,0.0005084559,0.0002297111,0.000960567,-0.00095945096,0.00024679978,-0.00033975145,-0.00017589786,-0.0005819052,0.00043017897,0.0008872963,0.00037574803,8.317052e-05,0.0003973877,-0.000115033254,-7.517092e-05,-0.00018834189,0.00090323476,-0.0003623318,0.000939763,-0.0005913722,-0.00036642308,2.2872699e-05,0.0004055531,-0.0002702029,0.00014950758,0.00041148558,-0.0011672445,-0.00035038817,8.5835e-05,-0.00027949084,-0.00035467927,-8.499368e-05,-9.637819e-05,-0.00023042555,0.00027853344,8.4596155e-05,-0.00047298585,-0.00017804519,-0.00029434296,0.00089932093
08e3c7ae,0.9968566,-0.004934561,-0.06928123,0.018723384,0.008175669,0.0055781696,0.015473085,-0.0069443597,-0.006554859,0.012011766,-0.0014352736,-0.0008402767,-0.001988432,0.00025310402,-0.0016820196,0.0013368668,0.00021851214,0.0023800845,-0.0092295045,-0.0022703814,0.0029218895,-0.0017533074,-0.0066387686,0.002537549,0.002317991,0.0046315975,-6.1050436e-05,0.0053037843,0.0009731938,-0.0025986226,-0.0017666965,-0.0005921783,0.00041624985,0.0039054325,0.0058159903,0.0004411942,0.008113467,0.0011371517,0.003503012,-0.0030386623,-0.0033949113,0.00018495934,-0.0035781467,-0.00096181245,0.0009946176,0.0023901588,-0.0008925269,-5.4162578e-05,-0.0025276723,-0.0025228385,0.00093718636,-0.0007216226,0.001375751,-0.00033102094,-0.000661086,-0.0020596208,-0.0007652469,0.001979601,0.0020032416,-0.0008709549,9.008018e-05,0.0021745688,-0.0007460604,-0.00042878374
08e82426,0.9943387,-0.07787052,-0.070400596,-0.01204952,-0.0015100475,0.0045815124,-0.0028688742,0.0031622585,-0.0072793625,-0.001595999,-0.0004680547,-0.002350493,-0.0013096211,0.00057628704,-0.0016359368,0.00031493598,0.0014388764,0.0005555842,0.00023881078,-0.0014415104,0.00045375974,-0.00038109836,-0.0001817574,0.00031355454,-0.0004421231,-0.0005383632,0.0003097611,0.0008248035,-0.00049495435,5.7147434e-05,0.00037940894,0.0012727175,-0.00073200563,-0.00042931843,-5.5862038e-05,0.00030299329,-0.00025913183,-0.00049114996,-0.0009911887,0.00044839646,-0.00035302044,-3.6535836e-05,-0.00017283314,-0.00049913337,0.00035215338,-0.00030776253,0.000116065006,-6.3573214e-05,0.0005786777,-0.0001951832,-6.218117e-05,0.000112071844,0.00020504778,0.00043044466,1.1521712e-05,4.44265e-05,-0.00021613091,-0.00018540672,0.00018955496,-0.0002408742,-6.8953625e-05,-6.120795e-05,-0.00031027346,0.00023817172
08eb331a,0.9950183,-0.07293588,-0.053857137,0.033545636,-0.0039822883,0.01709505,0.0060549243,0.0015232397,-0.0105887465,0.0034317737,0.0016057201,-0.00028188626,-0.0003456081,-0.00015488864,-0.0007523279,0.00032691457,0.00032749985,-0.0010167671,0.00093781913,0.00309508,-0.0029912272,-0.0017513562,0.0013782098,0.0027107196,0.0002928097,-0.004077651,0.002108587,0.0014019808,0.0012458824,0.0003362121,-0.00034504186,-3.496463e-05,-0.0012977216,-3.8775554e-05,-0.0018152233,-0.0013214761,0.0022686447,-0.0015262148,-0.00035203618,-2.4745255e-05,-0.0009513995,-9.094949e-05,1.9220715e-06,-0.000817893,0.0024098863,-0.0006751177,-0.00031044733,0.0015498156,-0.00021777466,0.00020420965,-0.0012097611,0.0012715717,-0.0009378922,0.0024517972,2.3112372e-05,-0.00034416083,9.976053e-05,0.00046445234,0.00046153078,0.000564805,0.00027720848,0.0003742806,0.0009929696,-0.0005446058
08ed1a7f,0.9972849,-0.019164307,-0.066442035,0.0015503013,-0.0024631897,0.0055492837,-0.0010925797,-0.014527047,0.0059177238,-0.011081581,-0.0037950762,0.0013863147,-0.0039265486,0.0043081283,-0.0007156654,-0.0013221496,-0.0006832106,1.951653e-05,-0.0031613025,0.0017981466,0.00019807926,0.002488405,0.0018733696,0.00068553246,-0.0023176898,-0.0016553081,-0.0024791548,0.003266987,0.002445396,-0.0014827417,0.0035006632,0.0017775103,-0.0022098932,0.0006630811,0.00074904424,0.0019632585,9.733431e-05,0.0036865459,0.0018618607,-0.00026084093,0.0017141163,0.00015213645,-0.0001732336,-0.0025986368,-0.0007651428,0.00027817735,9.543502e-06,0.00313299,0.00083618634,0.0017213846,0.0008246139,-0.0006929981,9.762182e-05,-0.0010086566,-0.0009433259,0.00020179225,-0.000119787845,-0.0002579016,-0.0005098549,-0.0010364422,-0.0016805655,-0.00079128094,0.001057706,-0.0020479797
08f461ac,0.56800014,0.82281464,-0.013622628,0.001244335,-0.0013792431,-0.003577232,-0.0037925034,0.0074461913,-0.0012735,-0.004949646,-0.0025294737,0.0003637688,-0.0029475198,0.003958102,-0.0006281896,0.0014766558,0.001318288,0.00071881915,-0.00084967696,-0.00034464782,0.0006025354,0.00020940769,0.00013108522,0.0011472938,0.00095443,0.00025831975,-0.00087012275,-0.0001338818,0.00033375423,-0.00015354353,-6.173605e-05,-0.0001662404,0.00073230744,0.0010046756,0.00010384226,-0.00052884396,0.00032160067,-2.7620536e-05,0.0009404323,9.905751e-05,0.00046187334,-0.00032558723,-0.00019029263,-0.00016732624,0.00020295696,-0.00028141565,-0.00022924128,-0.00019102769,0.00037617874,0.000119842574,-0.00080779375,-5.570266e-05,-0.00059517735,0.00058656733,0.00014693831,-0.0006710242,0.00023296663,0.0006257031,-0.0004192094,0.0001372539,4.1057992e-05,-0.00036668422,-0.0003091542,-0.00054677477
08f9b53a,0.9819099,0.18719152,-0.0110471435,0.010857542,-0.0030823343,-0.0026185387,-0.010142307,-0.015289986,0.009730598,-0.0034448397,0.0029630903,-0.0009966964,-0.0018314414,0.0005813319,-0.0020006758,0.0046576457,-0.001323037,-0.0009810774,0.0022022612,0.0018842777,-0.0018456521,0.00086421164,0.0019740032,-0.0012458983,0.0013551237,0.0004471875,0.0013002327,0.0015873212,-8.012119e-05,-0.0009611574,0.00011936684,0.0006339175,-0.0011314845,-0.0010075573,0.0007539512,-0.0009770059,0.0006811231,0.0013598192,-0.0012949987,0.0011412845,0.0017077506,0.00031236358,0.00232276,-0.0003989729,0.00019023192,-0.0004971784,9.5715775e-05,-0.00014775086,0.0007353803,0.00063513324,-0.00040222987,-0.00015813342,0.00016447839,-0.00018851066,1.2067901e-05,-0.00060023007,0.00032047945,0.0015903838,0.00091409,0.00091554836,-0.00076440105,0.001093853,-0.00015084434,1.4905767e-05
0916cdad,0.98983026,0.09871891,0.07064039,0.059368115,-0.0058498257,0.029655902,0.01172381,-0.02273006,-0.0006787207,0.009121389,0.008028852,0.0074678906,0.00012708374,-0.0004825993,0.0022334761,0.0050984817,-0.00019341051,-0.00012408265,-0.000288508,0.0032123297,-0.0021577294,0.00083226885,-0.0026871706,-0.0004493579,0.0013913077,0.004963411,0.0012434109,-0.0025109511,0.0019033621,-0.0010108504,-0.00028751814,-0.00031700247,0.00018228193,0.00042986945,0.00078563386,0.0023624452,-6.7222863e-06,-0.0014567784,0.0014640914,-0.0008417494,0.00044770868,-0.00088123255,-0.0017763,0.00034663177,0.00124731,0.0011817496,0.0005251537,0.002373413,-0.001347509,0.0009781988,-0.0008776808,-0.0006376833,0.00015318338,-0.0010034847,1.4300256e-05,0.0005406216,0.00021341059,-0.0020257619,-0.0010720388,-0.00038697873,0.0011820158,0.00033133442,-0.0015792579,0.00048096757
09429577,0.99651986,-0.06637046,0.041182674,-0.02681752,-0.002145821,-0.00044276347,-0.0045096427,-0.0054011927,-0.00056072493,-0.0044126227,0.0006201559,0.000840304,-0.0021120666,0.0027252599,0.0013319892,0.00078084896,-0.003282931,-0.00036403124,-0.0006854199,0.00070558366,-0.0006825429,-0.00022416182,-0.00083564536,0.000634767,-0.0010263219,0.0009181234,0.00060606387,0.00029302613,-0.0012689196,0.00048256898,0.0007614908,-0.0005561277,0.00023505154,3.3527205e-05,-0.00067379256,-0.0003511349,-0.002044456,-1.0606995e-05,0.0019279752,-0.00036271662,2.0878e-06,-8.486772e-06,0.00042640255,-0.00021506792,0.0013957309,-1.749556e-05,-0.00055513065,0.0005776786,-0.0005092677,0.00033771616,0.00036036983,-0.00029845416,0.00031943002,0.00018162036,0.0005626932,1.1274977e-05,-0.0003332986,-0.00027915087,-0.00079054537,9.4986535e-05,7.528035e-05,0.00011253712,6.8385452e-06,-0.00034886925
0949205b,0.994853,-0.06489952,0.07066054,0.029780727,0.0020128826,-0.0057825805,-0.0009864791,0.003047632,-0.0015539553,0.0011888664,-0.002137856,-0.0007066554,-0.0015063545,-0.00051239063,-0.0030545597,-0.00083044724,-0.0017988567,0.0005339856,0.0001248163,-0.0034161757,0.0020707718,-0.0027426162,0.0022988499,-0.00072134257,-0.0010754457,4.720502e-05,0.0011562665,-0.0021501076,0.0010185018,-0.0007184111,0.0010374609,0.00015739087,-0.0010352721,0.0020147013,0.0011332892,-0.0020986793,0.0019617719,0.0013849078,-0.004097808,0.0010260558,-0.0007160301,-0.0010997673,-0.0010918481,-0.00023353574,-0.00057408976,0.00083165156,-0.0008713209,0.00095759344,-0.00021728866,-0.000100340185,0.00016835939,0.00011400929,-0.001579933,-0.0001816022,0.00055548665,-0.00017395362,0.0006045613,0.00016816318,0.0006467956,-0.00042281655,0.00061903824,-0.00040898495,2.9911562e-05,0.00053531985
098c4b58,0.9996162,0.019641975,-0.0018688932,-0.015270363,0.0004738723,-0.008362373,0.0016805636,-0.0050682146,0.0012795087,0.0019836212,-0.0003899093,3.0021896e-05,0.0008829754,-0.00056877354,0.0020003065,-0.0011772664,-0.0015228528,-0.00047143424,-0.0014195185,-0.00021240127,0.0004604767,-0.00034291088,0.0010836201,0.0011601258,-0.00087084796,0.0012483099,-0.0005301454,0.0003845723,-0.0005034595,-0.00059494725,0.00030678257,-0.0001298838,-0.00042475827,0.0003010677,-4.8765643e-05,0.00068093534,-0.00019214496,0.0007734133,-0.00016077032,-0.0002473833,0.00020578518,0.0003641909,0.001046102,-0.0009155516,-3.051412e-06,-0.0010505124,0.0010166392,-0.0008305012,0.00023766547,-0.00080449216,-0.00023552119,0.00028332244,-0.00015137332,-0.00051553035,-7.020227e-05,0.00021111932,0.00093140174,0.00052110205,-0.0005102586,-0.0011349751,-0.00043694754,-0.0007087202,0.0006373787,-0.000630868
098f7878,0.99919516,-0.017291417,0.028848771,-0.018690962,-0.000695503,-0.0046491115,-0.0013674734,-0.0066199224,0.002390296,-0.002487588,-0.0016616397,-0.0021694722,-0.0017024055,0.0010836008,-0.0016358047,-0.00066179613,-0.0007731993,-0.00017702678,-0.0009511843,0.00077326194,-0.00036311147,0.00041645888,0.00072680507,-8.8409055e-05,-5.8127807e-05,0.00071853044,0.00046777647,0.001119566,-3.480328e-05,-0.0008453409,0.00046449798,0.0009387445,-3.9405182e-05,-0.00097365945,0.0017445274,9.029941e-05,0.0007980188,-0.0009432987,-0.000151296,-7.201934e-05,-0.0017274324,0.00036854838,-0.0002641569,-0.00037864113,-6.0221697e-05,0.0003338441,-0.00011881748,0.0002700966,-4.100947e-05,-6.99928e-05,0.0006154205,0.00051683036,0.0003887278,-0.00060001115,0.000606304,-0.00023649281,6.926011e-05,-0.00031657174,0.0006506396,-0.000492271,0.0011305087,5.5180208e-05,-0.0001708159,-0.00029456295
09a67581,0.9962962,-0.075088814,-0.03929694,-0.01032569,0.00035885075,-0.0047523454,0.0029403036,0.003366883,-0.0070903306,-0.0012067877,0.00050482946,-0.0013126626,-0.000844557,-2.8961826e-05,-0.0014006862,5.4631088e-05,0.0007337776,0.00036859044,0.000222238,-0.000720479,0.00022175963,0.0003523611,-0.00068049575,0.00017951998,6.0646205e-05,-0.0003899918,0.00044072233,-0.00034420218,-0.000120717974,1.4463166e-07,-0.00022645746,0.00014224286,0.00014713415,0.0002085885,0.00018871581,-1.6670258e-05,0.0001682331,0.00048378718,-0.00020569672,0.00015260068,0.00015759084,0.0002489233,6.165631e-05,-0.00019503536,0.00033464254,0.00031315093,0.0004273504,-3.0520576e-05,-0.0002611951,-0.00023391205,9.341023e-05,-8.3080035e-05,0.00031392276,0.00030894225,-0.000264487,-0.000391064,-0.0004966619,0.00021883262,0.000354038,0.00019411689,0.00021150426,1.1741064e-05,0.00021389122,-8.39344e-05
09bf7971,0.9978952,-0.037525907,-0.04518879,0.01773448,-0.0042155893,0.01590717,0.0021164152,0.006110617,-0.007823617,-0.0018808458,0.0052887076,0.00029932547,0.0009152713,0.00055528485,0.0024732607,-0.0004928254,0.0015129619,0.00035948952,-0.00017389424,-0.0013739925,0.00081410614,-0.0012270001,0.000810047,-0.0006341195,-0.0011239983,-0.0006464559,-0.0006823012,-0.00076141686,-5.740106e-05,-6.875488e-05,0.0006172052,0.00054470054,-0.00022239967,-0.0006630535,-0.00041424678,0.0011908492,-0.00017896554,-5.5462682e-05,0.00046612867,-0.00012348943,0.00013132702,0.000744703,0.0006748389,-0.00062645675,-0.0018087678,0.0012997601,0.0007459796,-0.00044214874,0.00020174107,-0.00014886903,-8.993523e-06,0.00026880254,0.0006514218,-0.00010254698,0.00033259718,-0.0002478664,0.00028840947,5.1885574e-05,0.00028797094,-0.00028490936,7.910362e-05,-0.00011484715,-0.00017986653,0.0003956476
09ea6d33,0.99668264,-0.066136345,-0.02864433,0.021407586,0.0007128035,0.009815118,0.015624285,0.013846769,0.011893015,0.0058114487,-0.0058415798,-0.0017850371,-0.0026618908,0.0007380346,-0.0027796847,0.002157826,-0.001197372,-0.0032657778,0.0030833439,-0.0025219936,0.00019300827,0.0026708152,-0.0007486555,-0.0035609796,0.00057237153,-0.00067083276,0.00061403576,0.0031177625,-7.140617e-05,0.00034177478,-0.0036952146,-0.0014157791,0.0018730556,-0.0010791249,0.004502596,0.0025742338,0.00023552643,-0.00022326279,2.2385999e-05,0.0002954483,-0.00021069145,0.00034342337,0.0009922775,-0.0016192781,-0.002267497,0.00050989684,0.0009664809,0.000803704,0.0014793412,4.3445478e-05,-0.0015485686,0.00037452555,-0.0014221283,0.0014196273,-0.00022597329,0.0005436366,-0.00040912093,0.00050741143,-0.0011100733,0.0010941684,-0.00020758569,-0.00051533827,0.00020637407,0.002232168
09eb3ce5,0.99724543,-0.036783088,0.0066480334,0.04654528,-0.0035193653,0.034206793,0.009301099,0.009553158,-0.00794431,0.0013215926,0.002873462,0.0090030525,-0.0022500074,-0.0025821058,-0.006052542,0.007258525,0.0006900874,0.0013398777,-0.0007923986,0.005918837,-0.0044111316,0.0015629807,-0.004867503,-0.004428912,-0.001572535,-0.00248419,0.0012658042,-0.0009999797,0.00034191992,0.0015314395,0.0004505682,0.0011225038,-0.0015334246,-0.00035940987,0.004267471,0.0030499967,0.004239913,-0.003526879,-0.00068945094,0.00015423144,0.0005565458,0.0010349683,0.002792403,0.0006023298,-0.0031382733,-0.00020245573,-0.0026484383,-0.0018085846,0.0009881067,0.0012502779,-0.00055138965,-0.0035065687,-0.0012337067,-0.0021630246,0.00050700206,0.002289786,0.00018140805,-0.0006741942,0.00065506937,0.00052533945,0.0014690505,-0.0017945297,-0.0042982367,-3.9174727e-05
0a1be27b,0.99553436,-0.0027062644,0.08389421,0.025881227,-0.002231659,0.0043974277,0.016388007,-0.007316225,0.0077427407,-0.006497496,-0.015292959,0.0048615513,0.0018744527,-0.007277493,-0.0031175436,0.0031612255,0.0046228375,-0.0006643365,-0.0020954532,-0.0013125308,0.0021462813,0.0039315214,-0.0020642607,0.004754658,0.00031416703,-0.003613343,0.00043727405,-0.0014051337,-0.00196184,-0.001548108,-0.0010727847,0.00675515,-0.00022556217,-0.0045459718,-0.007097309,0.0048785084,-0.0030162008,-0.0020291824,-0.00089767657,-0.0026553902,-8.882447e-06,0.001003637,-0.0037199147,0.0016579982,-0.00022332634,-0.0015843835,0.00026394025,-0.00093231816,0.0008008164,-0.0023664776,-0.0028698705,-0.0024620653,-0.0003772922,-0.0002722225,-0.00031109765,0.00052185205,-0.0002385822,0.0019206204,0.0003915805,0.003193356,-0.0015163632,0.0023828,-0.00113183,0.0013883318
0a21bbd6,0.9627669,0.2695967,-0.007863172,-0.0016942266,-0.0008861422,-0.010072916,-0.005214885,-0.003878577,0.004033482,-0.007937759,-0.0009571239,0.0010123175,0.0029988098,-0.0053946455,-0.0011061775,0.0031897656,-1.8875045e-05,-0.0003903048,6.2598316e-05,-0.00045112448,0.00085418933,0.0027808647,0.0012342347,-0.0006159504,0.0022469894,-0.0005412341,0.0006901341,0.000769219,-0.000822752,7.746909e-05,0.00016779592,0.0011602461,-0.00020656831,-0.00093189965,0.0014712984,-0.0005730641,-0.0012203476,-0.00026076782,-0.00062813703,-0.0009846907,0.00045737627,0.00016598591,-0.00025519382,-0.00043919805,7.6000015e-07,0.0007980024,-0.00070790906,0.0025858793,-0.0004526362,0.00024319088,0.0014424833,-4.4227745e-05,-0.00012475756,-0.0016154859,-0.00052616786,3.507066e-05,9.071393e-06,-0.0004240472,-0.00091293786,-0.00014952052,0.0012336925,-0.0005867433,-0.00071596407,0.0012267382
0a248634,0.9991336,-0.01935812,0.031214168,0.0015133898,0.0004556719,-0.008149874,0.013853578,-0.001349298,-0.004418879,0.0059393663,-0.0036151812,0.0010252779,-0.0010125986,0.0007311847,0.0008134647,0.0012058308,0.0012045846,0.0005882684,-0.0009135046,0.0031036655,-0.0014686428,1.33240355e-05,0.0007862618,-0.0015114814,0.0001671566,0.00046734718,-0.00020011347,-0.0025269755,-0.0016500842,0.000839789,0.0006268875,0.0012834307,9.0048845e-05,-0.00034510245,-0.0010022823,-0.0020666814,0.000100688514,7.222601e-05,-0.0009498545,0.00019025583,0.00015994867,0.000247092,0.0001056808,0.00012470172,-0.00045669306,0.0009992805,0.0008515783,0.00073882786,-5.8717058e-05,-0.00014390142,-0.00085264724,3.662903e-05,-0.00030377225,-3.110087e-05,-0.00052631216,-5.0398266e-05,-0.00018878424,0.00014907202,4.274822e-05,0.00088758644,0.0004545815,0.00017508521,0.00018782681,-0.0005678195
0a31d60e,0.9823964,-0.04510939,0.17676921,-0.020422377,-0.009173698,0.03157288,-0.0010009423,0.0023487369,-0.0035098884,0.00060933636,-0.001008766,-0.00022521924,-0.0004318093,0.0028955543,0.0027416227,-0.0014748732,-0.00052897056,0.00047747107,-0.0021079818,0.0017253112,-0.0005916824,-0.0029623124,0.0033042857,-0.0008416334,-0.0013687466,-0.0009929988,0.00042442026,-0.00094508973,-0.0012194603,0.0013843464,0.0013310346,-0.0019395971,0.00064455677,0.0007784804,6.0915772e-05,-0.0018135865,-0.0017620496,-0.00028384032,0.0012505816,-0.0010380035,0.00037281873,3.6753678e-05,0.0011142227,-0.0007405716,0.00023905748,0.00046288845,0.001327323,-0.0003177276,-0.00065501325,0.00017136379,-0.0004100145,0.0005348658,-0.0006552579,0.0006698048,0.00089129497,-4.2786287e-06,-1.2957458e-05,-0.00046516597,0.00029273023,0.0004595167,-0.00020394669,-0.0007749021,-0.0004310643,0.00072928506
0a4e3aec,0.99687445,-0.06125797,-0.04539254,-0.0127422055,-0.0029002693,0.00799007,-0.0075728283,-9.469799e-05,-0.0009384976,-9.202883e-05,-0.0034121256,0.00030997302,0.0016435344,-0.0035445031,-0.0010859795,-3.1962394e-05,0.000106345375,4.9597496e-05,-0.00271678,3.718453e-05,0.0016753505,0.0005312558,-0.0014034865,-0.00055956736,-0.001201899,0.00013578124,-0.00092506205,-0.00021537309,0.00023724718,0.0018106244,0.0015350715,0.0010141311,-0.0013213143,0.00070181297,7.744555e-05,0.0005412153,0.00024344909,1.2485555e-05,0.00032188403,-0.0007087827,-0.0003889156,-0.00013295488,0.00071846443,5.6095058e-05,0.0014524532,0.00013416627,-0.001919948,-0.002085517,-0.000689362,-0.0009048036,-0.001073488,-0.00031540907,0.0010391916,9.5739386e-05,0.00018721487,0.0015274361,0.0003790681,-0.00038119403,0.0002581838,0.00020713838,0.0008553167,0.00044496826,-0.00056079956,-0.00041419233
0a4eae7a,0.9971122,0.048228346,-0.043826405,-0.0220882,-0.004640348,0.022549495,-0.002508852,-0.0063742315,0.0007122824,0.004065982,0.0006828432,0.0024541472,0.0017125247,-0.0013938751,-0.0009113692,-0.0058942027,0.003062429,0.0010285792,-0.0007618365,-0.0013736198,0.0003204306,-0.0046824915,-0.0019334346,-0.0008080011,0.0055265864,-0.0009868529,-0.0016166025,-0.001111949,7.052145e-05,-0.0048116026,-0.0047111097,0.0070725097,0.0035464757,-0.004405754,-0.0024108267,0.0017662187,0.002697996,-0.0009559992,0.0005326566,-0.0023633467,0.0020678104,-0.0004389349,0.00093028066,-0.0010228474,-0.0012070742,3.3641572e-05,-0.0010001336,-0.0005404108,-0.0017401578,0.007221091,-0.0039699185,-0.00047141945,0.0009099091,-0.00011749028,-0.0022707833,-0.0007002554,-0.0014039695,-0.002812881,0.0026283688,0.0007950931,0.0012922194,-0.0003179073,9.793888e-05,-0.00091409025
0a59a757,0.9915303,0.12405406,0.034524158,0.007950347,-4.6542867e-05,-0.00363612,-0.0046296753,8.6201384e-05,0.0023449068,-0.0032576183,-0.0017943195,0.007165112,1.4008037e-05,-0.001128246,0.0015478953,0.0051722527,0.0008133725,0.00018545381,0.00035660208,-0.0011550139,0.0013900535,0.0020062206,0.00011322001,9.90018e-05,0.0006554314,0.00023541116,-0.0008172193,-0.0014140606,0.00045132072,0.002736578,0.0014971979,0.00041439274,-0.00070398365,0.00079616276,0.0010339123,-0.001003892,-0.00079257874,0.0002451836,0.00059847813,-0.00025257695,-0.00019330959,-0.0008551582,-0.0011188161,-0.0015533786,1.1461782e-05,4.7664886e-05,0.0003980743,-0.0004834169,-0.0014656293,0.0008153988,0.000108536544,-0.0003407187,-0.00020242814,-0.0005188396,-0.0003888924,-0.00023452594,-0.000666017,-0.00080287294,0.0007221056,-0.0009722537,0.0003439307,0.00079096743,-0.0006232477,-0.00038282387
0a98043e,0.9874118,0.122537255,0.096556455,-0.019594401,-0.0043410705,0.002980086,-0.0016348913,-0.008885287,4.3133532e-05,0.010155554,0.004882423,-0.0022474942,0.0020373368,-0.00018243851,0.003634356,-0.001222285,-0.00041324634,-0.0005356443,-0.0011131046,0.00052389974,-0.00015366462,-0.001744767,-0.0007462785,-0.0033260216,-0.0002285299,0.0010299514,0.00011636562,-0.00049387163,0.0008230496,-0.00010830301,0.00035858602,0.00015488105,0.0001072456,0.0011139245,-6.465718e-05,0.0013578783,-0.00049591996,-0.0009391089,-0.0008287821,-0.00075391785,-0.00038031864,0.0006857784,-0.0006418391,0.0010446869,0.00021606036,-0.0003277468,6.2352454e-05,0.0005154271,0.00045756047,7.1001334e-05,-0.0002664792,-0.0005521142,0.0004471906,0.00018081765,0.0005774705,0.0003911838,-0.00053436984,7.784958e-05,-5.308023e-05,0.00045394845,-0.00031464963,0.00035930405,0.00066266715,-1.9878178e-05
0ad15907,0.9950987,-0.076682866,-0.05029454,-0.03136075,-0.0034510454,0.014609036,-0.007835405,0.0026662832,-0.0055688582,-0.0003680122,-0.001535297,0.001355621,-0.00097395416,0.00032769397,-0.00085788,-0.0014741088,0.00081483915,-0.0002805069,-0.0007089051,8.283577e-05,2.08743e-05,-0.0002917402,0.00024622658,-0.00061104185,-0.0018133528,-0.0011057479,-0.00048751186,0.0004067456,-0.00016660005,-0.00024368388,0.00036790915,-0.0009122596,0.00034715465,-0.0013221388,-0.0015118155,0.0014253063,0.0016729989,0.0015367382,0.00065536576,0.0015642155,-0.0008616542,-7.1952054e-06,0.0002749746,0.000397268,0.0006124596,-3.2976874e-05,-0.0005102767,0.0012317369,0.0009845765,0.00026428947,-0.00044293227,0.00010477857,0.0003941691,-0.0002568261,0.0017839088,0.0005088056,6.674806e-05,-0.00056910864,-0.00040292143,-0.0012794618,0.0001706502,-3.646281e-05,-0.00035513024,-0.000633721
0ad30c56,0.99020493,-0.059645012,0.11411606,0.050095025,0.002819876,-0.016765071,-0.003410728,-0.00018375616,0.00024915082,-0.0023108511,-0.0011471391,-0.00487618,0.0009114064,-0.0026525855,-0.0033287306,-0.002906705,-0.0026372692,0.00030461338,0.00081212656,-0.001215203,-7.2432835e-05,-0.0015814496,-0.00013016675,-0.00042230808,0.0004175734,0.0016203196,-0.0011360525,0.00036531856,-0.0007494535,0.0004706989,-0.0005235551,-0.00015428287,-0.00032503085,0.0012195786,-0.0009151291,-0.00036230442,0.00031438415,0.00069636095,-0.0018258123,0.00059440243,0.0005796246,-0.0008774967,-0.00030117104,-0.00010804135,0.00057669036,-0.0008618251,0.0007194152,0.00073893653,-0.00026942868,0.0003124412,0.0003190056,-0.00022106754,-0.0010207081,0.0004210798,-0.0003394075,-7.021017e-05,-0.0006429059,0.00020221836,-0.00019396274,-8.6267595e-05,0.0010970684,0.00079351506,-0.00049737596,-0.0001572917
0b7d9563,0.9922177,-0.07889776,-0.08764843,-0.034530215,0.0023516018,-0.0018184894,0.004910181,0.013786088,0.01000821,0.00014462082,0.003999515,-0.00065388496,-0.0007583904,0.0006626241,-0.0002337837,0.0034258757,-0.002761255,-0.0015559938,-0.0019057554,-0.0010053726,0.00066314003,-0.0015158827,-0.0015937823,-0.0011321639,0.0015217247,-0.0013644714,-0.002171427,-0.0001855129,9.320042e-05,-0.0010998613,0.0020879337,0.00018030612,-0.0014382713,-0.000627555,-0.0006629481,-0.0009016816,0.0002720674,-0.0006435218,-7.716857e-05,-0.00037706332,0.0001427308,6.88895e-05,0.00063017313,1.5970138e-05,0.00095693435,-0.00069068535,0.0009898453,0.00010945136,3.3910983e-05,0.00014445368,0.0008480325,0.0008965066,-0.0004329666,8.084435e-05,0.0005973763,0.00060150557,0.00048759207,-0.0003476336,0.0004444395,0.00071150536,-0.00025927817,-0.0002689234,8.9343186e-05,-0.00013808016
0bcf7a38,0.99880886,-0.016409118,-0.039439525,-0.019072175,-0.0014427035,0.0058449367,0.0011831744,-0.00694743,-0.00044348493,0.0024911237,0.0013528814,0.0006742048,0.0016002533,-0.0023668522,-0.00040453408,-0.0017298021,-0.0017140182,-0.001714354,-0.0007500661,0.0028295792,-0.00046020944,0.00053859415,0.0008360732,-0.0019905209,0.00022539157,0.0008084627,0.0017505155,3.4303626e-05,0.0017526931,0.0015350226,-6.549919e-05,0.0013165849,-0.00023846289,-3.07754e-05,0.00042958878,-0.0011921991,0.00022588728,-5.5517146e-05,0.00019669833,-0.001848463,-0.0013752334,-0.00050054665,0.0014177627,0.0007113604,0.0008119267,0.0005200587,0.00021832116,0.00039604306,0.0004066073,-0.0004293983,-0.00010775458,0.0009572505,0.0016123891,5.36409e-05,-0.0001939168,-0.00043456524,0.00010040671,0.0006694849,-0.0006005632,-0.00035976223,0.0008244421,-0.0010630083,-0.00014215456,-0.00018765261
0bdda3d0,0.99670017,-0.07631723,-0.024315584,0.0003165603,-0.00064581406,-0.008974026,-0.005227668,0.0023681072,-0.0015315296,-0.0031208952,-0.0013063559,0.0009155643,-0.00025730446,0.00037021402,0.0014252686,-0.00017607983,0.00055879593,4.036887e-05,0.0006758902,-0.0015578514,0.0013667747,0.0016274733,0.00046778843,-0.00063588744,-0.00024516953,0.00016804002,-0.0013519996,-0.0002549919,3.5848487e-05,0.00034379336,-0.00092885754,0.00010686244,0.00019144156,-0.00068943115,-0.0004867248,0.0007344806,0.0001512028,-0.001854908,0.0006531544,-0.0007145382,0.0006901711,-0.00034345925,0.00070173934,-0.0006091178,-1.3913467e-05,9.3185874e-05,0.00036228035,9.340121e-06,7.7085504e-05,-0.00010915945,-0.0005886249,-0.000850745,-0.0004431555,0.001139501,-0.00036809404,-0.0013477467,0.0005394039,0.0010798188,0.00010651283,-0.00030323627,-0.0010104104,-0.0009726615,0.00066259695,-0.00080694864
