id,00,01,02,03,04,05,06,07,08,09,10,11,12,13,14,15,16,17,18,19,20,21,22,23,24,25,26,27,28,29,30,31,32,33,34,35,36,37,38,39,40,41,42,43,44,45,46,47,48,49,50,51,52,53,54,55,56,57,58,59,60,61,62,63
001519c8,0.99909765,0.03556681,0.00022378478,0.0006726239,0.008566592,-0.0058236234,-0.0019639106,0.007893847,-0.00056187797,-0.013807005,-0.00029015736,-0.0051627187,0.0015568779,0.0013120685,-0.00032050195,-0.00022895713,-0.0003453877,0.0014774513,-0.0025646177,0.0003256756,0.0007937392,0.00060626736,-6.319862e-05,-9.9961595e-05,0.0006368514,0.00082903786,0.0002987184,-2.700628e-05,0.0010540939,-0.0034974532,-0.0031316068,0.002724112,0.0039624823,-0.0008456813,0.0030989223,0.003760808,0.0033716168,0.0011201719,0.0016030594,-0.0023639963,0.0018948002,0.0005702329,0.0007892087,-0.0002740631,0.00014885009,-9.843102e-05,0.0014221618,-0.001946651,0.00065708556,-0.0020752423,-0.0005980828,0.0011017532,-0.0018085028,0.00016221801,-0.00035180728,-0.00016136911,-6.530788e-05,-4.8290713e-05,-0.0007080615,-0.0001873923,-1.0062471e-05,1.6696336e-05,-0.00014664019,7.532156e-05
0022f953,0.9850478,-0.15396835,0.033318464,0.003836285,-0.0005015625,0.026684776,-0.014535277,0.017382532,-0.0036260867,0.010779343,-0.010523309,0.030484745,0.0006925432,-0.012536212,0.0064005656,-0.007304196,-0.0008556385,0.013200736,0.001863227,0.009643161,-0.006917611,-0.012340288,0.006835284,-0.003178274,-0.0013812039,-0.012977358,-0.004069027,-0.0046456354,0.0037142003,0.001323978,0.004140928,-0.0022576712,-0.006032151,-0.0068523246,-0.001735133,0.0038968336,0.006629937,0.0013665264,-0.009365815,0.00871534,0.013123453,0.0025380086,-0.0032412335,0.0037183138,-0.005272233,-0.004947658,0.0025881086,0.0024798648,0.0035967724,-0.0001701579,0.00026564914,-0.0046167094,-0.0027728484,0.0040422864,-0.0005194822,-0.004155532,0.0070494195,0.0025454243,-0.007031694,-0.0076171923,0.00027869432,-0.0010810903,-0.0031517975,0.0016984079
0042269b,0.99354994,0.111421086,-0.009531393,-0.0026051817,-0.0082979705,-0.0026687142,-0.011408903,0.0032178948,-0.0009328371,-0.0038410355,-0.002106722,-0.0011796396,0.00335987,0.0009314235,0.00015273219,0.0011905238,-0.001352566,0.0018744424,-0.000384971,-0.00052150676,0.0021034789,0.0028980747,-0.0028148247,0.0032079606,-0.0024383264,-0.0018032627,-0.0012610591,0.0012298966,-0.0008607575,0.0012690778,0.00045231704,0.0010535539,-7.8826466e-05,0.00049246557,-0.0011567414,0.00079458323,0.00015101291,-0.00014165584,0.00021006183,0.00028548634,0.00032879875,-0.00017661059,0.00070741086,-0.0003978656,0.001061035,-5.197548e-05,-0.0007121371,0.0015551945,0.0002084876,0.00018826395,-0.0010314537,-0.0004158089,-0.0017287554,-0.00053663563,0.0016087568,0.00045662234,0.0006637542,-0.0009324137,-0.00019216587,-0.0006291931,8.9583205e-05,-0.0016327207,0.00013427927,0.0006457723
0059420b,0.9993502,-0.011814351,-0.01277956,-0.0015489093,0.014427688,-0.007562874,0.012537231,-0.013619548,-0.001108476,0.0015403632,-0.0035512506,-0.004801223,0.0007280152,-0.0016284065,0.0003333891,0.0028201865,-0.004283438,-0.0040101553,0.0004459064,-0.0019151279,-0.0015238833,-0.0049876,0.0010744944,0.0009658111,0.0010011647,5.182491e-05,-0.0003955006,-0.0027189383,-0.0018602485,-0.0028838618,-0.0011088423,-0.004761403,-0.00017676223,-0.00016277292,-0.0010156544,0.0013530762,-0.0019738858,0.00017535743,-0.00040197704,0.00031181076,-0.00022723587,6.171562e-05,0.0004904158,0.0012626335,-0.0007430063,-0.0010819501,-5.1158313e-06,-0.0029808641,-0.00045286393,-0.0004796346,-0.00321969,-0.0007278329,-0.0007690631,-0.00078467274,0.0045823143,0.002365722,0.0009857725,-0.0009067805,-0.00018752943,-0.00012045779,0.00020999767,-0.002305427,-0.00012895014,0.0014999823
0075873a,0.9969979,-0.021809852,0.057497352,0.00790789,-0.004424655,0.02986395,0.0010706956,0.015622619,-9.6818934e-05,0.0071868296,0.014882658,-0.0110982675,-0.0041970387,0.0053904653,-0.0011666749,-0.0019650967,0.0027420376,-0.001270791,0.0024324565,0.0035290115,0.0037116446,0.004996314,-0.004414194,-0.0012055018,-0.002880255,-0.00021621869,-0.00053597876,-0.0017647389,0.004955787,0.0051965225,-0.001191021,-0.004399416,-0.0040427917,-0.0022974252,-0.00044446083,0.00045811766,-0.000938419,0.00024054863,-0.0064802635,0.0030394592,0.0010154078,-0.0030446013,-0.00039208695,-0.002506854,0.0021859112,0.0010823758,-0.0015830467,0.0035024842,-0.00060569914,-0.002599939,-0.0055777864,-0.0021488725,0.004184302,-0.00017692079,-0.0025814811,-0.00156502,-0.0033682554,-0.001458165,0.0005882597,-0.002817118,0.0026839355,-0.0010882752,0.0008955853,-0.00050665584
0081af50,0.9912534,-0.12698404,-0.01616782,-0.0035511064,0.0064265784,-0.0049601328,-0.015115014,-0.009831883,-0.004303162,-0.0076366714,-0.0051487354,-0.0034946236,0.00035097447,-0.0044464427,-0.0006148807,0.0057583353,-0.0028995695,-0.003368341,0.0010263236,-0.0013110535,-0.0011098237,-0.0050775595,0.0062944493,-0.00028651065,0.0027227483,0.0040756552,0.0006562844,-0.0028308367,-0.0020712642,-6.570547e-05,0.0044191745,-0.00023564113,-0.0002198938,0.0016900382,0.0009944156,0.0074874796,-0.0048271185,0.0037103884,0.0010453775,0.003090884,-0.0019521111,-0.00031879087,0.001991996,0.00037533315,-0.0005301924,-0.0007517812,-0.00015140009,0.0009642595,-0.0004353226,-0.00060322264,-0.0014182251,-2.727273e-05,0.0015218575,-0.00040279026,-0.00038563547,0.00047849992,-0.00030689282,0.0004454418,-0.00086082116,0.0020631524,-0.00024832494,0.0008664113,-0.0010686415,0.0015338138
0093f095,0.999505,0.016198777,-0.009129861,-0.004558946,-0.01793927,-0.008348379,6.724251e-05,-0.001818368,-0.0010216191,-0.009391577,0.0039325017,-0.001182577,3.6415455e-05,0.0018351221,-0.0027610606,0.0034361046,0.0011396748,-0.0010346025,-0.0029033744,0.00093572953,-0.0009656743,0.0016953094,-0.003983459,-0.00018764171,-0.00027567812,-0.0011269541,-0.00034441816,0.0014566598,-0.0019494478,0.00021778984,0.0010337501,0.002963003,0.00024813818,0.0005353964,-0.00015055385,-0.0014701161,-0.0027107724,-0.00056960166,-0.0002599187,0.0018324938,0.0013188996,0.0006363341,0.00057964114,0.0001742325,0.0001453104,-0.0002610735,-0.00016171591,-0.0015439607,-0.00048898975,-0.00079350604,-0.00043111207,-0.0012006967,7.607069e-06,-0.00075459137,-0.00060213613,-0.00017915407,0.00027795622,0.00053006946,0.00080083095,3.3392473e-05,-0.00048125838,0.0007435206,-0.00035957614,0.000997268
009e23ab,0.9990136,-0.021401586,0.0075121038,-0.0029779514,-0.027985983,0.0022467875,-0.002653152,0.015020983,-0.00619317,0.0031375485,-0.0073947296,-0.0011425111,0.0041331802,-0.0041328464,0.0023867327,-0.004419156,0.0026277918,-0.0005352496,0.000118284064,-0.0016549671,0.0031095715,0.0033113686,-0.0022466388,-0.001094655,-0.0008729776,-0.0005990435,-0.0008474718,-0.000115405644,-0.00021660663,0.002018922,0.0011622863,0.0051240013,0.00013468954,0.00055168814,-0.0006817835,-0.0007506179,0.00012018134,-0.000736774,-0.0005588375,0.00097587635,-9.5228796e-05,0.00017329078,4.1607538e-05,9.486873e-06,0.0011383599,-0.0013362409,0.00010938436,0.000559853,0.0010476188,-0.001056769,-0.0042214566,-0.00032083888,-0.0024384626,0.0002719257,0.0022702084,0.00041862196,0.0003001152,-0.0024378009,0.0010529183,-0.0019414368,0.0010325641,-0.0016104934,0.00087865035,0.0011566596
00e048f1,0.99876666,8.0398204e-05,-0.0051219384,-0.004826893,-0.022983005,-0.023317715,0.024443867,0.0022829461,0.0035635082,-0.024003139,-0.002982966,-0.0036875892,0.0062841,-0.0015083067,0.000115044444,0.0017593912,0.0014272098,0.0010396653,-0.004447944,-0.00019594975,0.0016784142,3.709603e-05,0.004347455,-0.0008512639,6.5718996e-05,1.0612127e-05,3.878487e-05,0.00041701438,0.0015941643,0.0013285831,-0.0015212371,-1.585235e-05,0.00010790948,-0.00049807114,-0.00018182109,-0.00094468065,0.0018238892,0.0003543756,0.0014785533,-0.0012068836,-3.9286006e-06,3.4349054e-05,0.00036868086,-0.000107700755,-0.0003634194,-0.00067894673,0.0003783528,-0.0014431939,-6.5206295e-05,0.00022948168,0.00032620356,-0.0007877814,0.0008188753,0.00043397758,-0.000735722,0.0008207453,-0.00023654538,0.0006069267,0.0004256833,0.00033002952,6.201973e-05,0.0001813199,0.0007829049,-0.0010817923
00e1f05a,0.9993686,-0.016694114,0.013747986,0.002380736,0.012531476,0.0073451614,-0.007917744,-0.01395989,7.25739e-05,0.002843216,0.00050457683,-0.0026061474,-0.002495685,0.004074176,-0.0027474957,0.0019149332,0.00012426346,0.00022140337,-0.0029215482,0.0036037066,-0.0014954397,-0.0036138762,0.003146241,3.100451e-05,0.0009852881,-0.0029379737,-0.0018481632,-0.0007752274,-0.0014890516,-0.001687791,0.0010799821,0.0003831113,0.0006065053,0.0008939283,0.0020535423,-0.0019082568,-7.359106e-05,-0.0019110085,0.0013480688,-0.00092311244,0.00023691125,-0.0009833403,-0.0027502703,-0.0006029747,0.0005177042,-0.0005676409,-0.002949145,-0.0011898559,-0.002967718,0.00033892388,0.0024570057,-0.003860208,0.0019088612,0.001430608,-0.00045618138,-0.00022265065,-0.00037095667,0.00015309971,0.00036064917,0.0014035803,0.0005498441,-0.00014363974,-0.0006436103,0.00014732852
00e713bd,0.9991467,0.014994945,-0.011587354,-0.0035859207,-0.010429111,4.8056063e-07,-0.017997384,0.010018659,-0.006443346,0.003311257,0.00974868,0.00351287,0.0015504466,-0.0014984717,0.0011567853,-0.0047756843,0.006813355,-0.0039934306,-0.0008554838,0.007460809,-0.003726912,-0.0041697235,-0.0015634061,-0.0007011106,-0.0006039281,-0.0022074464,-0.0015455207,-0.0008426614,-0.0016521455,-0.0007197001,0.0014780908,-0.00082900986,0.00083885586,0.000701201,-0.0015103975,-0.0020314788,-0.0009885987,0.0009395479,-0.0015110034,-0.0017166854,0.0012148981,0.00071654795,-3.6582507e-05,-0.0007226053,-0.00013395133,0.0011912228,-0.00038286453,0.0016766632,-0.00028013322,-0.00039656597,0.0006447052,-0.00019855225,0.0024675825,-0.00074877543,-0.002247695,-0.0008104689,-0.0012492348,-0.00529717,4.264546e-05,-0.00016913771,-0.0037974531,-0.0033361092,0.00074605236,-0.004041252
00f0737e,0.9969213,0.034834806,-0.0102103455,-0.008277441,-0.045387868,-0.009253707,0.00840757,-0.007070237,-0.0012312955,0.0015869598,-0.0005721646,-0.0033483806,0.0025256579,0.0011039557,0.006358817,0.0065024495,0.0019253546,-0.0016252358,-0.0021814625,0.0049556405,0.006770978,0.006485488,0.00010485584,0.0022778506,-0.0037719086,0.0007920577,-0.00075699843,0.0010176296,0.006286586,0.00484704,-0.0033599173,-0.00443597,-0.004651352,-0.0050831204,0.000809304,0.0025337592,-0.0036571817,-0.0022134844,-0.0019002926,-0.0008204911,0.0010421424,0.0077807433,-0.009287757,-0.0013236346,-0.0001577902,0.0062511167,0.0014485952,-0.004096925,0.017606752,0.0015248382,0.003603675,0.0010989063,0.0047988216,0.0002144934,-0.004547201,0.0035348684,0.0011766576,0.014081438,0.0027578685,-0.0067332406,-0.0045126006,0.003292542,0.00053449604,1.5045956e-05
00f8e84c,0.9962636,-0.08201266,0.009570661,3.703567e-05,-0.002477564,0.011346529,-0.016679805,0.0031317181,-0.0041747084,-0.0015401234,-6.744459e-05,-0.004509342,-0.0020414768,0.002121722,-0.001653887,-0.0003316466,0.00020635944,9.9514946e-05,-0.0020272604,0.0022984694,0.00080437097,0.00042695116,-0.001471774,-0.00026713032,2.9161161e-05,-0.0010155882,-0.0005668713,0.0006906795,-0.0002639755,0.0007976877,0.00073640415,0.0011320282,-0.0002304814,8.601487e-05,-0.00043765447,-0.00045045203,-0.00087526336,-0.0011773166,0.00041227022,0.0010092931,0.0008682162,0.0012584118,2.9207084e-05,0.0017335226,0.0038116754,0.0014314587,0.0005113544,-0.0035931163,-0.0015156345,0.005249936,-0.0032300348,-0.0015239943,-0.00088604103,-0.00077439635,-0.0011655034,0.00080691924,0.0036654917,-0.0010193877,0.00043234107,0.0004616351,-0.00046418913,-0.0015461209,0.0018562404,0.001152518
00fc9a6a,0.9968279,0.035295244,0.042414896,0.004996612,-0.009430525,0.020775178,0.0025326184,0.009108233,0.0033697472,0.0003404538,0.009457598,-0.0027881055,-0.010436974,0.009102281,-0.0035761478,-0.002909148,-0.007953954,0.005039587,0.003662795,0.0036774767,0.0018475867,-0.0020934572,-0.001434703,0.0022203273,0.013047726,0.0071210717,0.006242795,-0.0018958746,-0.0005748729,0.00020696268,0.0010594289,-0.0032930681,-0.005990436,0.009032673,-0.010954967,0.0018181002,-0.00058422936,0.004590554,-0.008524976,-0.010234968,-0.0031589847,0.00079370174,0.0006477304,-0.0011793606,0.0020761918,0.0021731488,-0.0020313708,0.008682753,0.00010350204,0.0024986304,0.0014721012,-0.0021554914,0.008477438,0.0021375401,0.00065566815,-0.00042228543,-0.003946263,-0.00044597185,-0.0018198981,0.0017526018,0.004328616,0.004107925,0.0012879659,0.0016788442
0144e4d5,0.9791112,-0.04811686,-0.04018758,-0.0003331784,-0.001843882,0.05952129,0.05975561,-0.0062549566,0.005078501,-0.0058816164,-0.0074886014,0.02489795,-0.024575705,-0.0016058284,0.001825012,-0.0030273634,-0.046157494,-0.024562657,0.026460057,0.03442387,-0.0056946175,0.047482587,0.0071072103,-0.021590753,-0.03245129,0.0073239086,-0.02892049,-0.0014743159,0.0033988466,0.03858014,-0.02114933,-0.026139181,0.060643304,0.09496189,0.0041757654,-0.00793058,0.010711484,0.030979853,0.014712904,0.02104139,0.0045389715,0.011471887,-0.018241977,0.014602867,-0.0016811513,-0.008376647,0.004620842,0.0020902262,-0.009610028,-0.0040172143,-0.00037681908,-0.007574489,-0.00022251472,-0.00996817,-0.010700026,0.011913484,0.005576159,-0.005953704,-0.019781094,-0.009985036,0.00031226221,0.011236067,-0.0063277627,-0.004638347
014e7ae9,0.99934304,0.018365575,0.012106089,0.0039972626,0.013383428,0.0040894733,-0.0070302454,0.010452315,-0.0013950429,-0.006604122,0.0034674315,0.0062349336,0.0038576894,-0.0011367674,5.0067167e-05,0.0025276712,-0.0011202535,0.0025738196,-0.0055156103,0.0043847393,-0.0014167996,-0.005294817,0.004744067,-0.0010076754,0.00069877686,-0.0061504543,-0.002675944,-0.00076175324,0.00057353213,0.0020462924,0.0013435748,-0.0008596018,0.0016551971,-0.0002377748,-1.8183902e-05,-0.0011724114,-0.00022183919,-0.002168146,5.6416426e-05,-0.00079582684,0.00034594254,-0.0009714906,-0.001979649,-0.0015974531,0.00060761016,-0.000383511,0.0015088507,-0.00028149178,0.00034191925,0.0034160467,-0.0038893148,0.0012028749,-0.0029566186,0.002527297,-0.0017794691,-0.00026294854,-0.00039812617,0.0002505112,-0.002282138,0.0009314969,6.962889e-05,0.0003351846,-0.00043300423,-0.00019455116
015aa732,0.9965229,-0.065197915,0.022302972,-0.0022346587,-0.037689466,0.014639815,-0.0061313324,0.011262926,-0.0021131304,-0.0073917164,0.0026435035,-0.0033949795,0.0011480106,0.0014796479,-0.00090829446,-0.0009698137,0.0022500285,0.0011251325,-0.0037798032,0.008646698,0.00015196693,-0.004216187,0.0010528197,-0.0011500819,-0.000995027,-0.0012641419,-0.0008788357,-0.0020974372,0.0031335994,-0.00031360687,-0.003090113,0.0007384665,-0.0002790629,-0.00023466331,-0.0052962536,0.0015080032,0.0029399986,-0.0006307805,0.0034682944,0.0031028602,-0.00241722,-0.0009834694,0.0005465566,-0.0008075391,-0.0004044647,0.0007449946,-0.00020477305,0.0024618066,-0.00013237321,-0.0011246435,-0.00093466294,0.00036092813,0.0004017454,0.00013667239,0.00041501076,-0.00075204944,-0.0022493484,4.3581033e-05,0.000786926,-0.001974101,-1.9827901e-05,-0.0028010972,-0.00018135367,0.0016682455
0178a105,0.9979839,-0.021831743,-0.0036118121,0.0035657918,0.03912219,-0.022413852,0.021188103,0.013113118,-0.0034740502,0.0075029535,0.011535113,-0.008504059,-0.0005016053,-0.0047659883,0.0018857643,0.009693785,-0.0044723745,-0.0021805097,0.0043112235,0.0016430314,0.0003412442,-0.0016614108,-0.0029237566,-0.0024304637,0.0008911395,-0.0017769971,0.0017764888,0.009190367,-0.0011074047,0.0035853037,-0.0020614576,0.0017019867,0.00019993691,-0.0011228548,-0.00033008843,-0.002250185,0.002609903,0.00018966426,-0.00030733467,0.0006634664,-0.0025372116,0.00086805265,0.002831349,0.0020875316,-0.0019422888,-2.418075e-05,-0.0011547742,0.004825344,0.00033818197,-0.00021061131,0.0015515515,0.004370447,-0.0014748151,-0.00077006157,-0.0020062407,-0.0020248848,0.0006381154,-0.00084483845,0.00049984414,0.0029385749,0.0015387685,0.002676573,-0.0008594414,-0.0018479306
0182aa1c,0.99926853,-0.034534622,0.0045242775,0.00032202204,0.006583529,-0.0005650869,-0.005384303,-0.004403433,-0.0013192468,-0.0033155472,-0.006071643,-0.00381912,0.0015495514,-0.000395804,0.0005668447,-0.0029588563,0.0033889096,-0.0024381576,-0.00011639351,0.00035587218,0.00033726465,0.0014918118,-0.003165145,0.0002952162,-0.0015356488,0.0005313168,-0.0011410624,-0.0023433703,-0.0011531512,-0.0021344551,0.0006438178,-0.004092982,-0.00034261987,-0.0006873394,-0.0011524443,-0.00030228417,0.00028652456,0.0001468093,-0.00060602644,0.0005724613,-0.00048840104,0.0003404098,-5.7331898e-05,0.0005970587,-0.00014991916,0.00015899533,0.00039267732,0.0015430179,0.0005406358,-0.00023663073,-0.00028280154,0.0009598069,-0.0004678807,-0.00043635396,-0.000815692,-0.00021600773,0.00055151264,-0.0006435196,7.9659185e-05,0.0005762915,0.0005401471,-0.00010803802,0.00015442059,-0.00036350213
0190ff4c,0.997507,-0.06801212,0.00029182556,0.00031725678,0.012767667,-0.004728579,-0.0028408638,-0.0027007833,-0.0013911134,-0.006957172,-0.0036231966,-0.0046014097,0.000339823,0.00086089026,-0.00076496677,0.0017990518,-0.0006977427,0.00059086597,-0.0032973797,0.002135671,0.000550644,0.00087022124,-0.0040028533,-0.00026764447,-0.0005822613,-0.0004039374,-0.0005995255,-9.086849e-06,-0.001713949,-0.0011312026,0.0007587763,0.0001415784,-0.0002440614,-0.00014836276,-0.0003632029,-0.00053418643,-0.000489244,-3.877259e-05,-0.00010882343,0.0012965911,2.9706396e-05,0.00086373114,0.00044104195,0.0009144513,-0.0003365857,-0.00053365965,-0.00025098736,-0.0005021879,-0.00035979817,-0.0008383108,-0.00090335443,0.00013893445,-0.00038856542,-0.000412019,-0.0005070563,-0.00069171627,8.617457e-05,0.00023933071,0.0004230367,-0.00048859895,-0.00039272418,-0.00021394901,0.00036506078,0.00073337246
01963e20,0.9939845,0.104763195,-0.0017841341,-0.002935949,-0.018441971,-0.00022259382,-0.0064354483,-0.0026877474,-0.0028843228,0.003389542,-0.0028613044,-0.0014344843,-0.00110356,0.001779762,-0.0039764214,0.0045639705,0.00070830615,-0.0020446114,0.000981834,-0.005244952,-0.0030464712,-0.0037257168,0.0053156614,0.0005900477,0.003908537,-0.0011527793,0.000101425365,-0.0031335724,0.0009728794,-0.0056274203,-0.0021921562,0.004556254,0.0033000952,0.0044082273,0.0024380062,0.011944312,-0.00839804,0.006011767,-0.0018433527,-0.0013442384,-0.00078462204,0.0016462541,0.0038415417,0.00021042844,-0.00035074606,0.0011172483,0.0015880513,0.0013324186,0.00070631,-0.0008472474,0.0010289199,0.00018399746,-0.0006510465,0.0002861812,-0.0008474982,-0.00015903133,-0.00071696565,0.00040247198,0.0004108772,4.329086e-05,-0.0006893981,-0.0006830253,-0.0010959747,-0.00075402117
019737b6,0.9996054,-0.020527504,0.002218578,-0.0016672898,-0.005589706,0.0022425193,-0.005191907,-0.008088337,-0.001231957,0.0010699341,0.0043276884,-0.004457658,-0.0028253803,-0.0013504568,-0.0007205132,0.0038830207,-0.006199092,-0.00018873082,0.0042453,-0.0025578898,-0.0015411305,-0.004405974,-0.00023764822,-5.0816772e-05,-2.9433642e-05,-0.0007669013,-0.0011336042,-0.0012910747,-0.0033922838,-0.0019615828,0.00085618696,-0.0017964896,0.0010302886,-0.0006918692,-0.0004661077,-0.002818304,0.0020734456,-0.0021073613,0.0007881066,0.0002638077,0.000286914,-0.0008440069,-0.0016812666,-0.00077848305,0.0005840629,-0.0012568239,0.0009702195,-0.0013629389,0.0002842367,-0.0005842479,-0.00074372103,0.0003278987,-0.0014405143,0.00013665872,-0.0005791702,0.00010389125,0.0014285663,0.00025994194,0.00022117552,0.0012957436,-0.000756654,0.0010784611,0.00035301218,0.0002071502
01992d32,0.9971376,-0.071322314,0.0032126657,-0.00052823947,0.0017563563,-0.0027002643,-0.0019254033,0.0049775946,-0.0026248198,0.0016006469,0.016367016,-0.0037340813,-0.0032312141,0.004439226,-0.0030992415,-0.00016332076,0.001559586,0.001464677,-0.0034054946,-0.0025018603,-0.0014417741,-0.0018435599,0.004412061,-0.0006618996,0.0017046981,-0.0003651409,-0.0003391081,-0.0011936591,0.0014274315,-0.0017328521,-0.0015997542,0.00037482512,0.0040692654,-0.0016050178,0.0006441082,-0.0027210026,0.0011688939,0.0017454574,-0.0011433722,-0.00033390088,-0.0012056006,0.0018519332,0.0019190811,0.0015808155,-0.0011158386,-0.00042878545,-0.00027269995,0.0020284983,0.0011389535,0.0026452339,-0.00094155746,-0.0024264501,0.0032450028,-0.0022373574,-0.0017546918,0.0008204953,0.003646014,-5.095493e-05,0.002362588,0.0014638308,-0.0013137198,0.0010744346,0.0021054635,8.508997e-05
01c359fc,0.99364674,-0.10505083,0.022930305,0.0041092895,0.015769167,0.0058140764,0.0030886694,0.0007785359,-0.0005024148,-0.005772634,-0.008042812,-0.00733272,0.0023091848,0.0017170808,-0.001204738,0.003792378,-0.00065413147,0.0019213579,-0.005661631,0.00089444616,0.004872455,0.0006854956,0.00725924,-0.001808118,0.0013654323,-0.0016140125,-0.00027104522,0.00039576928,0.005501224,0.0058594313,-0.0019231669,-0.00048207014,-0.0007712313,-0.0005502747,-0.00038771183,3.4781606e-05,0.0020688614,-0.002185719,-2.4491925e-05,-0.0008761904,-0.0006609549,9.88157e-05,0.001090184,0.0048541757,0.0070247445,0.0033514164,0.004415111,-0.0015194397,-0.0011722076,-0.0015642719,0.00040764952,0.0021227559,-0.00011901992,-0.00092458137,-0.00032623913,-0.0028764764,0.00079768954,-0.0011014967,-0.00092881074,0.00035240888,-0.0022264263,0.000921861,-0.00054010144,-0.0008520545
01d0ba4b,0.99737626,0.026336165,-0.029009081,-0.011797094,-0.05374797,-0.015851881,0.010272214,0.011999257,-0.006057942,-0.0048891986,-0.0019909714,-0.0022027702,0.004311607,-0.0011044272,-0.00041035883,-0.00093734235,0.0007376542,0.00014929588,-0.004556173,-0.00029689973,0.0013351385,0.0007732215,-0.0001139846,-0.0007657357,-0.0010806447,0.000366451,-0.00021998247,0.001047758,-5.2134703e-05,-0.00016448203,-0.0006264138,0.0024179742,-0.000481497,-0.0012556012,-0.0005790396,-0.0015605204,0.0005510055,0.004178775,0.002106552,6.0048726e-05,-0.0004490628,0.0015202789,-0.0007202404,-0.0014674587,0.00029467262,-0.00027740392,-3.251757e-05,0.00054236245,0.0002685592,0.0005463474,0.001290413,-0.0005108302,0.00079859723,-0.0003509819,-0.0013892235,0.00063779356,-0.00025599665,0.0003019311,-0.0002477037,0.00030174837,-0.00018110355,0.00066128664,0.0001740632,0.00023307012
01d602a7,0.9992745,-0.012873641,0.01302383,-0.0016666454,-0.018317075,0.006324164,-0.0009285358,-0.012610967,0.0011010828,0.0009424866,0.0149378,-0.0014774395,0.00026491488,-0.0012442896,0.0021111357,-0.00879955,0.0064852936,-0.0055271587,0.0045355633,-0.0032565622,0.0017506676,0.0018331921,-8.5623746e-05,-0.00020283312,-0.0018581236,-0.0016015536,-0.0007274159,0.0028653992,-0.00095988536,0.00047724825,0.0015731684,0.0004601186,0.0009542343,-0.0004176517,-0.0024890406,-0.0018493385,-0.0012223946,-0.00021818916,-0.0037615353,0.0019374179,-0.0014713373,-0.00024505248,-0.0006684872,-0.0004570269,0.0006712491,-0.00046682195,0.00040945536,0.0006295902,0.00046629785,-0.0022630529,-0.0026451228,-0.00086372584,0.0013962281,0.0010615807,-0.0027866527,-5.3240627e-05,-0.0016022323,-0.00055186247,0.0001905052,0.00034750928,0.001858561,0.00086072483,0.00015932326,-0.0003522799
0249a095,0.9968252,-0.071363635,0.0085442355,0.001362883,0.008129315,0.010195692,-0.01746424,0.0047271303,-0.0016979951,-0.008772948,0.0019116098,0.008390429,-0.0072038393,0.006238951,-0.006549273,-0.001260299,0.0040042405,-0.0043839,0.00155273,-0.000862316,-0.0024443641,0.0025814031,0.0004875681,0.0029605702,0.011773559,-0.0030229592,0.0020026534,-0.002197674,0.00054982613,0.0017463191,0.0012691356,-0.00334075,0.0016018455,0.0010059217,-0.00046989415,-0.0041174414,-0.0039760782,-0.0013405306,0.0010866479,0.00015073351,0.00078002224,-0.0010723482,0.002742278,-0.00019935246,0.00044583515,0.0007073813,0.00048928405,0.0019445954,0.0015311375,-0.0010207338,0.0005082613,-0.00012857623,-0.0010370393,-0.0017524685,-0.00014840986,-0.0024678735,0.0020162126,-0.0012994632,0.00016272225,-2.0848884e-05,3.6836405e-05,-0.0013835399,-0.0024009543,-0.00027264163
0262bf61,0.9985629,0.03804578,0.023908254,0.0027082276,-0.003355663,0.008183808,0.0016463839,0.0041665714,-0.0013971425,0.0070244013,0.0019329425,0.0011890873,0.00043950693,0.0020465306,-0.0018756562,0.0011855109,0.0033095796,-0.0006060131,-0.0013517402,5.946672e-05,-0.0008980538,0.0018760983,0.005952967,0.0005707932,0.0019243277,0.0011471378,0.00014620903,-0.0024302304,0.0044225324,-0.00249897,-0.0074308477,0.00025790726,0.0025907808,-0.0042507257,0.00022606594,-0.0008237922,-0.0026139675,-0.0017833995,0.006173079,0.0015325727,-0.0003118745,0.0018863961,-0.0023568496,0.003029452,-0.0006859779,-0.00432399,-0.0037733077,-0.0010982599,-0.0047273897,-0.00056052464,-0.0018768137,0.0019788279,0.0021519721,0.0009315362,0.001201895,-0.001067005,-0.0020192442,-0.00038487103,0.0013636135,-0.0003856488,0.0007938508,-0.000622636,0.0006054186,0.0006800094
026be946,0.9963335,-0.079158194,-0.002623188,-0.0013226102,0.0050283046,-0.0031936902,-0.0057340753,-0.0047958526,-0.0013258897,0.002324532,0.018210443,0.0011496473,-0.004384781,0.0015957941,0.00055496616,-0.010624994,0.007796247,-0.005783811,0.004078216,-0.004175531,-0.0052749426,-0.000526316,-0.00030239415,-0.0009339373,-0.0019118908,8.520609e-05,-0.00031058287,0.0005928511,-0.001281968,-0.0027364509,0.0013925977,-0.001157369,-0.00037763212,0.0014567075,-0.00033290894,0.0011831843,0.0036672186,-0.00030168996,0.0032248008,-0.0032005399,-0.0012500385,-0.00059358473,2.259938e-05,-0.0009001627,6.8024674e-05,-0.00016236925,-0.0001526403,0.0024852827,0.002100147,0.0023964974,-0.001335947,-0.0012337004,0.0013827054,-0.002099684,-0.0023647211,0.00018842565,0.004414139,-0.0007954682,0.0018525909,0.00054719247,0.00021785556,0.0010984424,0.0039322823,0.0006229586
0294b4f5,0.98567325,0.12696075,-0.079764135,-0.009272354,0.020807136,0.056802202,0.02823194,-0.01061921,0.00078152784,-0.01199652,0.0020866778,-0.0043983716,-0.000874072,-0.011221994,0.00092989206,0.0038598753,0.011906953,0.009528239,0.0018734119,-0.0036779258,0.0011106761,-0.0024679187,0.0016624705,-0.0031156058,0.002286873,3.152841e-05,-0.0012642844,-0.0005956099,-0.0022099821,-0.0011000556,0.0006027507,-0.004718759,0.0035192424,0.006558787,0.0021675755,0.003284672,0.004893656,-0.0149974525,-0.005235752,-0.00076079177,-0.0015273626,0.005235527,0.005878972,0.0003330327,-0.0030010522,-0.0015836562,-0.000101201265,-0.00018590894,-0.0035614679,0.000117702206,-0.00038693013,-0.00089429755,0.0007350527,-0.00046382766,-4.937104e-05,0.00048781442,-0.0008104203,-1.4256576e-05,-0.00049121905,0.00016166006,-0.0013537514,-0.0008957335,-3.949007e-05,0.0016562255
02a41d1a,0.99733824,0.060463525,0.015606126,0.0016632386,-0.0052900473,0.005797641,-0.0015542831,0.016817538,-0.0027379163,0.0065448843,-0.0033481822,0.0059337188,-0.0063565723,0.0040401993,-0.0020680057,-0.0067859134,0.0067677083,-0.0054459027,0.006776558,-0.0042904024,-0.010801794,0.0019062218,-0.001744593,-0.00039563864,-0.0031085818,-0.00026723943,0.0010191661,0.0002017498,0.001465498,0.0051191845,0.0019204549,0.004310842,0.0018327709,0.0018086,-0.0010651775,-0.0018686154,-0.0033333204,-0.0047572344,-0.0010712077,-0.0014807341,0.002051388,-0.0036321066,-0.00087003474,-0.0036064254,0.0027199509,0.0011979006,0.0005942601,0.00067251077,0.0010350394,-0.0018460145,0.0005651306,-0.0001864764,-0.00010654736,-0.00042434226,0.0007822991,-0.00012679561,-0.00053378794,-0.00070229796,-0.0005995876,0.0041460306,-0.0001669429,0.0009103221,-0.0025279648,0.00022286896
02cf6a52,0.9995956,-0.0019746711,0.002476448,-0.0015294283,-0.007251731,0.0012494135,-0.0068366113,-0.0044453735,-0.001647843,-0.007842353,0.0053707357,0.007199826,0.0063700997,-0.005579676,0.0016843255,-0.0044881613,0.01071485,-0.009278003,0.0016415592,-0.0063924766,0.0011377647,0.0053792214,0.0024177202,0.0004429505,-7.889986e-05,-0.0021386181,-0.0005598303,-0.0020753033,0.002036864,0.00493736,-0.00020825617,0.0030856938,0.0008292894,-0.00048543033,-0.00073598605,-0.00325858,-0.002078295,-0.00035019018,-8.472458e-05,0.0012542501,0.0010218051,-0.0006139997,0.0019040538,0.0001646413,0.00073070923,-0.0010333661,0.0011471189,0.00091347285,0.0012684811,-0.0022205946,-0.002377598,-0.0012495369,-0.0011705635,0.0009699946,-0.0003320019,-0.00013696936,0.00035679687,-0.0014445233,0.0005480145,0.003266742,0.00061367184,0.00047271687,-0.001300923,0.0010154481
02d3c9fc,0.99511325,0.09260231,-0.004217125,-0.0039936337,-0.022013688,-0.008465587,0.008134674,-0.0014533561,0.0029746382,-0.0027064069,0.00820479,0.0015086097,-0.0090322625,0.0072066984,-0.0023547697,-0.004762915,-0.0028507777,0.0027078707,0.0037177186,-0.0015246129,-0.010240751,-0.001889663,-0.0017162096,-0.0008635845,-0.006137159,0.0003514854,0.0005738351,0.00060463557,0.0011353595,0.0025608903,-0.0008080283,0.0011917959,0.00012537302,-0.0004676932,-0.0001801782,-0.00080341595,-0.002644424,-0.0007514586,0.0024130985,-0.0031455085,-0.0027680043,-0.0010517432,0.0008115869,-0.0004522643,-0.00019891604,-0.00038983385,0.001028982,-0.001989235,0.0011268416,-0.0017440441,0.0003479196,0.0012760691,-0.0027304185,0.00042629061,0.0007835372,0.0001051234,2.4338056e-05,0.0001995,0.00019413861,0.0010867419,-0.0007614406,0.0003432535,-0.0003531587,-0.000461302
02e86b6a,0.99885786,0.0372145,0.011795194,-0.00040784432,-0.013073837,0.0066552353,-0.0017726035,0.0057833595,-0.00058488274,-0.0053878548,0.005021386,-0.0074047637,-0.003465566,-0.00124489,-0.0016476902,0.0058211735,-0.0066283564,-0.0017349137,0.007763184,-0.0026176998,-0.0027430293,-0.005031152,-0.0008636764,-0.00025236479,0.00017410328,-0.0008361011,-0.0008663505,-0.00030646558,-0.0037445512,-0.0004998539,0.0010386807,-0.0020260818,0.0022780749,-0.00091875804,-0.0021631662,-0.0036554406,0.0031596487,-0.00092919305,-0.00011519511,-0.000145819,-0.0004742247,-0.00096239924,-0.0014701744,-0.0016022588,-0.00038083302,0.0025324184,-0.00032906278,0.00071765255,-0.0019813152,0.00012581212,-0.00051018683,-0.0006897745,0.0033660082,-0.0007568191,0.0007756115,0.0011564194,-0.00070267916,0.0007227093,0.0004300395,0.0016487326,0.0008245355,0.00086882396,-0.0007966449,0.0020189031
031c0c58,0.9985577,0.0361586,0.01789709,0.0043984023,0.019339629,0.008536409,-0.004735849,-0.004163857,0.0015402169,-0.010482107,-0.0011874904,-0.004285481,0.001121466,-0.005911527,0.0017398032,0.0009713623,7.810268e-05,-0.008207694,0.011168,-0.004387314,-0.0020448165,-0.0020145199,-0.0009829578,0.0008466944,-0.00067515334,4.207366e-05,-0.000889897,-0.0028089052,-0.0034101033,-0.0009458222,0.0011648575,-0.0039844275,0.00120763,-0.00071476906,-0.001321546,-0.0021193794,0.0032738403,-0.002907282,-0.0013957395,-0.0009942532,0.0004722025,-0.003134101,-0.0024445262,-0.0021112561,0.0024996896,-0.002795961,0.00020663197,0.0009982534,0.0010793452,0.004374773,0.0058879685,0.002949862,0.001647021,-0.004407217,-0.00038648615,-0.0006326704,-0.0018274531,-0.0012575116,-0.00036142487,0.0017501364,0.0021656072,-0.0010463796,-0.0017820451,-3.6445832e-05
034d61db,0.99743176,0.06786652,-0.0041265874,-0.0026842188,-0.012466454,0.00030332798,-0.010371192,-0.0024272257,-0.0027327067,-0.0024322348,-0.0052244966,-0.00115386,0.0015335104,-0.00023401612,-0.0005532139,0.0014927146,-0.0016312976,0.0012522996,-0.0016792625,0.0012508775,0.0014195354,0.002243095,-0.0030869741,0.00055144366,-0.0013220026,0.004555393,0.0006603374,0.0010680303,-0.0025279694,0.0007778073,0.0046722693,0.0008848697,0.0028285072,-0.001858651,0.0020505341,0.0028368135,-0.00023306822,-0.00030425214,0.00033260748,0.0025835098,0.0013376151,-0.0010260437,0.0004278411,-0.0010924416,0.0009990362,6.469354e-05,-0.00025505436,-0.00073439965,0.0009336636,0.0009034952,0.0029386007,-0.0021651706,-0.00047947964,0.0014055817,-0.0018689614,0.0009057732,-0.00051774894,0.00013887901,-0.0005284461,-0.0010554107,0.0006063109,-0.0019764593,-0.00012149722,-0.00017351637
035f09fc,0.99850917,0.04523637,0.008465416,0.0015753881,0.007149232,-0.008163656,0.008482569,0.0035855707,-0.0043289247,0.011819886,-0.008360211,-0.002521992,0.0047396007,-0.0027307488,0.0014568287,-0.004966448,0.010757949,-0.005922798,0.0019919798,-0.0038017298,0.0015109024,0.0019173186,0.0032775484,1.841609e-05,2.1468813e-05,-4.189514e-05,-0.0004821068,-0.0017978492,0.0018893002,0.0025767467,0.0003267468,-0.00010367462,0.0011779972,-9.729735e-05,-0.0009382012,-0.00093046593,0.003401133,-0.0001575815,-0.0008844169,-0.0016902492,-0.0004004437,-0.0015959814,-0.00022742612,-0.0014885075,0.0008446288,-0.00016080668,-0.0009467886,-0.0029951897,0.00079003617,0.0017266868,0.003032091,-0.002328382,-0.00067791715,0.002184859,0.0012653857,0.0026136728,-0.00041292337,0.002056268,-0.0009868632,-0.0029594423,-0.001140019,-0.0016617362,0.00016520217,0.00040112305
036cfd42,0.9971223,-0.06599527,0.008427982,-0.0030402977,-0.026134668,0.009895509,-0.014113734,0.0054740715,-0.00400401,-0.006770225,-0.010407477,-0.0038102106,0.0013918693,0.0005910892,-0.00175233,0.0003107932,0.00032332877,0.0009492989,-0.0033307336,0.0014819443,0.001791013,0.0011439549,0.0010779636,0.00024714367,-0.00012745683,0.0034514286,0.00056587445,-0.00070136896,0.0012809056,-0.001430895,-0.0019000375,-0.0005006019,0.0006978194,0.0001188632,-0.0010624288,-0.00038165445,0.0014623576,0.0010990833,-0.0022334717,-0.0027404388,0.0004683035,0.0005068056,-2.574571e-05,0.00014387887,-0.00014802057,-4.9158234e-06,0.00036200884,-0.00010476286,0.0004685329,-5.1311035e-05,-9.445033e-05,-0.00012674106,0.00024602393,0.00039469588,-0.0013301673,0.0005180607,-0.0005215829,7.2989475e-05,0.00021178975,0.0005063268,0.0010249091,0.0006633003,0.0008223544,-0.00011430041
0395b217,0.9988758,0.027511483,0.0034632431,0.004126283,0.032296825,-0.0032224627,-0.0052408157,0.008283982,-0.00265878,0.0046256757,-0.002372906,0.0037540111,-0.0035444421,0.0018772355,-0.00029547268,-0.004092525,0.0006145175,0.0001876633,0.0018998389,-0.0031989114,-0.006955904,-0.00074651587,-0.00015314644,-0.00025907357,-0.0012393097,-0.0010293094,9.804962e-05,-4.5141405e-05,-0.00041981964,0.000533679,0.00026319412,0.002080531,0.00014392502,6.6913584e-05,-0.00015189414,-0.002455921,-0.0021214553,-0.0021507004,0.0009729744,0.00081560743,0.0016203687,0.0010243035,0.00070093083,0.0007814988,-9.420971e-05,0.00077933964,0.00010457825,0.00028216557,0.00048196255,0.0036288227,-0.0017132421,-0.0006603359,-0.0022353376,0.0014110301,-0.002094839,-0.000121321995,-0.00023049608,-0.0006632064,-0.00024993258,-0.0011374166,0.0001949702,-0.0005918426,-0.0013477161,-8.5512154e-05
03971ddf,0.9976985,0.05729484,-0.014691425,-0.0024439883,0.00049542467,-0.011823892,-0.004605857,0.012128203,-0.008564864,0.013774388,0.0018302356,-0.0008475644,0.00319271,-0.0037379705,0.0030738988,-0.0059908885,0.007870049,-0.0049423613,0.0019529125,-0.0010729773,0.0009350252,0.0030725538,-0.0024098489,-0.00030983597,2.7923137e-05,0.004474537,0.0014923154,-0.00021931017,-0.00067008205,0.0016959361,-0.0002779649,0.0044552777,-0.0015517529,0.0027845725,-0.0023813108,-0.0025918318,0.0011644539,0.00026405943,-0.0031922164,-0.002984515,0.0007307738,0.0010228152,-0.00023650003,0.0001998361,0.00085098133,-0.0007174659,0.0003441078,-0.0008592944,-0.00024587466,-0.0016141294,-0.0007287211,-0.00034442262,0.0002541637,-8.073478e-05,-0.001068555,-0.0004087588,2.1944063e-05,-0.0011629607,0.00072647195,0.0003908747,-0.00035708954,-0.0006597135,-0.0016252563,-0.00029791144
040c429b,0.99704695,-0.054426067,0.01835288,0.0054762242,0.031111643,0.0013549363,0.0023214926,-0.00091122265,-0.0010202795,0.0053195553,0.013955222,0.013792084,0.010243518,-0.013216705,0.009676432,-0.009878842,0.0038008222,-0.0040050764,0.0037778735,-0.008759559,0.003135855,0.0076750433,-0.004104095,5.1860905e-05,-0.0021735008,0.0017169592,0.00015650484,-0.0038151338,-0.0010766275,0.0018466179,0.000103947554,-0.00025142665,-0.0016302688,-0.0014559308,-0.0028098524,-0.004120522,-0.0028175751,-0.00096619886,-0.005057389,0.00039704895,0.0009428188,5.0431663e-05,0.0004763426,0.0004462749,0.0016569205,-0.0038351405,0.0013253688,-0.000927812,0.0027843222,-0.00223258,-0.0010793668,-0.00543946,-0.0034329486,0.005651758,-0.0033573608,0.0011885057,0.0005825184,-0.0017557999,-0.0007780081,6.994562e-05,0.0012688945,-0.0018022105,0.0010136702,3.2099808e-05
0417d421,0.9978484,-0.03940681,0.011351855,-0.0052126036,-0.04601433,0.008165113,-0.0039511104,-0.00079817727,-0.001814343,-0.0031095596,-0.0025629029,-0.001520151,0.0022095845,-0.0003935867,-0.0011719782,0.0017645232,-0.0028959515,0.0038836915,-0.0035169367,-0.0013351801,0.004081172,0.0015998248,0.0029012163,-0.00064234895,-0.0022184995,-0.000588193,-0.00095909287,9.6081385e-05,0.002833222,0.001399507,-0.0007845762,-0.0018557913,-0.0012631773,-0.0009044264,-0.00047196922,0.0013279007,0.0022960268,0.0007472345,0.002120909,-0.0015183603,0.0003329397,-0.00038372818,0.0006369685,-0.0011492459,-0.0031086414,0.0018071317,0.00055344583,-0.002877214,-0.00037167972,-0.002316613,0.0014308231,0.0017893632,-0.001581415,0.0013192989,-0.001141162,-0.0015876672,0.0006637331,0.0015378807,-0.00034658867,0.0021067678,7.295845e-05,-0.0010388693,-0.00034382875,-0.0016469426
0432f117,0.99705535,0.072573796,-0.00053500343,-0.0026401358,-0.017192809,-0.0021707013,-0.0008282896,0.006370147,-0.0034162155,-5.4997254e-05,-0.0042902376,-0.00027414816,0.0006100519,-0.0037142953,-0.0011564762,0.0061436975,-0.0040564653,-0.0014203087,0.004500995,-0.0044502374,-0.0030173368,-0.002631121,-0.00096091727,-5.270505e-05,0.0011576847,-0.0011135265,-0.0006458953,0.0006112167,-0.0043924786,-0.0007911659,0.0015632359,0.0017902106,0.0022573406,0.00090181804,-8.614295e-05,-0.0035875535,0.0004886841,-0.0038520987,0.0012961539,5.940897e-05,0.0024421494,-0.0017383056,-0.0014729266,-0.002148666,0.0021702566,-9.922844e-05,0.00095503015,-0.00059077545,-7.550494e-05,-0.00033294817,0.0003998099,-0.0013660432,-0.00096699793,0.000581954,-0.00041762268,5.3055017e-05,-0.0005633606,0.00018859032,0.00095693156,-0.0006366763,-0.0005961793,-0.0009559563,-0.000801402,0.000561072
0445b534,0.9975389,0.05738483,-0.004577697,-0.00270181,-0.016480586,-0.0012866325,-0.0066241054,0.022304492,-0.0060509364,-0.0021662617,-0.004014167,-0.005886271,-0.0036268022,-4.891772e-07,0.012206047,0.008194414,-0.0026842717,-0.0030967542,0.0025282248,0.0011686493,0.002054882,0.0004024943,-0.0070221894,-0.0009383788,-0.0016652974,-0.00016136617,0.0012939529,0.0029664515,0.012934385,-0.0058623976,0.008844955,0.001559666,-0.00073667266,0.0021555375,-0.00032380794,-0.0035279253,0.00091605703,-0.00017813075,0.001139057,0.00022076291,-0.00057074777,0.0016508094,0.00018536959,0.0011787827,-0.00059624214,-0.00091238576,0.00063109293,-0.00039034194,-0.00034971567,-0.00061626296,-0.0012500789,0.00014056129,-0.00015598293,-0.000989867,-0.0010905334,-0.00032838518,-8.8047535e-05,-0.00078342465,0.00025667986,-0.00026980473,0.00035327274,-0.00057708577,0.0009733942,-0.0008277372
044b274d,0.9878773,0.1527098,0.016304497,0.004286729,0.0117808785,0.0045380844,-0.003051955,0.008182078,-0.0017845704,0.005877241,-0.0014456932,-0.0019914366,0.0013819064,0.0016922856,0.0002247294,-0.0024234161,0.0039269715,-0.00045845428,-0.00039471543,0.0062485063,-0.0026825059,-0.00648866,0.0026297474,8.598206e-05,0.00028853476,-0.002271373,-0.001709452,-0.000611259,-0.0018985526,0.0017675571,0.004315438,0.0009889763,0.0024796803,0.0002954281,0.00014006521,-0.001158538,-2.1330647e-05,-0.0005954792,0.0005323173,0.00013246723,0.000521332,-8.82554e-05,0.00025071108,-0.000917844,0.00042958793,0.00041011462,0.0007299473,3.1297095e-05,0.00037638887,-0.0004766262,0.0018739925,0.00015880486,-0.0005094969,0.00017974271,-8.577551e-05,-0.0005968222,-5.9117025e-05,-0.0008243098,0.001207093,-0.0009679786,-0.0002800019,-0.00120484,-0.00086963316,0.0006507698
044c5c54,0.9933027,-0.10719618,-0.028831096,-0.0070573525,-0.0070527815,-0.008000225,-0.022460623,-0.008163576,-0.0058251787,-0.0059707537,-0.0026953712,-0.0010099246,0.00016079014,-0.00090579136,-0.0013215898,4.351834e-05,1.2657078e-05,-0.00077664567,-0.0024540839,-0.0017238919,-0.0011056152,-0.002329367,0.003733013,0.00012500497,0.0012418395,-0.0003538232,-0.001372112,-0.0021503654,-0.0013464077,-0.0041050864,5.55823e-05,-0.0011479695,-0.00095222873,0.0019243322,-2.6494163e-06,0.0030717843,-0.0044223773,0.0022316864,0.00018038259,0.0006916551,-0.001952263,0.0033025802,-0.0011213592,0.0006601297,-0.0009850451,0.0006254967,-0.00027878568,-0.0011931468,0.003222303,-0.00037120024,-8.626393e-05,-0.00020398633,0.0015950198,0.00023941998,0.0003442542,0.0010161276,-0.00016580582,0.00068850676,-0.00028349122,0.00020075508,-0.0006921408,-0.0004724199,-0.0006502662,0.0017154007
048fd254,0.9994887,-0.0007491397,0.010713916,0.00085937703,0.002381081,-0.0010706512,0.0038175227,-0.008786506,-0.0012598038,0.0023779045,-0.00787934,0.008420942,0.005925327,-0.0061193905,0.0011172055,0.0044637513,-0.0024321505,0.00018116477,-0.002524691,-0.0041637174,0.0033972876,0.0051556113,-0.0076467083,-0.001036342,-0.0010777975,-0.004835634,-0.0016613795,0.0013454861,-0.0036272232,0.0030355135,0.004722774,0.009823533,0.00081102346,0.0022898258,0.00011633719,0.0003094798,0.0012963152,-0.0023297267,-0.0013545854,0.0020247067,-0.002846413,-0.001177248,0.0004136122,-0.00051027414,0.0019072829,-0.00028125496,-0.0014876578,0.0045224414,0.0019065669,-0.0004912614,-0.0010137517,-0.0017138352,-0.001216944,0.001984955,0.00089611625,0.0011044216,0.0008790815,-0.000599781,-0.00078974175,0.0012961113,0.00040237565,0.0023521152,-0.0011959613,0.001539057
04b88b3e,0.99613523,-0.062709704,0.03645954,-0.00022693687,-0.0360329,0.01870458,0.0037930869,0.00027198653,-0.0016832143,0.009788935,-0.009968478,-0.0015461163,0.0026855997,-0.0012924148,0.0012930273,-0.0061149565,0.002529864,-0.0002598734,0.0019764267,-0.0030519904,0.001984471,0.0013707948,-0.001162438,3.3399177e-05,-0.0016523701,6.432608e-05,-0.0012673994,-0.0028617547,7.693601e-05,-0.00043304043,0.0007584855,-0.0037913602,-0.0010501412,-0.0030055032,-0.0013160158,-0.0018634294,-0.0011171346,0.0003205066,-0.0004402704,0.0015368208,-0.0021738654,0.0024218785,0.00019893248,0.0041743126,0.0054397266,-0.0003967836,0.0051148436,-0.005182079,-0.00079981954,0.00086682534,0.0017007418,-0.00036376592,-0.002049993,-0.0018376226,0.001498873,-0.00088006497,-0.0008132506,-0.0004506494,-0.0014043412,-0.0013692435,0.0006934249,-0.0037202465,-0.0008010806,-0.0002589691
04c5f885,0.9973628,0.059781004,-0.022650272,-0.006429598,-0.014253567,-0.018337285,0.0036614926,-0.0148849655,-0.0010806234,-0.00434597,-0.003199352,-0.0004992621,0.0010767203,-0.002789913,-0.0014247125,0.0058135693,-0.00037459878,-0.004232422,0.001884328,-0.0037523692,-0.002672008,-0.0038525641,0.0021385667,-0.00026750122,0.002534689,-0.0015578095,-0.00044014968,7.501495e-05,-0.0034843623,-0.0010699824,0.001762131,0.0043961974,0.0018567705,0.004449816,-0.00024945912,0.00039205063,-0.0017518505,-0.0028631752,0.00046849786,-0.00046473806,0.0017424522,-0.0019835855,-0.0012995428,-0.002132452,0.0031340793,0.0017982747,0.00024659868,0.0016161988,-0.00048755197,-0.0006606352,-0.0019476109,0.001409112,-0.00016194036,-0.0015024053,0.0030582817,5.683751e-05,-0.0002626602,-0.00044735865,0.0004383756,-0.00039971355,-0.0006764824,-0.00021060882,-0.0009441333,-8.856771e-05
04e37b6b,0.99453056,0.100138225,-0.014053908,-0.0029578374,-0.003113636,-0.00697897,-0.007645731,-0.002368498,-0.0021955995,-0.007913965,-0.0016399637,-0.0040116226,-6.270355e-05,-0.0036624123,-0.00083724526,0.0053878473,-0.0021746568,-0.0052402965,0.0067724427,-0.0044400916,-0.0019261228,-0.0050463392,0.0045757806,-0.00030222835,0.00217664,-0.001783048,-0.0004094197,-0.0007329494,-0.0017184676,-0.00036118086,0.0012292756,0.0029716243,-0.0008661174,0.0042466926,-0.0014819516,0.005241209,-0.0027415948,0.0004323359,-0.0016492865,8.097465e-05,0.0013391926,-0.0010498841,-0.00035452994,-0.0016081418,0.0014598848,0.0016869628,-3.5324163e-05,0.002599854,-0.0005609508,0.00035744283,8.3636594e-05,0.00090334285,-0.0005219919,-0.0011964501,0.0019610862,-1.2905765e-05,0.00029266687,0.0019228576,-0.001004864,-0.0016569596,-0.0017629707,0.00086849584,-0.00017502063,-0.00074368075
04e63aec,0.99910665,-0.034195248,0.005637181,-0.002056409,-0.013667352,-0.0070535457,0.00917032,0.0022680736,-0.0012192166,-0.00019026503,0.008101774,-0.002378697,0.0015948697,0.0005086029,-0.00069061876,-0.0027704998,0.006785894,-0.0029397898,-0.0006982729,-0.0027393324,-0.00017074567,0.0004436438,0.004391955,-0.0002622693,0.00025868262,-0.000106698055,-0.00042360116,-0.002256289,0.0023912366,0.0015227712,-0.0011998126,-0.0022852714,0.00095042295,-0.0018504983,-0.0015758967,-0.003289066,-0.00053891906,0.0006441033,-0.0004921825,0.0002977048,0.00014215874,0.00076519244,0.0010382163,0.0006896687,-0.0007873576,-0.00084950123,0.0006389256,-0.0008688958,0.00022694725,-0.0012384405,-0.0015524898,-0.0018021171,0.0016698532,0.00047683695,-0.0006677327,0.0005406882,-0.0012464831,-2.8992697e-05,0.00077051204,0.0008060885,0.00028085167,4.5800407e-05,0.0002466066,0.00036592357
04f83ccb,0.9908413,-0.130806,0.003945956,-0.0040754275,-0.020050958,0.008256602,-0.010420592,-0.017111024,-0.0019095523,0.00048281916,-0.00023907734,-0.0053113275,-0.0043966677,-9.958053e-05,-0.0030653,0.0051887007,-0.004217241,-0.0018819568,0.0028551894,-0.00066910044,-0.0016571583,-0.0048051104,0.00019646932,0.00021417705,0.00027028978,-0.0004917023,-0.0009184369,-0.0016093429,-0.0031538855,-0.0022539075,0.00070286985,-0.0003014422,0.0009371009,-0.0003473562,-0.0001246521,-0.0039452566,0.0015895878,-0.00091860915,0.00074070116,0.000661775,-0.0012455921,0.00041885203,-0.00047630412,0.0007498666,-0.0010295721,-0.00020244578,0.0007360379,-0.00088336394,-0.000100162346,-0.00070560485,-0.00035925704,5.840589e-05,1.2882734e-05,0.0002553138,-0.000109780325,0.0010015707,-0.0007225287,0.00036944993,0.00014164973,5.0086423e-05,0.0006977342,0.0007491067,-0.00032506027,-0.0005860431
052a7811,0.99871755,0.02894802,-0.004284326,-0.004562184,-0.01870407,-0.006258194,0.005610925,-0.024322063,0.0038916927,0.008827713,-0.0031497325,0.0034039386,-0.00853502,0.0065449844,-0.0027641766,-0.0021091104,-0.0024993739,0.001376523,0.0035446093,-0.0013065524,-0.008037758,-0.0027052185,-9.213074e-05,0.0020867214,-0.0056765433,-0.00075205043,0.000543546,-0.00021257454,0.0021266358,0.002826857,-0.0011080438,0.000843017,-0.00041956455,-0.0012744438,-0.0011585108,-0.001190572,-0.0022386909,-0.0008305049,-0.0008884339,0.0005403855,0.0010292953,-0.00041781156,0.00019106394,0.00082928257,-0.00058782846,-0.00034610197,0.0008698856,0.00026745102,-0.0006741841,-0.0018069058,-0.0031715007,-0.0009889641,0.0012400023,-0.0006242505,-8.528067e-05,-0.0005639241,-0.001268231,0.00017723248,0.0004861308,-0.0003038411,5.207467e-05,0.00028966155,7.677444e-05,-0.0002513971
052b25e1,0.99911433,0.035492852,0.007974798,0.0007997917,0.0014418499,0.0065509905,-0.012591228,-0.0006751834,-0.0029794634,0.0016993089,-0.0074989717,-0.0050604865,0.00041043473,0.0005119811,0.00050606515,-0.005044784,0.0033969402,-0.0022493112,0.0017919723,-0.0004754809,0.0006417632,0.0012455002,-0.0027073896,0.0007098183,-0.0010695076,0.0006504724,-0.0009481199,-0.0013820195,-0.0012812467,-0.0026428234,0.0007077951,-0.0012095928,0.0021828385,-0.000235102,-0.00021539103,0.00054906163,0.0007853368,-0.00029367997,-0.0015378689,-0.00030673502,0.0006571876,-0.00068744423,-0.00083875423,-0.001026634,0.0012880622,0.00049529277,6.299237e-06,-8.9887166e-05,0.00032760607,0.0005900124,0.0012773514,-0.0004310235,-0.0005842803,0.00050102174,-0.00050428597,0.0008992734,-0.00017768779,0.0011305931,-0.00040314926,-0.0010306314,-0.00068319065,-0.00032570187,-2.9314848e-05,0.0002643539
052cf3a6,0.997091,0.029466774,-0.02261534,-0.0045424467,-0.0071191555,-0.014259795,-0.0009971269,0.03281628,0.042909306,0.025122883,0.0022966606,-0.0009882658,-0.0060670488,-0.0029756892,-0.0014438736,-0.004850125,-0.0023395582,-0.0009813849,-0.001465719,0.0024377215,0.002884315,0.001632903,-0.005248231,0.00643015,0.011680133,-0.002062857,0.0026943532,-0.0005122278,-0.00214971,-0.00021961099,0.0010436203,0.00026453743,-0.0017320653,0.0028667112,0.003994498,-0.0037686173,0.00080285483,0.001685279,0.00050387153,0.0014835987,-0.0038890424,-0.0033873322,0.001650322,-0.00025418284,0.00021043156,-0.000515244,-0.001552659,-0.00027045576,0.0011204224,-0.00040103067,-0.00041709986,0.0023625314,-0.0017765189,-0.0003698422,0.001066485,-0.0021943718,0.0009644035,-0.0023246047,-0.0014427716,-0.00076686114,0.0010098589,0.0010719805,-0.0005242941,-0.0030415242
053be4e5,0.994002,0.10383249,0.02700188,0.0044266987,0.0045375796,0.007311958,0.003922498,-0.0012906907,0.0029660151,-0.0031452023,-0.009563228,-0.008259905,-0.0006419154,0.004118118,-0.00095502613,-0.0012485158,-0.0019666979,0.0024468377,0.00017273478,0.0007197786,0.00023995177,-0.0012762471,-0.0015296115,0.00080084405,-0.00095381617,0.002009492,-0.0009490499,-0.0007917641,-0.0028873852,-0.0012517644,0.00443359,-0.0036828672,0.0010038643,-0.00018705465,-0.0010947973,0.0011134073,0.0008316501,-0.001064324,0.00020797185,0.0013268867,-0.000205522,-0.0010566367,-0.0017496597,-0.0018734506,0.001043932,0.0001128408,0.0005606776,-0.0002532332,0.0003630097,1.38901005e-05,-0.000178324,-0.00010077837,0.0004550814,0.00018589356,-7.1783634e-06,0.001296352,0.0004040947,-0.00021380626,-0.0008958211,0.0025258043,0.00036143785,0.0022357018,-0.00038130116,0.0011271026
05624ab0,0.99822426,-0.032815617,0.0075320355,0.0015265798,0.011899476,0.0022843247,-0.0037323614,-0.008645363,-0.000972351,0.0031562503,0.013676906,-0.0058176904,-0.0038963563,0.004602683,-0.0020135187,0.0014967477,-0.0014650201,0.001190381,-0.0023232577,0.0014251985,0.00052921334,0.0005218955,-0.007605639,-0.00069933716,-0.0030233643,0.00019650963,-0.00071389927,-0.004013456,0.00022216278,-0.0048616626,-0.0033928722,0.0009784291,-0.009928637,0.0037239634,0.0048108883,0.014591459,0.012107854,0.0005318159,0.025096456,-0.009299808,0.0053194375,0.0032172434,0.0036821584,0.00022583659,-0.0064615714,-0.0010122263,0.0048754523,-0.0067975377,0.0018456269,-0.0102477,0.0023234906,0.004225946,-0.009533035,0.0032279387,0.0021794904,-0.001206425,-0.0033458008,0.0006652977,-0.004102558,0.0002490892,0.002264724,0.0018183052,-0.0049157664,-0.00040547832
056c41fc,0.9981682,0.023610478,-0.022213342,0.000481252,0.03891293,-0.024114603,0.005047117,-0.0045027365,-0.0024199965,0.010541954,-0.005647822,0.00052881247,-0.005654954,0.0018643427,0.0018566715,-0.0046189735,-0.0030534791,0.0021861796,0.0021824213,-0.0007986872,-0.0079383645,-0.0018897236,-0.0023020399,-0.0015064466,-0.0046711364,0.0005594132,0.00095311087,0.00069571834,0.00064741605,0.0027386746,-0.0013945117,0.0031147033,0.0006951837,-0.00030378246,0.0006121225,-0.0013317659,-0.0014289082,-0.0011891027,0.0018491839,-0.0026680904,-0.003646972,-0.00075374916,0.0012222561,0.001089643,-0.00083194365,-0.0007017743,0.00010631047,-0.000629829,0.00021577907,-0.0017154459,-0.0015124435,0.00023277038,0.0009061735,-0.0002938909,-0.00092436455,0.0001837594,-0.0009222681,0.00047149364,0.000564029,0.001028967,0.00031798324,1.32581235e-05,0.0009850764,-0.0007258503
05b35fa0,0.99747205,0.053355135,-0.026192678,-0.0011453653,0.027065214,-0.014982485,-0.01198104,-0.0015594901,-0.0057876757,0.0016785607,0.0010245593,-0.005048896,0.00038812147,-0.002247658,0.0012907066,0.0026694413,-0.0019090082,-0.0016823725,2.9615097e-05,-0.0006975862,0.0017965358,-0.00073535426,0.000958006,-0.0014654151,0.0018324627,-0.002124379,-0.00042557716,-0.0002250621,-7.86818e-05,0.0012129948,0.0011614972,0.00545717,-0.0020605843,0.0059372946,-0.001206981,0.010312332,-0.006938028,0.001916878,-0.0029831578,0.0004280019,1.22692145e-05,-0.0012347556,0.0008391836,-0.0015378166,0.0020472321,0.00060940225,-0.0020746088,-0.00024602207,-0.0011544089,-0.00066218944,-0.0027060357,0.00055921334,-7.196351e-05,-0.0006032146,0.0018547243,0.0005225938,0.00070334127,-0.00074305333,-0.0009799912,-0.00028138552,-6.632472e-06,-0.00025618658,0.0009321813,-0.00017686504
05f425a4,0.99827766,0.028080052,0.022218607,0.0025155225,0.0019147336,0.0037640787,0.007527682,-0.011243694,0.0029851634,0.005991744,0.022204947,-0.0046151145,-0.0016530303,0.00032040154,0.003246173,-0.015765777,0.012162685,-0.009265227,0.008816167,-0.005825522,-0.00084688247,-0.0014745172,0.001557261,-0.0004978962,-0.00020365189,-0.0032028724,0.00016902114,0.013221409,-0.0049615046,-0.0031483944,0.0036561536,0.0016460934,0.0020682774,0.00339078,-0.0034113317,0.00013264868,0.002179637,-0.0017890218,-0.00050179777,-0.00016533186,-0.0041672993,0.00057633495,-0.0007990414,0.000256967,0.005942352,0.003443541,0.0031382628,0.0054003256,-0.0007818131,-0.0021823302,0.00019473948,1.7032042e-05,0.0044496967,0.0008981876,-0.0018620221,0.000159351,-0.0033588728,-0.0011167964,-0.0004886261,0.003443539,0.00360353,0.002448727,-0.0025814318,0.00075279863
05f8ca37,0.99821806,-0.028265366,0.014032915,0.0021629191,0.008319332,0.014719282,-0.0041108844,-0.0071903793,0.0021129886,-0.006967038,0.00080957764,-0.002259124,-0.004886115,0.007292058,-0.0016753912,-0.0054779323,-0.0034791538,0.00022601268,0.0029047562,0.00090693135,0.003210882,-0.0009557374,-0.0006556904,-0.00094701094,0.008493239,-0.0035606734,0.0010297731,0.0013321583,-0.00128945,0.0019697102,0.0021503344,0.0007034002,-0.0012096895,0.00024725514,-0.00089488795,0.00035242448,0.0008699203,-0.0026107326,0.0019405893,-0.0007569268,-0.004656791,0.0035174373,9.3103095e-05,0.009888506,0.016561158,0.006801587,0.010650368,-0.0040612817,-0.0038760605,0.0007595562,-0.00023720642,-0.0019246927,0.003708119,-0.004915621,-0.00086592615,-0.003917268,0.0046971813,-0.002887895,-0.0004924848,-0.0014198009,-0.0047822203,-0.0010155449,0.002181458,0.00067924167
06336d82,0.9992907,-0.029305926,-0.0007668695,-0.0027042425,-0.009465707,0.00035557456,-0.0068059554,-0.012538158,-0.00205773,0.005841917,0.005444344,-0.001938442,-0.0019048936,0.0016645696,-0.0009993191,8.4129344e-05,-0.0032050374,0.0029804155,-0.0025826746,-0.0019425174,0.0011631005,-0.0008610116,-0.0013133417,-0.00066906743,-0.0005306096,-0.0010996215,-0.0012425083,-0.001147195,-0.0015225756,-0.0030730485,0.0004551528,0.003269938,0.00054232083,0.0016897592,0.002188102,0.002223131,0.0036941245,-0.0014505816,0.003822851,-0.0018024257,0.00064048974,-7.556714e-05,-0.000119720455,-0.00052630913,0.00040782767,-0.00052639784,0.0009786059,0.00063403405,0.0016840664,-0.00023537793,-0.00040792022,0.00095587724,-0.0019572277,-0.0004163314,-0.0020661925,-0.0009758803,0.002249294,0.00022924211,0.0009633048,-0.00021902393,-0.0008098126,0.0007036706,0.0008986278,-0.0014052861
064a82e9,0.9979003,-0.042792235,0.025945716,0.0050016437,0.014511295,0.010571362,0.0019995614,0.009978828,0.0011202167,-0.008436942,0.011430084,0.005879131,0.0002292068,-0.0039868974,-0.000554724,0.0051639946,0.001541815,0.009374797,-0.0031881672,-0.004449519,-0.00048843486,0.0034550878,-0.0024579477,-0.00038562645,0.0004928034,-0.0002632938,-0.00019602112,0.00022952925,-0.0016964787,-0.0009434792,0.0013792157,0.00013951812,-0.0012484172,0.0026216179,-0.0017850691,-0.0013332928,6.36255e-05,0.00011127441,0.0014565744,-0.003356286,0.0021082729,-0.0010732719,0.0006424267,-0.0004255375,4.5379955e-05,-0.0003146775,-0.00076939305,0.0047343187,0.0028022774,0.0040885014,0.002206618,-0.0020898764,-0.00071094075,-0.0020120486,-0.0013222573,-0.0011989989,0.0013725348,-0.00822882,0.00075572147,-0.0020484366,-0.0064513735,-0.0049770195,0.0074013816,-0.0042289463
0657fcde,0.9976405,-0.0045607784,0.03240587,0.005395953,0.012824782,0.016178206,-0.002162792,-0.012738552,0.006103564,-0.012615779,0.0124098705,0.009892405,0.0061753793,-0.0069205295,0.0057625305,-0.0046455786,-0.005109173,0.001548489,0.0010757542,-0.0061574033,0.0031241707,0.0035386092,-0.0027595756,0.000905998,-0.0012834255,0.0035375305,0.0015154148,-0.0003060947,-0.0015866708,-0.0027046925,-0.0022133507,0.002588219,-0.0035119052,0.002581188,0.004117549,0.00035242323,0.0013936796,0.0016438895,-0.0046677142,-0.003577369,0.0008298235,-0.0011138613,-0.0011102066,-0.0016835876,0.00089143025,-0.005339394,0.00019160344,-0.0040336596,0.0024164927,0.0044505727,-0.002861764,0.0001896702,0.0019642622,-0.008422836,0.0019878158,0.0012083437,0.00503993,0.0026710038,0.0015300098,0.0045052785,-0.003846869,0.0041237148,0.005371849,0.002357309
0666fb4e,0.99854267,0.04726015,0.008415992,0.0019414858,0.011306069,-0.003272832,0.0026588535,-0.0048100376,0.0014850952,0.0012567379,-0.0018915732,0.004562558,-0.0008814538,0.0016469294,-0.0006493145,-0.0013702012,-0.004164029,0.0039943685,-0.00076378806,-0.0028088186,0.0008150046,-0.0012684957,0.0021231805,0.0013453467,0.0048331507,0.002328728,0.0014615407,-0.0014411886,-0.0010766779,-0.0015114174,6.4247897e-06,-0.002593511,-0.0015208409,0.0021737313,-0.0019871506,-0.0035914558,0.0014631341,0.0010920722,-0.0025204986,-0.0032403127,-0.0019778933,0.00038022763,-0.0004087175,-0.0005934268,-0.0025039548,0.0026485124,0.0010928962,-0.0027356332,-0.001679221,-0.0022550735,-0.00043890817,0.0003427815,0.00087774475,-0.0009340765,-0.0012342051,-0.0019963644,0.0031903065,0.0006952702,-0.00041814812,0.00032903784,0.0002145068,-0.0008590624,-0.00061610073,0.0017636042
069d668b,0.9977522,0.048719108,0.0332646,0.0030559008,-0.009808949,0.015588257,0.0019730236,-0.00909663,0.002417501,0.006614803,-0.00053374557,-0.008988959,-0.007057157,0.008620434,0.0026900163,0.0018178443,-0.0016903218,0.0023736807,-0.0007807062,-0.0001302553,0.0010340242,-0.0026382408,-0.0022110518,0.00039645808,-0.000958531,-0.001519409,-0.0014195781,-0.0004525007,-0.0022576991,-0.0019130338,0.00085034734,0.00020871282,-0.0028918185,0.0012595224,0.0025795244,-0.0029304265,0.0009330296,0.0013012048,-0.001911727,0.002695542,-0.0034989326,0.0003086749,0.0005221486,0.00013257709,-0.00060527964,0.0008747224,-0.00046284398,0.00145842,-0.00046828188,-0.00016590423,-0.00035412709,-0.0025654791,0.0036546295,0.0006413352,-0.0013644645,0.0008752207,-0.003232627,0.0005271949,0.0007377086,-0.002352269,0.0005094149,-0.0015848797,0.0003326118,0.00086972525
06cba5d7,0.99855155,-0.029727193,0.010335788,0.0035249647,0.025236504,0.0003243987,-0.0021996,-0.010316941,-0.0056100646,0.026067035,-0.00987913,-0.004203755,-0.0026767193,0.0025766473,-0.002310781,0.0053895027,-0.00015730193,0.00046803526,-0.003125911,0.0015166897,0.000977884,0.0004299326,-0.0042863833,-0.00073942106,1.0583668e-05,0.0012902117,-0.00017513697,0.0001278725,-0.0023518787,0.002018805,0.006031144,0.0027492926,0.0013016076,0.00051743875,0.00026930321,0.0015029261,0.0026186614,-0.0015768799,-0.00033803153,0.0017360057,-0.001055642,-0.0014853175,-0.0004982346,-0.00092151365,0.0015725953,0.0009544797,-0.0010201769,0.0022049327,1.3246017e-05,-0.0014614132,3.1334283e-05,0.00067777437,0.0016414302,0.0009935612,-0.0022535229,-0.0017412768,-0.0033825894,1.3086104e-05,-0.00092685624,-0.00174536,0.0003338733,-0.0007210281,-0.0011047903,-0.000106072344
06e59db8,0.99426556,-0.1008442,0.0053274008,0.0019383668,0.024468249,-0.0055370154,0.0012719585,-0.01489669,-0.0014120026,0.0090620965,-0.003121957,0.0016139813,0.0033541215,-0.003704101,0.0027603132,-0.0029248125,0.001244091,-0.00031571803,-0.0014142933,-0.0031330949,0.0011185046,7.500751e-05,0.00083821063,0.00028231423,-0.0004279289,-0.0004432001,-0.0005516571,0.00088719156,-0.0005760506,-0.002391678,-0.0021443882,-0.0052813874,-0.0016687587,-0.0013987591,0.002315893,-0.0034351232,-0.00020277084,0.0010406557,-0.00038190137,0.0025159738,-0.0018355827,-0.00018800759,0.0012623596,0.0012177847,-0.0013176586,-0.0024907251,0.0006749561,-0.002109383,0.0015363521,-0.0020141513,-0.002746764,-0.0013960878,-0.0016692139,0.001189743,0.0002901391,0.0012115038,7.159028e-05,-0.0005337258,-0.0005133303,0.0007616617,0.00014941089,-0.0010512528,0.0002687842,0.00046239066
06f33221,0.99607396,0.084631935,0.007307921,-0.0005120571,-0.011244151,-0.0026680634,0.004306929,0.007529138,-0.0023409906,0.0042424416,-0.0005477302,-0.0020269402,0.00013064266,0.002176091,-0.0020895614,0.0024040015,0.0031314287,-0.0015902804,-0.0008401454,7.675683e-05,-0.0012960327,0.0029464967,-0.004864157,-0.00027880748,-0.0004663513,-0.00055608735,-0.0004671851,0.00018315854,-0.0009740526,0.000562755,0.0012730869,-0.0002012598,0.0002735884,0.0006003049,-0.0013379273,-0.00042110152,-0.002458321,-0.0023657798,-0.000592755,0.0007977525,0.0032653292,-0.00077338476,-0.0005546238,-0.0014190119,0.0019020815,0.0010190302,0.00064226054,0.00015995088,-6.581744e-05,-0.0019388568,-0.0026704103,-3.9728206e-05,0.00011475142,-0.0014397989,-0.0010266394,-0.0011079045,-0.0005658477,-0.0005398717,0.00039533817,3.045142e-05,-0.00041064082,-0.00026411592,-0.00015353622,-0.00073392456
073b3535,0.9932876,-0.110024825,-0.00404218,-0.004647643,-0.014124205,-0.013778574,0.010165305,-0.01844668,-0.0006878726,0.00089003606,-4.3083066e-05,0.0012053321,0.006061822,-0.004977283,0.0024630749,-0.003235764,0.0066728713,-0.0036863142,-0.0022733014,-0.0027552748,0.0033373132,0.000683777,0.0059412927,-0.00071195955,0.00014077181,-0.00074242486,-0.00074706046,-0.0026067377,0.0030506756,0.0027975228,-0.00080364343,0.00089373987,0.002057914,-8.62028e-05,-0.00047860964,-0.0033857254,0.0012828563,-0.0015757245,9.159338e-05,-0.0007521912,-0.00018315877,-0.0015168939,2.6287147e-05,-0.00014713223,0.0017368598,0.0018378334,-0.0010279471,0.0031165986,0.00056479534,0.0027972772,-0.0011409887,0.0027850692,-0.0027194293,0.0020772836,-0.0009481489,-0.00039705148,-0.001433058,9.013893e-05,0.00011532509,-0.0004079142,0.00047843537,-0.0009234829,-0.00094860874,0.00018981077
075f92a5,0.991559,-0.12481863,-0.011609273,-0.0006954775,0.02144241,-0.012694139,-0.0028924632,0.0022376564,-0.003163421,-0.0027716418,0.015033828,0.0038159848,-0.00015177588,0.0005426508,-0.0018963751,0.004666704,0.0009507376,-4.7377747e-05,-0.0057809628,-0.00055509637,-0.003274016,0.0021546462,-0.0026062399,-0.000601602,0.00052484294,0.0020722752,0.00010414142,-0.0009086954,-0.0016887733,-0.00060126313,0.0026702508,-0.004613552,0.0017476382,-0.0014880406,0.0007638639,-0.001910214,-0.0036486187,-0.0013480452,-0.00039840737,0.0031284152,0.0022151151,-0.0005008522,0.0008278694,0.00015976607,0.0008159433,-0.00013845682,-0.0002543926,0.0013173283,0.0009554267,-0.00049381267,0.0010583979,-4.455456e-05,-0.0016302787,-0.00066192815,-0.0009817288,-0.0006728533,0.0005882233,-0.000570602,0.0001471518,7.464035e-05,-0.00038554484,-0.001238092,-0.0009543341,-0.00057672913
077ee03e,0.99947786,-0.015691455,-0.020498995,-0.0041608117,0.0010985052,-0.012765749,-0.0075747063,-0.0036179502,-0.003995799,0.0012098063,0.0070107984,-0.0034320455,-0.0013910418,0.0017222794,-0.0008158688,-0.00055296416,-0.0003774831,0.0012914115,-0.0029745912,-0.0006418346,0.00012563202,-0.0009964928,0.00078584417,-0.00059804413,0.0002184404,-0.0007282149,-0.00094026077,9.204975e-05,-0.00096275774,-0.0007486091,0.0003838397,0.00026716245,0.0011504479,0.0003218746,-0.0006077418,-0.0021021988,-9.891251e-05,-0.0002743089,-0.0009440073,0.0008025765,-0.0006247193,0.00023708347,-0.00021107793,0.00030599654,0.0002242049,-0.00030788907,-0.0003671476,-0.00093746145,-0.00021173438,-0.0003108903,-0.000602186,0.00073005207,-0.001018609,-0.00047219652,0.0010240013,0.00039868298,0.0006112515,-0.0003983699,-0.00038168818,3.1253418e-05,0.00015097484,-0.00014366274,0.00033616737,-0.00014189717
078a6196,0.99862945,-0.041610844,0.013278008,0.002128386,0.0065606777,0.012541327,-0.017928215,0.007809486,-0.0029683225,-0.0037374757,-0.0035828792,-0.0057881325,-0.0026035241,0.004105732,-0.0020473003,-0.00053929084,-0.0016666204,0.0023936527,-0.0017123236,0.0011424447,0.0005665229,0.0006718737,0.00026688923,2.7959037e-05,-0.00063808786,-0.00042332793,-0.0013944958,-0.0005486296,0.00075899245,-0.00077015156,0.0004284511,-0.003777728,-0.00087132625,-0.00086513406,-0.0015546075,0.0007112114,0.00035823634,-0.0012513117,-0.0013138024,0.0005756828,0.0018595997,0.00094311143,-0.0030728253,-0.0014091507,0.0012107362,0.0016491128,-4.9358798e-05,0.0009936839,0.0028165027,-0.00042548554,-0.0008392955,0.0002153742,0.0015367456,-0.00045512817,-0.00066111184,-0.00045151237,-0.00013355134,0.0008990182,0.0007831779,-0.0017141838,-0.000104668,-0.0007745056,-0.00066612987,0.0016808686
07bb2245,0.99832237,0.036233917,-0.031412132,-0.0046377555,0.008855044,-0.017144445,-0.012566467,-0.008240186,-0.004472907,-0.001637459,0.0012241686,-0.00050811673,0.0031773183,-0.0015192877,0.00076995423,0.00049805414,0.00045245665,0.00050093967,-0.0046040225,-0.0002171327,0.0027773504,-0.00017718629,0.0075839306,0.0003550481,0.0021157765,0.006189584,0.0028371264,-0.00013652032,0.0045874403,-0.000219925,-0.0068309386,0.0009569751,0.0023942618,-0.000107292966,-0.00041729465,-0.0004914841,0.0035204985,0.0028898236,-0.004028582,-0.006548528,0.0019122575,0.00064861635,0.0010577005,0.0010251205,0.00011563813,-0.00031953325,0.0004909521,-0.00090416166,8.361209e-05,-0.00046250282,0.00043013034,-6.015612e-05,0.0010481913,0.0010813324,-0.0016492913,0.00016928717,-0.00046935832,-4.5432178e-05,-0.0004254188,0.00087439996,0.0011549873,0.0018573999,0.001033126,-0.0003970886
07bb7765,0.99821734,0.012691488,0.019475881,0.041776888,0.016305653,0.005152082,0.0014521981,-0.0016582934,0.0027464302,-0.01527517,-0.007002626,-0.004553215,0.004620181,-0.0017295888,0.0015671711,-0.0045637144,0.0051272283,-0.0034432204,0.0018545694,-0.0014539261,0.0055285245,0.0018738852,0.0027123706,0.000612251,-0.00014197244,-0.000970796,-0.0007055537,-0.0015847775,0.0018256017,0.0032214823,-0.0012258422,0.0005701336,-0.0006639516,-0.0007010553,-0.00027282975,-0.0013935812,0.0011077898,0.0010223781,0.0012320275,-0.0008271229,-0.003501851,0.0005749673,0.00046199147,0.0010733277,-0.002297863,-0.0033570994,0.0023825797,0.002425009,0.0010189153,0.0026052175,0.00026824488,-0.0012202624,-0.00028309392,-0.00051435555,0.0019826158,-0.00048491434,-0.0013247646,0.0034533169,-0.0008594516,-0.0039650076,-0.0031291666,0.0025668158,-0.0009890374,0.0009058378
07c36ae1,0.99875355,0.020789329,0.029674537,0.0065323426,0.020379007,0.006528574,0.0062430045,0.0018628744,0.0025176506,-0.0070302435,-0.006706423,0.0003640653,0.0019245109,0.00041514766,-0.0013616643,0.0046069645,-0.0026873043,0.0018691861,-0.0013785142,0.0011524687,0.0001505375,0.004939951,-0.0046704016,0.0009941924,-0.000425691,0.0002688256,-0.00038121204,-0.00024842127,-0.00097429496,-0.0043537044,-0.0031977096,0.0027446647,0.004749572,-0.004184135,0.004184642,0.00015944323,-0.00180277,0.003411998,0.00057477516,0.0008986136,-0.0031569565,0.005473367,0.00048592244,0.0049249656,-0.006290789,0.004436341,-0.00421531,0.00051425025,-0.0053652492,-0.0014946532,0.001699139,-0.0006617453,0.00016306464,-0.0013114633,0.0009973188,-0.0034894827,0.000977899,0.00068318704,0.0030266037,-0.0005200872,-0.0010679311,0.0015579176,0.00045521944,0.0005467192
07e41499,0.9982543,-0.049222007,-0.0017632635,-2.4257464e-05,0.013433027,-0.0018720204,-0.007994139,-0.006876334,0.0018691353,0.00791089,0.0004679799,0.0016720867,-0.0030853678,0.0046515414,0.00011335154,-0.0034334005,-0.0048379353,0.005569752,0.0019034159,-0.0020907882,-0.005195344,-0.0014697044,4.398251e-05,0.0045089265,-0.0044692135,-0.00075902726,-0.0013374686,-0.0015390961,-0.00072375935,-0.0007924578,0.0012606459,-0.0033052547,0.0021023217,0.00038938792,-0.00026440487,-0.0019432353,-0.0013245675,-0.001543818,-0.0011033298,-0.00022566749,-0.0018871813,-0.0017881263,-0.0008043017,-0.0015603511,-0.0005509016,0.0010808383,-0.000755506,-0.0037291294,-0.00042212172,-0.0012274672,0.00208826,0.0012149747,-0.0014369283,0.0012532979,-0.0020100304,-0.00034164154,0.0020441914,0.00092381483,-0.00030491853,0.00039798862,0.0009864144,-0.00060815585,-0.0019026159,-0.00062421523
07f3409c,0.99851197,0.042427182,0.018845994,0.0036553207,0.009650091,0.002665131,0.0036212283,0.007865147,-0.00251803,0.005864355,-0.008335236,-8.631064e-05,0.0007080019,-0.0029710282,-0.00050557347,0.0038966949,-0.001016014,-0.0024996276,0.004829325,-0.002732863,-0.003317367,-0.0002357075,0.0019261037,0.0005407498,0.0032032856,0.00068809727,0.0011187333,0.008292231,-0.0033162406,-0.007654507,-0.002879991,0.0002689632,0.0070209806,-0.0015297808,0.0035177327,0.001973661,-0.0024702707,-0.0017967873,0.0010350778,-0.0016676019,0.0008559001,3.420442e-05,-0.004217437,0.00027142296,0.0011567108,-0.0014083895,-0.004808227,0.00071507203,-0.003722261,-0.0005810986,0.0029221044,-0.0034455257,-0.0023807336,0.0023562675,0.0019740611,-0.0010649032,-1.6801174e-05,0.000108002176,0.00021792985,0.0013487927,-0.00019177597,-0.00096057006,-0.0019117051,0.00065663195
081d84f4,0.9953422,0.08666486,0.02581377,0.004918638,0.0078436695,0.014367238,-0.004240031,0.0037644529,-0.0019127668,0.0017779837,-0.011082626,-0.008921343,0.00050023425,-0.0031510335,0.00074753555,0.007523431,-0.0069669667,-0.0010997591,0.00498721,0.00227855,0.00480937,0.0018539884,-0.0062766466,-0.0007360154,-0.0014718898,-0.0021155414,-0.00020006466,0.00066981465,0.0005029048,0.0049858643,0.0005312151,0.003631341,-0.0029457174,0.0018360391,-0.0022913467,0.0080791805,-0.003500987,0.003072581,-0.0028260052,0.00068362086,-0.00052525755,-0.0008423508,0.0023145184,-0.0011902673,-0.00120045,0.001998348,-0.003221031,-0.00084018544,-0.0012592747,0.0015834213,-0.00025326698,-0.0016352268,-0.00033168742,0.00026642176,0.004918224,0.0028176666,0.0024016586,-0.0013951203,-0.0010815931,0.0008889629,0.0020702572,-0.0030576019,-0.00021247807,0.0015726079
08276ea7,0.99762326,-0.049113568,-0.00475453,-0.000563616,0.009688449,0.006020419,-0.0051580872,0.00052353344,0.0045678997,0.0020002567,0.003729021,0.00534594,0.0010181849,-0.0033095006,-0.0010907573,0.0026192972,0.0006005472,-0.004694235,-0.010243465,0.011239723,-0.0018542095,-0.005001862,-0.005104674,-0.0022534737,0.0006647651,-0.003022296,-0.00080942723,0.00010327091,-0.0022950356,0.00083314476,0.0038642285,0.0010630178,0.00021309296,0.0025028193,-0.0018018525,0.0005094127,0.0019667246,0.00057533896,-0.005238549,-0.0041384757,-0.00053189567,-0.0020849295,-0.00082370697,-0.0022059984,0.0033170967,-0.0009019454,-0.0047220616,-0.0018874087,-0.0007557972,0.0064697596,0.008277635,-0.002627164,-0.0023119994,-0.00041795697,0.0071861045,0.0074298005,-0.00011184461,-0.0014721431,-0.00023793735,-0.006633087,0.008695833,-0.0033234032,-0.0027478614,-0.001478075
08288a1f,0.99864423,-0.041610725,-0.013915712,-0.0013544654,0.015694879,-0.018367186,0.0028574916,0.0032289338,-0.0047639604,0.00454274,-0.0031548666,-0.0010506614,0.0002075462,0.0007325124,-0.0016673899,0.0013103093,0.0016240375,0.0006564467,-0.0037828393,-0.002596363,-0.0027149909,-0.0020519292,0.00013852015,-0.0007324319,0.0015978981,-0.0010013712,-0.0009837971,-0.000100883895,-0.0036563235,-0.0032724505,0.0025371744,0.0023487515,0.0015380265,0.00204237,0.00055478583,-0.0021035122,0.0020774081,-0.0006079752,0.0003564701,0.00026444392,-0.002616924,0.0010800757,-0.00041369992,0.0005451243,-0.00045441015,-0.00034442166,-2.9664749e-05,-0.0007841467,-4.4965902e-05,0.00041457947,0.0014603571,-0.000577535,0.0012726223,0.00037648084,-0.0014959663,0.0005273092,-0.00044346933,0.0003490662,5.6606546e-05,-0.00012871806,0.000741876,0.00048649742,-7.185634e-05,2.172328e-06
08390d49,0.99482995,0.096650116,0.02023069,0.0035554606,0.0042982795,0.0032274607,0.0055893604,0.006974472,0.0028868427,-0.0052274372,-0.004330161,-0.003766819,-0.006249576,0.0064733997,-0.0017592772,-0.0055870195,-0.004319093,0.0029941266,0.0045852493,0.0024862327,0.001964799,7.484939e-05,-0.0044023264,0.002611315,0.008928564,-0.0026929332,0.0013986281,-0.000601615,-0.002215345,0.00037576217,0.0028392628,-0.0022998296,0.00014830708,0.0010220116,-0.0018637013,-0.0007817412,0.0008722105,0.000532732,0.00023938065,-2.3315175e-05,-0.0029517505,-0.00017839423,0.0009170791,-0.0008945476,-1.7690138e-05,-0.0007174692,-0.00086864614,-0.0015393129,0.0012274774,0.0010511747,0.0008053836,-0.00040846915,0.00076399505,0.0014545636,0.0007497595,0.00016024994,0.00052346307,-0.00026603643,-0.00079906976,0.0017548305,0.00019182745,0.0018040596,-0.00012830841,-0.0008115235
088efb89,0.9883904,-0.14502585,0.01612745,7.019426e-05,-0.006223582,0.0152473105,-0.015762273,-0.00034981695,-0.0024043485,-0.007896432,0.015800215,-0.0024726994,0.0007873867,-0.0027844629,0.0026288813,-0.013579084,0.014609837,-0.012808481,0.0065532606,-0.0023662774,0.0009990886,0.0042305454,-0.0019043263,0.00048148245,-0.0017769667,-0.00028897088,-0.0009381811,-0.0036155097,-0.0004362,0.0018124221,0.0026219871,0.004371723,0.0003810268,0.0010337634,-0.0013471538,-0.0022029113,0.00023997838,0.00043327574,-0.0018679795,0.0012247384,-0.0026309204,0.00082405104,0.00074350863,0.00054395536,-0.0006747069,0.00013463224,-1.7848288e-07,0.00058375695,0.0012541895,-0.0006459983,0.0010972143,0.00095164054,-0.0015551904,0.0017011702,0.0013632355,0.002806831,0.0015201638,-0.0020464514,-0.0018049648,0.006099895,0.003396071,0.0033370273,-0.0018325681,0.0016403932
08dbdc95,0.99882275,0.04046986,0.0042141997,0.00225939,0.017057428,0.0017405727,-0.010466514,0.0016357567,-0.0020313377,-0.0013043908,-0.0029516818,-0.0020181912,-0.00045479735,0.0022644757,-0.0015157476,-0.00081840745,0.0029315073,-0.0018322133,-0.0005753739,-0.0011435393,-0.0023783129,0.00033523902,-0.0012468379,0.0009231774,0.00015740628,-9.873438e-05,-0.0006966428,-0.00018816488,-0.001691631,-0.0028009152,-0.0010053134,-0.0031378663,-0.003079574,0.0017736586,0.0043969904,-0.002633463,-0.0007376605,-0.0002613722,-0.00010068264,0.0024309007,0.00011720552,-0.001102977,0.00030788663,-0.00080944836,0.0004573254,0.00042846493,0.00090707454,-0.0010681396,0.00027853073,-0.0018139528,-0.0018480304,-3.1844258e-05,-0.00011704835,-0.0009858453,-0.00034618995,0.00015169074,0.00032108443,-0.00075041066,0.00011841183,0.00049318175,-0.00012172952,-0.0002895349,-2.4602472e-05,-0.0001724998
08e3c7ae,0.9982133,-0.015618907,-0.011960584,-0.0047044624,-0.01089075,-0.030464524,0.030909564,-0.004079772,-0.00437406,0.023034716,-0.012570437,-0.0028168568,0.0021748815,-0.0020277626,0.0011220066,0.0017486087,0.00065325137,0.00215146,-0.0024687028,-0.001230672,-0.0007918176,-0.0030231068,-0.0024470433,-0.0010351158,0.0010168152,-0.00036567976,-0.000154318,-0.00055572594,-0.0036376426,-0.0025488604,0.00039903924,0.006444237,-0.00041210058,0.001011146,0.0016277742,-0.0042860005,0.0012901574,0.0014136714,0.002706621,0.001460956,-0.0060545206,0.0060716243,0.0032793225,0.005577654,-0.004876074,-0.0009256975,0.0024898644,0.0017447373,0.00085234264,-0.0018391209,-0.0033756257,0.001662622,0.0018206193,-0.0017575985,-0.0014217877,-0.0008582732,-0.0027163394,0.00010221719,0.0016444827,0.00065689505,0.00080356584,0.0017112854,0.0014484602,-0.0028446354
08e82426,0.9994607,0.004397781,0.017394962,0.0005047011,-0.0089654615,-0.0022909034,0.015925618,-0.0041375016,0.0024222601,-0.0057534613,-0.006832031,0.000795632,0.004165602,-0.0003383338,-0.00092767325,0.0058963518,-0.00047183706,0.00042587463,-0.003980302,0.0051524155,3.750698e-05,0.0005657441,-0.0060818414,-0.0009320095,-0.0011191716,-0.0031397312,-0.00102412,0.0007057125,-0.0016799631,0.0015386883,0.0015146281,0.0014478135,5.684302e-05,0.0007033727,1.2688271e-05,-0.00010938463,-0.0013143299,-0.0010184655,-0.00026456325,0.00078326627,-0.00031832888,0.0018512915,0.001980276,0.0031009258,0.0006707522,0.0050227335,0.001781356,-0.00042477922,-0.0014821205,-0.0005173232,0.0009711997,0.0014838154,0.0001712975,-0.0022917164,0.0012116592,-0.0013786833,0.00067247974,-0.0010747801,0.00053242024,-0.001136371,-0.0008459775,-0.00095157506,-2.55969e-05,-0.0013359858
08eb331a,0.99653554,-0.040561765,-0.013123526,-0.009617174,-0.04774873,-0.025363375,0.025083756,-0.0031852382,0.0037822218,-0.025568118,-0.0009631398,-0.001209576,0.007800185,-0.0021371497,-3.7791451e-06,0.0028461935,0.0025240507,0.00027873478,-0.0049266284,0.0017279908,0.0023375174,0.0006603142,0.0053614867,0.00039998486,-6.9973175e-05,0.0007996093,0.00030982366,0.0013258344,0.00329361,0.00081203337,-0.006551273,-0.00014763126,-0.008871709,0.0019222888,0.013206721,-0.0037580542,0.0017497261,0.0014537037,-0.00016291498,0.0029942242,-0.0029768357,-0.0003405686,-0.0022477475,-0.0017585973,0.00029055125,0.002212885,0.00033730804,-0.002699873,0.005921452,-0.00034138118,0.0008383617,-0.00076058495,0.0037714608,0.0005542124,-0.0005236963,0.002063907,-0.00082988496,0.0029391816,0.0014978194,-0.00053249265,0.00057713996,-0.00023435234,-0.00044874774,0.0028474473
08ed1a7f,0.99644446,0.07797845,0.016629986,0.0012610096,-0.005616205,0.0019802998,0.005430999,-0.0056565744,0.002219663,-0.005552242,-0.004785576,0.0007831682,0.0072461464,-0.004420334,0.0041372464,-0.0014831976,0.0018569882,-0.0012773754,-0.00076665863,0.006794633,0.0032818604,-0.00025813375,-0.001446083,4.2493015e-05,-0.0020626017,0.00026037617,0.0005404768,-0.002814836,0.005084027,0.00023455327,-0.0081062,0.0013946402,-0.0012926264,-0.001614759,-0.009501539,0.0026393265,0.0023211758,-0.0033428343,0.0027390898,0.010502348,-0.0059504295,-0.0034281337,0.0007311098,-0.0015781274,-0.00041218466,-0.00028095074,-2.4877545e-05,0.00020297633,0.0013399309,-0.00018109684,-3.6835467e-05,-0.0006503493,-0.00036887906,0.0011240082,-0.0017919644,0.00054592156,0.000573459,-0.00025148486,2.4019395e-05,0.0013256518,0.00015942843,0.0010161895,0.0013715937,-4.6829657e-05
08f461ac,0.9993992,0.016421324,0.016068324,0.00272659,0.006804164,0.0035136088,-0.001384352,0.005307169,-0.0005272312,-0.008808948,-0.0029489088,-0.0037734117,0.0041414117,-0.003421609,0.0034043998,-0.010142337,0.010526482,-0.007892612,0.005344668,-0.0008688419,0.0007480563,0.0032632279,-0.0010878704,0.00059858715,-0.0022003006,0.0038637742,0.00023720687,-0.0021838022,-0.0010407027,0.0025168504,0.0038673223,0.00177448,0.0005700058,-0.0008491564,-0.0005057268,0.000102919534,0.00056993274,0.00056595093,7.352234e-05,0.0018643165,-0.0014076472,0.00064525753,0.00068095815,0.00046458517,-6.265959e-05,0.00018548981,0.0011142051,0.0010757254,0.00075408764,-0.0014417254,-0.0019933898,-0.00043558137,0.0009218635,9.863424e-05,-0.0016144727,0.0003039216,-0.0003515599,-0.0014586874,0.0011579893,0.00013127187,0.0013179523,-0.00035616322,0.00072314026,0.0003017873
08f9b53a,0.999149,0.032195736,-0.0042514363,0.0006880803,0.016775588,-0.010865138,0.0014131835,0.00053981267,-6.882517e-05,-0.0062066102,0.00852993,-0.005393413,-6.4625994e-05,0.002207919,-2.4616274e-06,-0.00177115,0.0005588335,0.0012096217,-0.0020776184,-0.0014541475,0.00021817791,-0.0016692983,0.004754069,-0.0002687457,0.0007741922,0.0010423666,-0.00037241238,5.9813185e-05,-0.0006731282,0.0009829339,0.0024013494,-2.4514075e-05,0.0019774952,-6.99794e-05,-0.00030701948,-0.0017520456,0.0006357089,-0.00082754187,-0.0003956625,0.0010969775,-0.0003247643,-0.0005941347,-0.0009068375,-0.000889011,0.00094683596,-0.00035176205,0.0004500094,-0.001743907,-2.2257867e-05,-0.0009840203,-9.80106e-05,0.0008740368,-0.00052067055,0.00022262074,-0.00052464136,3.5781937e-05,0.00038605367,6.0048675e-05,-0.0006176942,0.0013791301,-0.0005845385,0.0012592745,9.595984e-06,2.65745e-05
0916cdad,0.9985214,-0.037239388,0.017702462,0.0035037212,0.016754482,-0.0015574633,0.007118049,-0.005155199,0.0016039517,-0.0060282853,0.0037021178,-0.0026128555,0.004624368,-0.0034191797,0.003484209,-0.008997535,0.009535489,-0.006733516,0.0037814684,-0.0041585425,0.0022407586,0.0018020116,0.0037556656,0.0012009874,0.0002206198,-0.00089513033,-0.00020133363,-0.0025712482,0.0010733679,0.0027348697,0.00070209516,0.0016249496,0.00093589735,-0.00048194622,-0.00071592216,-0.0033170863,0.0008768068,0.0010858118,-0.0014197645,0.0008182499,-0.0010548214,0.0002059248,0.001439589,-2.5949485e-05,-0.0018496074,-2.2958426e-05,-0.0006307531,-0.0052817664,-0.0013826429,0.0019263583,0.0051869564,-0.00136515,-0.0004313729,0.0021084507,-0.0012106851,0.0032202278,-0.0027063491,-0.0036804127,0.0040589552,-0.0021644915,0.0020450545,0.0025395758,-0.0022779077,0.0019278573
09429577,0.99946135,0.012917297,0.01737261,0.002625986,0.0047740275,0.0073086126,-0.0035234268,0.005306875,0.0014612592,-0.007857752,0.0023104004,0.006167017,-0.0015733943,0.0002507615,0.00048696584,-0.006201271,0.0014971102,-0.0015470537,0.0036101274,-0.005217701,-0.00658674,0.0017605207,-0.0010149474,0.00022288719,-0.002970612,-0.00018660004,-0.00023751843,-0.0012199965,-0.00037881866,0.0011964063,0.0006216375,0.00011137202,0.0005461207,0.0010825073,0.0016200858,-0.0034088616,-0.0039848043,-0.0012573359,-0.0011175186,0.00096460443,-0.00047405553,-0.002474476,-0.00018900612,-0.0027931174,-0.001459562,0.0040320507,0.0007982557,-0.0051440066,-0.0017746602,-0.0025773486,-0.0024015866,0.0021665606,0.0010308378,-0.0024313494,0.0007124195,-0.0020617968,0.0011612163,-0.00035023972,0.0018276402,0.001912265,0.0015969686,-0.0008853019,0.0002719042,0.00023726796
0949205b,0.9977017,0.051463142,-0.007280161,0.00092409906,0.027282761,-0.014193996,0.008081332,-0.023187114,0.00358175,-0.0062888786,-0.002323109,-0.0062953806,-0.00012054244,-0.0034600624,0.0006932729,0.0063911015,-0.004763685,-0.0039615734,0.0063002277,-0.0011749879,-0.0016582975,-0.005088218,-0.0009876018,0.00071511,0.00018570508,-0.00054182205,-0.0002806311,-0.000942769,-0.0039165867,-0.0017296859,-0.0002360073,-0.0023956671,0.00082719483,-0.0013762545,-0.0006264714,-0.0030719663,0.0030043938,-0.0016918386,0.0006681106,-0.00017610898,-0.000172464,-0.0004477321,-0.0007202193,0.00020076547,-0.00019213115,-0.00036743731,0.000914572,-0.0012326562,-0.00036180415,-1.8337581e-05,0.0009204029,-0.00029423917,0.00085302384,0.0005851365,-0.0009356154,0.0005312158,-0.0006363012,0.0006322098,-0.0004627809,0.0005807518,-0.00018847652,0.00055125786,0.00019613054,-0.0007592332
098c4b58,0.99688244,0.07457674,-0.006123543,-0.0041018142,-0.020550244,-0.0035073142,-0.0055193393,-0.0020869807,-0.0025329506,0.0034306878,-0.0003143503,-0.0013773612,0.0004399685,0.0003040106,0.00024616387,-0.0017255632,-0.0028653704,0.0032492836,-0.0008425861,-0.0018632744,0.00148089,0.0009277112,0.00073373923,-0.00054827554,-0.0013685689,-0.0005410437,-0.0021210583,-0.0004858082,-0.0013948829,-0.0021995413,0.00047136453,-0.0012965521,0.00041263574,-0.0010665286,-0.00040054673,-0.0008529604,0.00035067252,-0.0007259707,0.0006623132,-0.00015396139,-0.0025828604,0.00068098307,-0.003063227,0.0010888329,0.00061127683,-0.0005736364,-0.002768396,0.004037484,-0.0019102271,0.000103974744,0.00046299392,-0.0007261688,-0.0008197335,0.0005566138,0.00019142157,-0.0011147943,-0.00017068395,0.00016694912,0.00043275044,0.0005888823,8.578597e-05,0.0009542426,-0.00011240064,-0.00027249308
098f7878,0.99810004,0.05235426,0.0076232743,-0.0018232698,-0.01957952,0.012044167,-0.013827404,-0.0022440052,0.00015741408,-0.012265719,-0.0027253265,-0.0025748098,-0.0011431071,0.00046892854,-0.0018240694,0.0014560325,-6.253298e-05,0.004047101,-0.0006041591,-5.392678e-05,0.0011774101,0.0019967945,-0.0028202604,0.00029973724,-0.0015561846,-0.0015627395,-0.0015294137,0.00037276628,-0.0017264792,-0.00074542634,0.0016730662,-0.00012258708,-0.00029137972,0.000275095,-0.0012824547,5.5385084e-05,-0.0012435674,-0.0004138352,-0.00090182276,0.0011765863,0.00038131193,-0.0007451209,-0.0007521347,-0.00025586245,0.00053108047,-0.00017389403,0.00036174263,-0.0004090842,0.00064467965,-0.00048561633,-0.0012652602,-0.0007094569,-0.000993777,0.0001272899,-0.0012588577,0.00030942835,0.00039850018,-0.00021648296,0.00010071425,-2.6429665e-05,-1.363359e-05,-0.00020454945,0.00062885747,-0.00014660551
09a67581,0.9983165,-0.052123792,0.015376946,0.0008097762,-0.0012201752,-0.0010187414,0.007008538,-0.0023896769,0.0030328357,-0.0072169625,-0.0004330026,-0.0015840252,-0.0036435125,0.0041038473,-0.001281923,-0.0049615577,0.0005659495,0.0011336762,0.0012896411,-0.0016778,-0.0029672456,-0.0030928636,0.0031903351,0.00027577166,4.523237e-05,-0.000727357,-0.00017734815,-0.0013310538,1.32338755e-05,-0.003116652,0.0004818697,-0.0013442697,-0.004478217,-0.00013208481,0.0011430193,-0.0012707595,0.0030957174,0.00067786727,-0.004306883,0.0058222916,0.0045534847,0.0019530486,-0.0013176681,0.00095860835,-0.0019070992,-0.00022116171,0.0013950142,0.0009551887,-0.00018978867,0.00014194733,0.0007662974,-0.00032248846,-0.00029383565,0.0001623815,0.00074561394,-0.0016411106,0.0014543002,-0.00030800747,-0.0022167007,-0.0013708543,0.0002073251,-0.0006455221,-0.0010037856,0.0005494571
09bf7971,0.9954614,-0.086051755,0.008233643,0.0018961066,0.018620659,-0.008728002,0.010635571,-0.006978009,-0.0035170543,0.019841315,0.001734293,0.00044479035,-0.0004912722,-0.0007308162,0.00024152666,0.0022970461,-0.0032226027,0.003897093,-0.0035421608,-0.002922719,-1.1598551e-05,-0.0010412307,-0.0018461301,-0.0011949397,0.0018341716,-0.002522644,-0.000494992,0.0029602302,-0.004012748,-0.0009472967,0.003381743,0.006184592,0.0024874469,0.002483094,0.00089738064,-0.0035772389,-0.0019089802,-0.004366583,-0.0017341299,0.0022871825,0.0006219743,-0.0010584141,-0.0017285427,-0.0015150361,0.00097554136,-0.00184062,-0.0006332873,-0.0041244463,0.00042348503,5.996961e-05,-0.00031916323,-6.9854214e-06,-0.0009940143,-0.0007346251,0.0014797387,0.00023725741,-0.0019524537,0.00146821,-0.0011995574,-0.0025693267,-0.0010286056,0.0005892972,-0.0005230679,-0.0018789192
09ea6d33,0.9880113,0.07471557,-0.08881144,-0.013466576,-0.009220647,0.077971056,0.044304017,0.015181633,-0.01997333,0.0023484342,-0.0022871504,-0.0027530685,0.00034683122,-0.0023468419,-0.001683222,-0.01156179,0.0028297533,-0.0020087801,-0.019542499,-0.0054843826,0.0023159618,-0.0025387395,0.0018137764,0.008451158,-0.00059232954,-0.0016694001,0.00015136108,0.000510019,-0.002105588,-0.005392156,0.0014467937,0.0059983316,-0.0008036244,-0.0025554153,-0.002673203,-0.0038480314,-0.0024921058,0.014092343,0.0054348167,0.0011450554,0.0013490117,-0.0009927568,-0.006954368,-0.00544824,0.003649519,0.0013921484,0.00093434163,0.0012641,0.0010450463,-0.00069168187,0.0013649667,0.00022661699,0.0010368867,-0.00064163416,-0.0019737456,0.0004193341,-7.294788e-05,-0.0019576096,-0.002685687,0.0014709883,-0.0054567116,0.0019056008,-0.00044931297,0.006507373
09eb3ce5,0.99708736,-0.02438871,0.040406253,0.0031515404,-0.014210637,0.0075669587,0.021345152,-0.0067228163,-0.0005284036,0.021708727,0.0010427575,0.0041507506,0.005577237,-0.0060911113,0.003851667,0.0019928883,-0.009082418,0.009078692,-0.002487383,-0.007900041,0.008846209,0.0036204387,0.002332042,-0.0017135419,-0.0015023072,-0.0041694874,-0.0014073873,-0.0005671076,0.0031666302,0.007654772,0.0019261695,0.007006603,0.0016286472,0.002295048,0.0016896197,0.0007716527,0.0037479778,-0.0007213254,0.002282402,-0.0009780123,0.00025346963,-0.003303588,0.0009443143,-0.0044802106,-0.005682864,0.008215692,-0.004344494,-0.013310815,-0.0047612838,0.0054082735,0.011853548,0.008361901,0.00042392465,-0.006737509,0.006860323,-0.00056420214,-0.005850933,0.0012994371,-0.0022315285,-0.0011163185,0.0052213217,-0.0022928643,-0.003191436,0.001112917
0a1be27b,0.98428684,-0.17145123,-0.018836793,-0.0030404888,0.010594138,-0.003972281,-0.020809125,0.012446702,0.005344305,0.008348884,-0.008340001,0.0029920838,-0.0047891173,0.0013490927,-0.0018833469,-0.0037600868,-0.0022146343,0.0009976049,-0.00039910385,0.0022733207,0.003201384,0.0009342214,0.00028254904,0.0029810371,0.012301579,-0.0018668763,0.0022328969,-0.0013999688,0.00015336371,0.0006862738,0.0018029672,-0.00021120957,0.0014311599,0.0017659836,0.00016081285,-0.0012082683,0.00041939228,-0.002115898,0.0013063448,-0.0008249006,0.00081350195,-0.0031567027,0.00028940063,-0.0011275877,0.0016773252,-0.0007699968,-0.0012689736,-0.00049792265,-8.0208156e-05,-0.0019607276,-0.0017379621,0.00039360073,0.00022010879,-0.0005158673,-0.001122161,-0.0027111738,0.00048583903,-0.00013988416,-0.0018206984,-0.001046976,-5.5150656e-05,-0.0002923386,-0.00094003277,0.00025477188
0a21bbd6,0.9939324,0.10244202,0.026494684,0.0036337432,-0.0024981261,0.0138469925,-0.0048290626,-0.0001330241,0.0011454553,-0.0034440095,-0.009712478,-0.006160125,-0.00021534204,0.0027985235,-0.00048653307,-0.000699339,-0.0020778964,0.0018309271,0.000107065964,0.006229805,0.00064920756,-0.0018451267,-0.004519268,0.0011171587,0.00071122014,0.00022204591,0.00054598786,-0.000118883334,0.0009603392,-0.006818267,-0.0043130643,0.006482386,0.012429036,-0.0037668352,0.005871276,0.005496988,0.002082089,0.0019983328,-0.006015779,-0.0018123508,0.002528843,0.00023666967,0.00039573788,-0.0006068774,0.0023915896,0.00078470586,0.0015554243,-0.0003240886,0.0010074481,-0.0017968423,-0.0017664752,0.0015190839,-0.00089355523,0.00018403323,-0.0012892615,-0.0007297946,-0.00040288598,-8.2495186e-05,0.00028877382,-0.0014097787,-0.00042131575,0.00054386916,0.000832835,0.00059465016
0a248634,0.9937306,-0.10392592,-0.010759701,-0.0071419165,-0.031084152,-0.0050714933,-0.008085887,-0.00071716873,-0.0028610919,-0.016648246,-0.0033264651,-0.0022665306,0.0034937342,-0.0011598927,-0.0013280206,1.9806523e-05,0.0026565809,-0.00046192665,-0.00479661,-0.0005475952,0.0022317034,0.0005270018,0.0061115683,-0.00059418794,-6.0006132e-05,0.0002874018,-0.00031637424,0.0010101455,0.0023194354,0.0007803748,-0.0015053739,-0.00091993035,-4.2699587e-05,-0.00022841612,0.00027555102,-0.00041374928,0.0020441369,0.00036323298,0.0021872635,-0.0014754863,0.0006527015,-0.00071631576,0.00013332716,-0.00047898333,-0.00061231706,-0.0005891902,0.00018206704,-0.0012132127,0.000112054404,-0.00044401176,0.00039483275,-5.626199e-05,-0.00052216556,0.0007516987,-0.00044011784,0.000103295795,-0.000109789486,0.00068000297,0.0003699421,-0.00018228052,-0.00078738964,-0.00067826826,0.00017464832,-0.0010045402
0a31d60e,0.997639,0.024963684,0.014383462,0.0027929312,0.010180106,-0.002418171,0.009630919,0.0076680193,-0.0008500546,0.010063794,0.015783595,0.029286694,0.010141557,-0.015989475,0.0053113746,0.008685325,-0.014862948,0.0067935935,-9.931579e-05,-0.019626817,-0.0023028557,0.0027000133,-0.0004515508,-0.0022213971,0.0008455505,-0.0070663653,-0.0013553504,0.0071382974,-0.0036091206,-0.0015557772,0.0003736794,-0.006704681,9.1887596e-05,-0.0014461287,-0.0013312923,0.0022790292,-0.008699122,-1.5230609e-05,0.0019076501,0.0026167245,-0.0026728911,0.00043977876,0.00413737,0.0020097783,0.005014516,0.004117154,0.003808376,0.0061015515,-0.0007139384,-0.00193394,-0.0028870068,-0.005864854,0.0034821094,-0.00012664036,0.0008787438,0.0006401047,0.00073363615,0.0020733557,0.00084475067,0.006140257,0.0025927457,-0.0022971733,-0.0034986336,-0.00070902694
0a4e3aec,0.99847114,-0.03813141,-0.014918213,-0.0020361461,0.013510009,-0.014038777,0.0011529408,-0.0122224735,0.0018322992,-0.00466617,0.0035253295,0.008550686,-0.006167469,0.0018090022,0.0002077602,-0.0058292407,-0.007744819,0.0028123436,0.0037764094,0.0022525988,0.003449523,0.0027227788,-0.0069595943,0.0031630527,0.013325888,-0.003367064,0.0031111955,-0.0017262662,-0.0014351127,0.0018126221,0.0017948885,-0.0056956946,0.0012656125,0.00031880484,-0.0005996203,-0.00044445903,0.00088188687,0.0015401932,0.0014200244,-0.00027519467,-0.00096760155,-0.0019766674,0.002293746,-0.0018680254,-0.00267663,0.0025038305,-0.0036743497,-0.0067864116,-0.0006369844,0.002648763,8.837892e-05,-0.0015226954,0.003956095,-0.0001947388,0.0004944522,-0.0014907774,0.0052021807,0.00022699023,0.0016595778,0.0015612906,-0.0008781741,0.0006262648,0.0027655307,-0.0008671113
0a4eae7a,0.9937684,-0.05044095,0.0012808619,0.0053268247,0.022190848,-0.022448044,0.032896005,-0.017843202,0.00250117,0.017838966,-0.0060079214,0.015060474,-0.016709968,0.006037055,-0.004353928,0.006047391,-0.0069544837,-0.003516139,0.0137915695,0.024058012,0.017221196,0.028755428,0.026451448,-0.0027309468,0.0173786,-0.007727451,-0.0043645017,0.0007663689,0.00376977,0.0025808986,2.4546243e-06,0.017384974,-0.004525525,-0.00497916,0.0034258713,-0.002791945,-0.008302876,-0.012330255,8.555657e-05,-0.006035572,-3.5702687e-06,-0.0014375078,-0.019410463,-0.0075657982,-0.011536367,0.0042174505,0.02066341,0.009163468,-0.005112497,-0.012791054,0.00076085865,0.004074465,-0.005458404,-0.013909229,-0.014476657,0.016802393,-0.00070608937,0.0056005977,0.0038556987,0.002024362,0.001494381,-0.01107899,0.006554031,0.0061871815
0a59a757,0.999092,-0.033680737,0.014202201,0.002343646,0.00742991,0.004698769,-0.0049448116,0.008926065,-0.0033068152,-0.00095214613,-0.006988741,-0.00412095,0.0018257312,-0.00080106215,0.0006638204,-0.00095972343,7.4840675e-05,0.0005113844,-0.0013553922,-2.9468461e-05,0.0020285223,0.0024782775,-0.0015506175,-0.00061689154,-0.00070061977,-8.21275e-05,-0.00086326513,-0.0009489886,0.0004135711,0.000781475,0.00082159264,-0.0015558389,-0.00030963263,-0.0002774193,-0.0007756268,0.00059722504,0.00018114966,-0.0012949419,-0.00059975847,0.00048556773,0.0009166427,-0.0011989071,-0.0010506919,-0.0009438538,0.000972343,-0.0013568124,-0.000834783,-0.0020510014,-5.8773236e-05,0.0016985945,0.00020117588,0.0016780052,0.0014911912,-0.0036352603,-0.00030506833,0.00024204975,-0.0014213661,0.00046846326,-0.0016031803,0.0025446224,0.0019181855,0.0016212049,-0.0008030621,5.4073775e-05
0a98043e,0.99884546,0.02735682,0.01737971,-0.0011187372,-0.025762733,0.00019069422,0.009060958,0.00987663,-0.00029965403,-0.0070219366,-0.0036370473,-0.0038715384,0.004413086,-0.00075284694,0.00033926504,-0.0009911758,-0.00045549136,0.0035722358,-0.0028152054,-0.003151123,0.004171907,0.00094339886,0.006549131,-0.000888044,-0.00063880236,-0.0009899619,-0.0011466673,-0.0004479665,0.0036308418,0.00387619,-0.0015649189,-0.00062541594,0.0013114031,-0.0010572294,-0.0016457294,-0.0016060396,0.0022463808,0.0016725144,0.00051448494,-0.00095969025,-0.0009289113,-0.00033964973,0.0008249193,-0.0011074318,-0.0026944748,0.00403115,-0.0010662032,-0.00313466,-0.0018694147,-0.0004029464,-0.002111393,0.00015568433,0.001285315,-0.00080979994,0.0031717778,0.0010641114,-0.00017908611,-0.00011445106,0.0018935564,-0.001673049,0.000465249,-0.0016784231,0.0016062291,0.0010588898
0ad15907,0.99639386,-0.073207214,0.0143953925,-0.0006866047,-0.010297293,0.005010296,-0.0004824447,-0.0084398715,0.00061915134,-0.00014024627,0.0101461215,0.012660518,0.006489072,-0.007657203,0.004100864,-0.001971907,-0.0030245043,0.0019253254,-0.0016918873,-0.008630143,0.002940336,0.0048220614,-0.0012867681,-0.0006362845,-0.0014366924,-0.0035573554,-0.0020144098,-0.0018505126,-0.00041753412,0.0013307398,0.0019641763,-0.00024029225,0.0016972381,-0.0010618417,-0.0007023633,-0.0036308756,-0.0026250721,-0.0010571799,-0.0020788186,0.0026432152,-0.0003384377,-0.0016292288,7.560199e-05,-0.0014661294,0.0009698459,0.00028380114,0.00052172854,0.0033137654,0.0021515384,-0.0019577786,-0.0008393306,0.0004173579,-0.004274652,0.0028089294,-0.0019859711,-0.0025405604,-0.0002262999,-0.005691598,-0.0009292048,0.0003965209,-0.0054725674,-0.00427823,0.0012134783,-0.0039300676
0ad30c56,0.9994616,-0.0071630115,-0.0070482166,0.0006330251,0.023042837,-0.007954987,-0.0068506915,-0.0092640435,-0.0016047584,-0.0032378421,-0.005222532,0.003060833,0.0020806915,0.0001959546,-0.0018730955,0.0037993796,0.0015663301,-0.00075967785,-0.004925442,-0.0019194963,-0.0023473662,-0.0008450122,0.0037611257,0.0006520307,0.001955265,0.0014891502,8.572197e-05,-0.00079572876,-0.0011429702,3.6269434e-05,0.0018962617,-0.0013948196,0.0019652497,2.4785644e-05,0.0010992984,-0.0017336367,-0.0015921786,-0.002221016,0.0036228935,0.0012141967,0.0022469927,-0.0003633945,0.00030495148,-8.8741835e-05,0.00073831144,-0.00011634954,0.00054801983,-0.00070551655,0.00036502982,0.0026852381,-0.0030772574,0.0018767656,-0.0006465754,-0.0023686483,-0.0017494749,-0.00066960504,-0.0024655582,-8.5715874e-05,-0.0005060679,0.0010915041,-0.00018182551,-0.00017585649,-0.0012309026,-0.0003200406
0b7d9563,0.99843603,-0.044747878,-0.006891696,-0.0009228636,-0.016132953,-0.007616851,0.0010348168,-0.0055124382,0.0005848445,-0.008432048,0.01004499,-0.003334813,-0.001767677,0.0031117348,-0.0021191924,0.0020446025,-0.00094030326,0.00073413714,-0.0026120718,0.0023095272,0.0015667984,0.0010811362,-0.0032639292,-9.209673e-06,-0.0015732219,-0.00026579166,-0.0011190291,0.00018192382,-0.000624446,-0.00028642942,0.00034837733,-0.0039219093,0.00088426645,-0.0013550096,0.00038280978,0.00022394792,-0.0027831101,-0.001595321,-0.0032522483,0.00023383935,-0.0023559052,-0.0015681605,-0.0073946547,-0.003509461,-0.0056313416,-0.0016441318,0.012245994,0.0019125126,-0.0029981018,0.005755858,0.00079871295,0.00095320155,-0.00092977856,0.0044861226,0.004788801,-0.0017659123,-0.0004676375,-0.00042139762,-0.000491718,0.0021517258,-0.001452219,0.0023071235,-0.0001948943,-0.0035313363
0bcf7a38,0.998785,-0.041296624,0.0060829227,-0.00019605002,0.0035587838,-0.0066742217,0.007492994,-0.012627009,7.829359e-05,0.0010936542,-0.002121056,-0.005036427,0.00026591404,-0.0005095275,-0.0001220021,0.00022356906,0.0004879225,-0.0015600952,0.00044228305,-0.0032416119,-0.00071739254,-0.004046204,0.0037036838,-0.0006645194,0.0020680958,-0.00088981364,-0.0008449955,-0.0040007085,-0.0009931788,-0.003787732,0.0014432142,0.0015090854,-0.0024789942,0.006632968,6.604926e-05,0.010523305,-0.004322836,0.00070369383,0.0027022318,-0.0020633352,0.001817277,-0.001434845,-0.00038857985,-0.0029452113,0.0012682616,0.00023838,0.00042453792,-0.0036697371,-0.00056283,-0.0023861101,-0.00035656357,-0.00077166496,-0.0006092599,0.0021209253,0.00072314613,0.00087763724,-0.0014780072,9.51688e-07,-0.00055385183,-0.0015474659,0.0006526149,-0.0012168395,-0.0006407051,0.00024284777
0bdda3d0,0.9956748,0.08889231,0.0021989741,0.00038995975,0.004505864,0.0019815827,-0.0074200323,-0.0066931993,0.003986956,-0.012998608,-0.005902433,-0.0010830818,-0.007406396,0.0056580147,-0.0008409148,-0.006952754,-0.00419101,0.002457535,0.0045372862,-0.00018577222,-0.007831144,-0.0014533185,-0.001475795,-3.1915915e-05,-0.0061904467,0.0010600726,0.000648716,0.00059642177,0.0016126853,0.00055839395,-0.0021131467,0.002326274,0.003443629,-0.0017998088,0.0010240551,0.001126753,-0.00092343264,0.0004982374,-0.0006326379,-0.0035733413,-0.0037156143,-0.0014104282,0.0010338421,8.085903e-06,0.0009720173,0.00054505916,0.000311931,0.0013870127,0.0011250374,8.016334e-06,-6.0686634e-05,0.0011839973,-0.0007873008,0.00022238896,-0.0001152965,3.2669763e-05,-2.920266e-05,6.5857625e-05,0.0015113378,-0.0011261783,-0.0006546595,-0.0003392417,0.0009332416,-3.2535132e-05
0be614b2,0.9989744,0.03482659,0.01189172,0.0024559838,0.010814393,0.004636694,-0.004853056,-0.00477899,-0.00075376325,0.0054571205,0.003977498,0.00096337753,-0.00044409317,0.0009252493,-0.00024217916,0.0015263817,-0.0047161262,0.0039079892,-0.0019825643,-0.0007117132,0.00037568097,0.0010203732,-0.002204534,0.00087841495,0.00052630575,0.006020771,0.0015239852,-0.0003350382,-0.0018035881,-0.0037552714,0.0019048776,0.0031687138,0.009056513,-0.005172771,0.006592653,0.004586987,0.0011254299,0.0018752872,0.0007360026,0.0019405655,-0.00041489713,0.0014000987,0.0009136037,0.0015293092,1.4393588e-05,-0.0008938201,-0.0006288733,0.0015761389,0.0007410698,-0.0009699665,0.0017047042,-0.0025979693,-0.00065752136,0.0025366016,-0.0007238096,0.00075455534,-0.0018365353,0.00021224002,-0.0015563669,0.0011269276,0.00086151314,0.0002895775,-0.0013264061,0.0005258413
0c0f5e03,0.99967015,-0.01164061,-0.0038287973,-0.0008663659,0.0027579572,-0.005211582,-0.00522383,0.013104417,-0.005755261,0.0049105394,0.007774491,-0.0018861864,-0.000936195,0.0012771176,-0.0010717645,-0.0014786874,0.004181665,-0.001602523,-0.0008014867,-0.0013207496,-0.002250933,0.0013446027,-0.0018865117,-0.00045514465,0.00036935727,7.898682e-05,-0.0006479209,-0.00030292763,-0.0015150959,-0.0009708151,0.0012240524,-0.00026740588,0.0008301004,0.00054993207,6.3721745e-06,-0.00285566,-0.002330955,-0.0012158789,-0.0011913609,0.0012146941,0.0006038726,0.00050675374,-7.532022e-05,-0.00019330937,0.00048136828,0.00075684866,-6.0835046e-05,0.00012608987,0.00045487698,-2.3573342e-05,0.00065076695,0.0006341676,-0.001912003,-0.0016609638,0.00021809348,0.00029110804,0.00013748277,0.003952997,0.00035444938,-0.0031524482,-0.0032160864,0.001651344,0.00042088368,-0.0019164922
